<?xml version="1.0"?>
<opencv_storage>
<cascade>
  <stageType>BOOST</stageType>
  <featureType>LBP</featureType>
  <height>16</height>
  <width>16</width>
  <stageParams>
    <boostType>GAB</boostType>
    <minHitRate>9.9900001287460327e-01</minHitRate>
    <maxFalseAlarm>5.0000000000000000e-01</maxFalseAlarm>
    <weightTrimRate>9.4999999999999996e-01</weightTrimRate>
    <maxDepth>1</maxDepth>
    <maxWeakCount>100</maxWeakCount></stageParams>
  <featureParams>
    <maxCatCount>256</maxCatCount>
    <featSize>1</featSize></featureParams>
  <stageNum>13</stageNum>
  <stages>
    <!-- stage 0 -->
    <_>
      <maxWeakCount>7</maxWeakCount>
      <stageThreshold>-2.6485557556152344e+00</stageThreshold>
      <weakClassifiers>
        <_>
          <internalNodes>
            0 -1 99 -1 -1 -4 -1 -2097156 -1 -196612 -131073</internalNodes>
          <leafValues>
            -9.1525077819824219e-01 1.6903226077556610e-01</leafValues></_>
        <_>
          <internalNodes>
            0 -1 7 -1 -65538 -2031618 -539169042 -1 -2162690 -196609
            -2818050</internalNodes>
          <leafValues>
            -7.9576289653778076e-01 3.3854615688323975e-01</leafValues></_>
        <_>
          <internalNodes>
            0 -1 118 -1073741825 -1078394888 -1 -65540 -545390595
            -33554435 -2571 -16974604</internalNodes>
          <leafValues>
            -6.4927881956100464e-01 5.2837157249450684e-01</leafValues></_>
        <_>
          <internalNodes>
            0 -1 4 -1342199250 -1048721 587099129 -1073741825 -61441 -1
            -100353 -37</internalNodes>
          <leafValues>
            -5.8046668767929077e-01 5.2729344367980957e-01</leafValues></_>
        <_>
          <internalNodes>
            0 -1 116 -13 -1073807371 -268451849 -336805892 -98307 -3
            -33619984 -318966028</internalNodes>
          <leafValues>
            -5.9797710180282593e-01 4.9798479676246643e-01</leafValues></_>
        <_>
          <internalNodes>
            0 -1 51 -33588225 -1191248002 -16843073 -21299466 -8429991
            -67601417 -143229060 -160401552</internalNodes>
          <leafValues>
            -5.9240072965621948e-01 4.6513694524765015e-01</leafValues></_>
        <_>
          <internalNodes>
            0 -1 15 -319815953 -294977561 2130640118 2121596870 -266249
            2146959231 -131113 -151519369</internalNodes>
          <leafValues>
            -6.1817073822021484e-01 4.2504367232322693e-01</leafValues></_></weakClassifiers></_>
    <!-- stage 1 -->
    <_>
      <maxWeakCount>6</maxWeakCount>
      <stageThreshold>-2.0437815189361572e+00</stageThreshold>
      <weakClassifiers>
        <_>
          <internalNodes>
            0 -1 97 -169 -1 -33554433 -1 -67108865 -1 -1 -1</internalNodes>
          <leafValues>
            -8.6007708311080933e-01 5.0907516479492188e-01</leafValues></_>
        <_>
          <internalNodes>
            0 -1 9 -1 -65538 -860162 -65928 -1 -196612 -5046273
            -34275334</internalNodes>
          <leafValues>
            -7.7119910717010498e-01 3.1824207305908203e-01</leafValues></_>
        <_>
          <internalNodes>
            0 -1 12 -285217025 -285802642 -18945282 -17891332 -131585
            1610546175 -16777265 -168296457</internalNodes>
          <leafValues>
            -6.1988872289657593e-01 4.1729465126991272e-01</leafValues></_>
        <_>
          <internalNodes>
            0 -1 25 -33587305 -8503297 -822644738 -16842756 -1124120717
            -43137 1945595732 -26181788</internalNodes>
          <leafValues>
            -6.6092288494110107e-01 3.9119976758956909e-01</leafValues></_>
        <_>
          <internalNodes>
            0 -1 128 -557317 788529137 -1 -16973844 -42172556 -12
            -50465164 -184746540</internalNodes>
          <leafValues>
            -6.7444133758544922e-01 3.5142770409584045e-01</leafValues></_>
        <_>
          <internalNodes>
            0 -1 145 -51381453 -143130689 -4574 -826277906 -1109395712
            -671252481 -3293212 -402669585</internalNodes>
          <leafValues>
            -4.4572326540946960e-01 5.1687860488891602e-01</leafValues></_></weakClassifiers></_>
    <!-- stage 2 -->
    <_>
      <maxWeakCount>9</maxWeakCount>
      <stageThreshold>-2.6390690803527832e+00</stageThreshold>
      <weakClassifiers>
        <_>
          <internalNodes>
            0 -1 29 -386928641 -2049 -4203009 -1 -301989889 -1025 -1 -1</internalNodes>
          <leafValues>
            -8.7475717067718506e-01 3.1729519367218018e-01</leafValues></_>
        <_>
          <internalNodes>
            0 -1 31 -2116642 -1 -45809828 -2228513 -34 -1028 -2236421
            -2097153</internalNodes>
          <leafValues>
            -7.2728931903839111e-01 2.8404188156127930e-01</leafValues></_>
        <_>
          <internalNodes>
            0 -1 69 -33 2147483391 -262152 -1036 -548 -1661141772
            -1048872 -58851340</internalNodes>
          <leafValues>
            -5.9963846206665039e-01 3.7116774916648865e-01</leafValues></_>
        <_>
          <internalNodes>
            0 -1 144 -16777423 -1111490755 -268533984 -1086345221
            -268503180 -1082261633 -18964268 -184549385</internalNodes>
          <leafValues>
            -4.6960523724555969e-01 4.3715602159500122e-01</leafValues></_>
        <_>
          <internalNodes>
            0 -1 138 -38273097 786983413 -301989905 216854520
            -1342324769 -1392575489 -536871428 -1934819844</internalNodes>
          <leafValues>
            -5.5222004652023315e-01 3.7373033165931702e-01</leafValues></_>
        <_>
          <internalNodes>
            0 -1 98 -33608688 -67436547 -65540 -1208090648 -134392056
            -132163 339099322 1488428926</internalNodes>
          <leafValues>
            -6.6989618539810181e-01 3.0059975385665894e-01</leafValues></_>
        <_>
          <internalNodes>
            0 -1 20 -285217025 -1075380226 -454098952 -4259880
            -554337033 1313931095 -229323060 1425532754</internalNodes>
          <leafValues>
            -5.3799271583557129e-01 3.3102819323539734e-01</leafValues></_>
        <_>
          <internalNodes>
            0 -1 60 528434923 -553748481 -65537 -33619971 -32899
            -75661569 -76529794 -80576714</internalNodes>
          <leafValues>
            -4.4286224246025085e-01 3.9304816722869873e-01</leafValues></_>
        <_>
          <internalNodes>
            0 -1 54 855072447 1051516877 -268513540 -8212 -538501636
            2136776687 -117649412 82313190</internalNodes>
          <leafValues>
            -4.9716451764106750e-01 3.5322350263595581e-01</leafValues></_></weakClassifiers></_>
    <!-- stage 3 -->
    <_>
      <maxWeakCount>9</maxWeakCount>
      <stageThreshold>-2.5888955593109131e+00</stageThreshold>
      <weakClassifiers>
        <_>
          <internalNodes>
            0 -1 113 -161 -1 -1 -1 -1 -16385 -1 -1</internalNodes>
          <leafValues>
            -8.4780144691467285e-01 3.9602169394493103e-01</leafValues></_>
        <_>
          <internalNodes>
            0 -1 61 -1430603853 -2380291 -67109377 -58881 -33685505
            -1054725 -67371009 -8769</internalNodes>
          <leafValues>
            -6.1541539430618286e-01 4.3487608432769775e-01</leafValues></_>
        <_>
          <internalNodes>
            0 -1 110 1073086461 -1111572996 -16777217 -1073745924
            -1073889283 -1073741827 -20484 -1396803076</internalNodes>
          <leafValues>
            -5.3907287120819092e-01 3.9681833982467651e-01</leafValues></_>
        <_>
          <internalNodes>
            0 -1 70 -553656321 -1073807363 2147483516 -1359544340
            -16875524 -1 -16842916 -84082844</internalNodes>
          <leafValues>
            -5.8295750617980957e-01 3.4617057442665100e-01</leafValues></_>
        <_>
          <internalNodes>
            0 -1 122 -42991851 -8650883 -16253123 -1111752900 -167971328
            -268435460 909554622 -1073741826</internalNodes>
          <leafValues>
            -4.5478200912475586e-01 4.1669395565986633e-01</leafValues></_>
        <_>
          <internalNodes>
            0 -1 2 -1966952726 -1545031954 -1073815555 393711588 -199169
            -218113 -134316306 704108534</internalNodes>
          <leafValues>
            -6.3542979955673218e-01 3.0370905995368958e-01</leafValues></_>
        <_>
          <internalNodes>
            0 -1 50 2128584671 -1107922947 -537005089 -852097 1072977748
            2130472823 -1115753660 -9412750</internalNodes>
          <leafValues>
            -5.2452808618545532e-01 3.3110955357551575e-01</leafValues></_>
        <_>
          <internalNodes>
            0 -1 94 -21922053 1069348828 -671091713 -839058440
            -536903683 -8393281 -164868 -17498124</internalNodes>
          <leafValues>
            -5.1847511529922485e-01 2.9778671264648438e-01</leafValues></_>
        <_>
          <internalNodes>
            0 -1 13 -1361133913 -82188 922668014 -17629444 1325203190
            -822154373 -16889764 1994354527</internalNodes>
          <leafValues>
            -4.8147174715995789e-01 3.7659016251564026e-01</leafValues></_></weakClassifiers></_>
    <!-- stage 4 -->
    <_>
      <maxWeakCount>10</maxWeakCount>
      <stageThreshold>-2.4939231872558594e+00</stageThreshold>
      <weakClassifiers>
        <_>
          <internalNodes>
            0 -1 52 -1430519809 -1537 -2097153 -3585 -1064961 -283921 -1
            -1</internalNodes>
          <leafValues>
            -8.6997961997985840e-01 1.2167515605688095e-01</leafValues></_>
        <_>
          <internalNodes>
            0 -1 30 2146413482 -2049 937328433 -129 -268435457 -4195329
            1006624735 -257</internalNodes>
          <leafValues>
            -7.4967563152313232e-01 2.7226975560188293e-01</leafValues></_>
        <_>
          <internalNodes>
            0 -1 123 -67387631 -4327428 2143279600 -1073743108
            -639894020 -1163 -833683848 1731723259</internalNodes>
          <leafValues>
            -5.6089442968368530e-01 3.3550146222114563e-01</leafValues></_>
        <_>
          <internalNodes>
            0 -1 55 -1107296517 -1359021060 -1 -285411338 2130607220
            2130705398 -98444 -17793036</internalNodes>
          <leafValues>
            -6.9238775968551636e-01 2.8969246149063110e-01</leafValues></_>
        <_>
          <internalNodes>
            0 -1 108 2138660593 1073542136 -67634177 -289876996
            -15762124 -2229265 -35889548 -16973836</internalNodes>
          <leafValues>
            -6.3690024614334106e-01 3.0713093280792236e-01</leafValues></_>
        <_>
          <internalNodes>
            0 -1 14 -287839557 -1433765138 -822162772 -151077382
            33247215 -167773185 -4470938 -134758617</internalNodes>
          <leafValues>
            -4.6846261620521545e-01 3.9232978224754333e-01</leafValues></_>
        <_>
          <internalNodes>
            0 -1 73 -142876673 1197277183 -1744847873 -1157958305
            -273401644 2079722705 -4948098 -491660</internalNodes>
          <leafValues>
            -4.9419131875038147e-01 3.4433394670486450e-01</leafValues></_>
        <_>
          <internalNodes>
            0 -1 143 -548411861 -1581360 -1765021962 -386927753
            -1227957504 -654391186 -352927042 -112204572</internalNodes>
          <leafValues>
            -3.9588189125061035e-01 4.3769285082817078e-01</leafValues></_>
        <_>
          <internalNodes>
            0 -1 33 143568638 1047454382 -71643508 300535476 973060537
            1610529789 1946058750 1435196799</internalNodes>
          <leafValues>
            -5.5704849958419800e-01 3.1940904259681702e-01</leafValues></_>
        <_>
          <internalNodes>
            0 -1 92 1056915255 783995380 1543173583 -1359156746 -8710276
            -16899921 -20979908 -186843276</internalNodes>
          <leafValues>
            -6.2344682216644287e-01 2.5749716162681580e-01</leafValues></_></weakClassifiers></_>
    <!-- stage 5 -->
    <_>
      <maxWeakCount>12</maxWeakCount>
      <stageThreshold>-3.0667750835418701e+00</stageThreshold>
      <weakClassifiers>
        <_>
          <internalNodes>
            0 -1 97 -161 -2360833 -572526081 -2099201 -4457729 -1285
            -262145 -1025</internalNodes>
          <leafValues>
            -8.5062718391418457e-01 1.4146341383457184e-01</leafValues></_>
        <_>
          <internalNodes>
            0 -1 8 -402657553 -421074266 -25430653 -4205570 -50335761
            -268442650 -371211265 -6165</internalNodes>
          <leafValues>
            -5.9873473644256592e-01 3.8523444533348083e-01</leafValues></_>
        <_>
          <internalNodes>
            0 -1 147 -1230512673 -1431414093 -1652883465 -1929500932
            -1682195201 -1392611425 -268976129 -1930510849</internalNodes>
          <leafValues>
            -5.2716642618179321e-01 3.9645788073539734e-01</leafValues></_>
        <_>
          <internalNodes>
            0 -1 42 1376422878 -675031043 319033049 1073704811
            -116458498 -18874377 599490218 1608515583</internalNodes>
          <leafValues>
            -4.6192887425422668e-01 3.7606608867645264e-01</leafValues></_>
        <_>
          <internalNodes>
            0 -1 71 1073733611 1576648372 -2167300 -4530504 -573284740
            1281225084 -33591298 1899479038</internalNodes>
          <leafValues>
            -4.5593461394309998e-01 3.6459884047508240e-01</leafValues></_>
        <_>
          <internalNodes>
            0 -1 130 -1409385217 -1896024328 -2164739 -1375885828
            -1132987395 -1397032259 -1128857604 -1929392644</internalNodes>
          <leafValues>
            -4.1856843233108521e-01 3.8949850201606750e-01</leafValues></_>
        <_>
          <internalNodes>
            0 -1 78 1692235571 1060033403 -571285060 -1086390880
            1266645724 429079551 -17035284 1728053110</internalNodes>
          <leafValues>
            -4.7786182165145874e-01 3.2848092913627625e-01</leafValues></_>
        <_>
          <internalNodes>
            0 -1 21 -285741321 -831597634 -65282430 -222625868
            -616608700 1692335732 -1208223880 -260659337</internalNodes>
          <leafValues>
            -5.2705258131027222e-01 3.0041176080703735e-01</leafValues></_>
        <_>
          <internalNodes>
            0 -1 62 1189027840 -1088782470 2146885431 2147450207
            -269014113 -2128385 2013225964 1043267317</internalNodes>
          <leafValues>
            -6.2234777212142944e-01 2.2844690084457397e-01</leafValues></_>
        <_>
          <internalNodes>
            0 -1 124 -30425327 2125790192 -1651581136 -1078135896
            1341914432 -75830952 -50954764 116386423</internalNodes>
          <leafValues>
            -5.7515740394592285e-01 2.5014901161193848e-01</leafValues></_>
        <_>
          <internalNodes>
            0 -1 116 1063255383 -1342721068 1305719283 -1349730312
            -4505603 -6330177 -99488 -285411372</internalNodes>
          <leafValues>
            -6.0020267963409424e-01 2.2417788207530975e-01</leafValues></_>
        <_>
          <internalNodes>
            0 -1 104 -237011573 911528408 -44698704 -1076496478
            -35717164 1868430169 804249338 2134376002</internalNodes>
          <leafValues>
            -3.7745645642280579e-01 3.8009417057037354e-01</leafValues></_></weakClassifiers></_>
    <!-- stage 6 -->
    <_>
      <maxWeakCount>13</maxWeakCount>
      <stageThreshold>-2.5443439483642578e+00</stageThreshold>
      <weakClassifiers>
        <_>
          <internalNodes>
            0 -1 140 -225 -1 -75770881 -1 -67111169 -3412001 -65 -1</internalNodes>
          <leafValues>
            -8.3395320177078247e-01 1.8710832297801971e-01</leafValues></_>
        <_>
          <internalNodes>
            0 -1 0 -894701585 -1074274389 -673226753 -34111489
            -103810049 -67110145 -36700161 -257</internalNodes>
          <leafValues>
            -5.7146632671356201e-01 4.2029595375061035e-01</leafValues></_>
        <_>
          <internalNodes>
            0 -1 26 -524323 -1073774721 -541401089 2067462143 -273218191
            -8425089 -67666059 -76284041</internalNodes>
          <leafValues>
            -4.4991371035575867e-01 4.1039156913757324e-01</leafValues></_>
        <_>
          <internalNodes>
            0 -1 23 -536872195 -201360385 -16974290 -84213768 -335646364
            -612533936 -80435468 -97207436</internalNodes>
          <leafValues>
            -5.4256600141525269e-01 3.1356236338615417e-01</leafValues></_>
        <_>
          <internalNodes>
            0 -1 11 -294654234 -928318610 -1363218820 -125109360
            1844924143 -806061389 1073205389 -151519243</internalNodes>
          <leafValues>
            -4.9484807252883911e-01 3.2364481687545776e-01</leafValues></_>
        <_>
          <internalNodes>
            0 -1 134 -275834114 -1967331336 -11665985 -545391124
            -1695354891 -1130759427 -1897015812 -1916797732</internalNodes>
          <leafValues>
            -3.8239207863807678e-01 3.8814082741737366e-01</leafValues></_>
        <_>
          <internalNodes>
            0 -1 90 461318079 -1900216322 -1090986497 -403636356 -362116
            -4335637 -1342375048 -285409324</internalNodes>
          <leafValues>
            -4.6951982378959656e-01 3.2131007313728333e-01</leafValues></_>
        <_>
          <internalNodes>
            0 -1 49 1844932607 268236793 -875440134 -403245066
            1589403092 1609628027 -1076430390 1593801598</internalNodes>
          <leafValues>
            -4.1009929776191711e-01 3.6473166942596436e-01</leafValues></_>
        <_>
          <internalNodes>
            0 -1 137 -67109597 -675286641 1794829546 805288694
            -210801596 -543720929 -84475908 -791504897</internalNodes>
          <leafValues>
            -3.8207483291625977e-01 3.7676778435707092e-01</leafValues></_>
        <_>
          <internalNodes>
            0 -1 59 -103943074 1870647798 1054770596 -33620276
            -609517604 1355066332 1069464536 619838462</internalNodes>
          <leafValues>
            -5.4856300354003906e-01 2.5466486811637878e-01</leafValues></_>
        <_>
          <internalNodes>
            0 -1 80 909950655 -1093075970 -82322563 775354360 2074901492
            -7280482 -6415596 -16978956</internalNodes>
          <leafValues>
            -5.9623807668685913e-01 2.3022186756134033e-01</leafValues></_>
        <_>
          <internalNodes>
            0 -1 91 2040217217 1733868013 993327988 -197636 2072379384
            530364344 771356926 1059586043</internalNodes>
          <leafValues>
            -3.9778617024421692e-01 3.7976849079132080e-01</leafValues></_>
        <_>
          <internalNodes>
            0 -1 120 -285667248 -671138312 -77414405 -92291593 416881629
            -1410442853 -92349505 -592828930</internalNodes>
          <leafValues>
            -3.8380134105682373e-01 3.7242287397384644e-01</leafValues></_></weakClassifiers></_>
    <!-- stage 7 -->
    <_>
      <maxWeakCount>11</maxWeakCount>
      <stageThreshold>-2.3232314586639404e+00</stageThreshold>
      <weakClassifiers>
        <_>
          <internalNodes>
            0 -1 1 -288883713 -1052181 -103556611 -10249 -276038657
            -3141 -875560961 -4195333</internalNodes>
          <leafValues>
            -8.5435968637466431e-01 -2.0782609283924103e-01</leafValues></_>
        <_>
          <internalNodes>
            0 -1 139 -1075839489 -1398344198 -167903749 -1929446403
            -1378878465 -1964049429 -1140850945 -1895834113</internalNodes>
          <leafValues>
            -6.3050574064254761e-01 2.2534514963626862e-01</leafValues></_>
        <_>
          <internalNodes>
            0 -1 37 -3150593 1509874638 -2130961712 -3834018 -73466945
            -547863620 -1627587586 1171087070</internalNodes>
          <leafValues>
            -4.8315182328224182e-01 3.5093718767166138e-01</leafValues></_>
        <_>
          <internalNodes>
            0 -1 56 2143289343 -13107268 -331780 -4718660 1584696824
            1331232756 -635778 901767167</internalNodes>
          <leafValues>
            -3.5246810317039490e-01 4.6175700426101685e-01</leafValues></_>
        <_>
          <internalNodes>
            0 -1 142 -536831 -527531 -1274573574 -1219575940 -1870886396
            -380908637 -1429491986 924579459</internalNodes>
          <leafValues>
            -4.1983488202095032e-01 3.7560084462165833e-01</leafValues></_>
        <_>
          <internalNodes>
            0 -1 125 -16591 -69871140 -1425810980 805106396 -1946615812
            -306578507 -815464484 1764490994</internalNodes>
          <leafValues>
            -4.0434259176254272e-01 3.4461858868598938e-01</leafValues></_>
        <_>
          <internalNodes>
            0 -1 88 2094562559 2117350365 -38044705 -4525057 -2074116
            -67734788 -328740 -1078822088</internalNodes>
          <leafValues>
            -4.3259245157241821e-01 3.0800497531890869e-01</leafValues></_>
        <_>
          <internalNodes>
            0 -1 65 -191105321 -1256066084 -1776432336 -535140
            1256251380 1561899448 -1093754898 1475836926</internalNodes>
          <leafValues>
            -3.7055796384811401e-01 3.6873781681060791e-01</leafValues></_>
        <_>
          <internalNodes>
            0 -1 57 536735663 783480799 -683944194 1861943292 2071611736
            -76095605 -70071972 -17498256</internalNodes>
          <leafValues>
            -6.3963478803634644e-01 1.9865459203720093e-01</leafValues></_>
        <_>
          <internalNodes>
            0 -1 22 -555816961 -17902116 -857679176 -34079258 -621981954
            1180733630 -1164910746 1828192067</internalNodes>
          <leafValues>
            -3.9350825548171997e-01 3.4873947501182556e-01</leafValues></_>
        <_>
          <internalNodes>
            0 -1 16 1189015295 -617809444 -623480194 -71369732
            -1715581698 502604086 2039770826 1560271566</internalNodes>
          <leafValues>
            -3.7042641639709473e-01 3.3789190649986267e-01</leafValues></_></weakClassifiers></_>
    <!-- stage 8 -->
    <_>
      <maxWeakCount>14</maxWeakCount>
      <stageThreshold>-2.6716563701629639e+00</stageThreshold>
      <weakClassifiers>
        <_>
          <internalNodes>
            0 -1 3 -494080257 -131681 -543433761 -34857 -34608129
            -67398661 -5267457 -1025</internalNodes>
          <leafValues>
            -8.7196373939514160e-01 -2.4728925526142120e-01</leafValues></_>
        <_>
          <internalNodes>
            0 -1 112 -17038219 -33710147 -2403329 -541362689 -1160140321
            -68240487 -1094740997 -72372261</internalNodes>
          <leafValues>
            -6.0752189159393311e-01 1.6294026374816895e-01</leafValues></_>
        <_>
          <internalNodes>
            0 -1 40 -2129921 -10485761 -409729 -603979781 503281372
            -8423553 -277446815 -9994461</internalNodes>
          <leafValues>
            -3.8252317905426025e-01 4.0316510200500488e-01</leafValues></_>
        <_>
          <internalNodes>
            0 -1 5 -997537042 -2021069570 -973246993 234835824 -1123073
            -34668550 1607925374 201281250</internalNodes>
          <leafValues>
            -5.1600778102874756e-01 2.5607654452323914e-01</leafValues></_>
        <_>
          <internalNodes>
            0 -1 103 -33279 1059454833 -1140855824 -1410859015
            -209756196 1868431324 -102843426 2004352935</internalNodes>
          <leafValues>
            -3.1944829225540161e-01 3.7123921513557434e-01</leafValues></_>
        <_>
          <internalNodes>
            0 -1 133 -5 985332912 -1088962821 -356581428 2098028541
            267910137 2113892853 -302123548</internalNodes>
          <leafValues>
            -4.4809061288833618e-01 2.5755038857460022e-01</leafValues></_>
        <_>
          <internalNodes>
            0 -1 72 2146435071 1215889212 -285282305 -13701384 -34320388
            501022716 -16847268 2147446655</internalNodes>
          <leafValues>
            -2.9050216078758240e-01 4.1525068879127502e-01</leafValues></_>
        <_>
          <internalNodes>
            0 -1 53 -555762497 -1615405066 1978583612 1069315540
            968784620 2075121387 -1145151620 1725661054</internalNodes>
          <leafValues>
            -3.5022544860839844e-01 3.3740845322608948e-01</leafValues></_>
        <_>
          <internalNodes>
            0 -1 43 -2010608976 -593845448 756973431 -675519756
            1261879295 -1701186685 493204460 -823611280</internalNodes>
          <leafValues>
            -4.4338771700859070e-01 2.7683064341545105e-01</leafValues></_>
        <_>
          <internalNodes>
            0 -1 121 1046470403 2120188406 -327366426 2126445984
            -306184960 -312481030 -1205898311 -369102978</internalNodes>
          <leafValues>
            -4.3638318777084351e-01 2.5935643911361694e-01</leafValues></_>
        <_>
          <internalNodes>
            0 -1 84 1069522431 802488316 -726729489 -1954745608
            1217163100 -1282280453 -537075884 -16842764</internalNodes>
          <leafValues>
            -4.8790892958641052e-01 2.3839604854583740e-01</leafValues></_>
        <_>
          <internalNodes>
            0 -1 81 2144302039 -1156411012 -1053649940 670759260
            -845389924 1595517871 1659796860 619675479</internalNodes>
          <leafValues>
            -3.9937579631805420e-01 2.7573907375335693e-01</leafValues></_>
        <_>
          <internalNodes>
            0 -1 119 -1174421641 -1264659016 -674235905 -570699276
            -1177044003 2041242557 -1161969667 -1929388564</internalNodes>
          <leafValues>
            -3.4415456652641296e-01 3.2877904176712036e-01</leafValues></_>
        <_>
          <internalNodes>
            0 -1 77 2067645361 -1089146412 -350972100 -1073873460
            -546677764 956246947 -1160402 784287614</internalNodes>
          <leafValues>
            -3.4529557824134827e-01 3.3526918292045593e-01</leafValues></_></weakClassifiers></_>
    <!-- stage 9 -->
    <_>
      <maxWeakCount>17</maxWeakCount>
      <stageThreshold>-2.4697096347808838e+00</stageThreshold>
      <weakClassifiers>
        <_>
          <internalNodes>
            0 -1 29 -366543873 -69218050 -11444737 2147422711 -773608449
            -71336005 -70402049 -1089</internalNodes>
          <leafValues>
            -8.6070215702056885e-01 -3.0154278874397278e-01</leafValues></_>
        <_>
          <internalNodes>
            0 -1 147 -1242562561 -1946419501 -583082761 -1495370017
            -1141116929 -1358954849 -16777217 -1895825409</internalNodes>
          <leafValues>
            -6.0854882001876831e-01 1.7093975841999054e-01</leafValues></_>
        <_>
          <internalNodes>
            0 -1 107 -13109808 -1077936720 -1381127244 2143221519
            771179756 983511549 607436414 687833071</internalNodes>
          <leafValues>
            -4.6308794617652893e-01 2.5565227866172791e-01</leafValues></_>
        <_>
          <internalNodes>
            0 -1 58 -570425345 158662495 -2196497 2066930559 -738962384
            -2067457 -1216710148 -75825290</internalNodes>
          <leafValues>
            -3.8634526729583740e-01 3.1416243314743042e-01</leafValues></_>
        <_>
          <internalNodes>
            0 -1 83 1039925147 -5243403 -1095172688 -34603784 2135719932
            2086468980 -8354 2139078654</internalNodes>
          <leafValues>
            -2.8278565406799316e-01 4.0722891688346863e-01</leafValues></_>
        <_>
          <internalNodes>
            0 -1 48 2130083071 1067319128 -17269000 -1074008200
            2130501630 517275636 -78134 1610612702</internalNodes>
          <leafValues>
            -3.1456863880157471e-01 3.8328051567077637e-01</leafValues></_>
        <_>
          <internalNodes>
            0 -1 45 2109643707 531425276 1083601612 -1610812172
            1557940348 2146724730 1069052143 620199544</internalNodes>
          <leafValues>
            -4.5952948927879333e-01 2.6547050476074219e-01</leafValues></_>
        <_>
          <internalNodes>
            0 -1 115 2143276831 1054397396 2042359676 -268642316
            -88311428 -1117188 1054638068 -17107980</internalNodes>
          <leafValues>
            -4.6947380900382996e-01 2.3426412045955658e-01</leafValues></_>
        <_>
          <internalNodes>
            0 -1 117 2142764023 -1740833040 -1128268300 -1624716064
            -42663939 1064689653 -16853250 2134638590</internalNodes>
          <leafValues>
            -2.8191131353378296e-01 4.0330129861831665e-01</leafValues></_>
        <_>
          <internalNodes>
            0 -1 144 -1073878254 -1097335186 -476349664 -1123375121
            1868528996 -1129649153 -20385580 -186647041</internalNodes>
          <leafValues>
            -4.1794139146804810e-01 2.7099782228469849e-01</leafValues></_>
        <_>
          <internalNodes>
            0 -1 132 -13629420 1568511295 -1916936323 2105039819
            -380580676 -32657250 -72434694 -352669611</internalNodes>
          <leafValues>
            -3.5689947009086609e-01 2.9201912879943848e-01</leafValues></_>
        <_>
          <internalNodes>
            0 -1 101 790212403 791771592 1527836572 -1346415618
            -277455924 2075876795 1525436412 671052662</internalNodes>
          <leafValues>
            -3.7256890535354614e-01 2.7726423740386963e-01</leafValues></_>
        <_>
          <internalNodes>
            0 -1 67 1047244735 -1099507204 -1195982472 -17006756
            1568824252 2105520671 -84775100 -84100172</internalNodes>
          <leafValues>
            -5.2002727985382080e-01 1.9249984622001648e-01</leafValues></_>
        <_>
          <internalNodes>
            0 -1 39 -304096273 -1640693762 1477464434 -1074536496
            -636172670 -592004524 -1617933496 1560247262</internalNodes>
          <leafValues>
            -3.1323164701461792e-01 3.4007138013839722e-01</leafValues></_>
        <_>
          <internalNodes>
            0 -1 6 -944787741 -492650262 -602154189 -1143570476
            1604009918 -809456665 -425038107 1833427830</internalNodes>
          <leafValues>
            -4.3999290466308594e-01 2.3849533498287201e-01</leafValues></_>
        <_>
          <internalNodes>
            0 -1 18 -823409027 -3344634 2061424314 -18941450 2079154783
            961261867 -1094854098 -176685230</internalNodes>
          <leafValues>
            -3.4517320990562439e-01 3.1423792243003845e-01</leafValues></_>
        <_>
          <internalNodes>
            0 -1 76 1808333143 767069164 -793586979 -1073945604
            2067549676 456394697 -71631940 786389799</internalNodes>
          <leafValues>
            -3.5787287354469299e-01 2.9343307018280029e-01</leafValues></_></weakClassifiers></_>
    <!-- stage 10 -->
    <_>
      <maxWeakCount>18</maxWeakCount>
      <stageThreshold>-2.6212601661682129e+00</stageThreshold>
      <weakClassifiers>
        <_>
          <internalNodes>
            0 -1 89 -39848619 -138430049 -36078081 -538970145 -69470209
            -1310977 -1129333761 -1053697</internalNodes>
          <leafValues>
            -8.5342133045196533e-01 -2.8433269262313843e-01</leafValues></_>
        <_>
          <internalNodes>
            0 -1 27 -33554433 -134319361 -546130177 -983557 -4227075
            -17532169 -15500417 -9208009</internalNodes>
          <leafValues>
            -5.7225924730300903e-01 1.8726794421672821e-01</leafValues></_>
        <_>
          <internalNodes>
            0 -1 10 -356520209 -433131896 -1225325018 -72848 -787985
            -1313866018 1985466511 -138414081</internalNodes>
          <leafValues>
            -3.6933019757270813e-01 3.4724459052085876e-01</leafValues></_>
        <_>
          <internalNodes>
            0 -1 63 1564384220 521578238 -1260060920 -1611664284
            1599884252 998172861 -588460150 635928387</internalNodes>
          <leafValues>
            -4.6740892529487610e-01 2.4145422875881195e-01</leafValues></_>
        <_>
          <internalNodes>
            0 -1 82 2125979575 1061223100 1912102636 -1083246092
            1573149160 2138943418 -16875684 618102655</internalNodes>
          <leafValues>
            -3.3158925175666809e-01 3.2693058252334595e-01</leafValues></_>
        <_>
          <internalNodes>
            0 -1 135 -1209085957 -1392722444 -49307700 -2051097867
            696184829 -1913204557 -1094717955 -1929388547</internalNodes>
          <leafValues>
            -4.0111532807350159e-01 2.7547007799148560e-01</leafValues></_>
        <_>
          <internalNodes>
            0 -1 68 1793926847 804837845 1770322877 2146236404
            -604210820 -335890286 -67602052 -84082700</internalNodes>
          <leafValues>
            -4.8855906724929810e-01 2.1841034293174744e-01</leafValues></_>
        <_>
          <internalNodes>
            0 -1 102 -764174541 -552534020 -143130668 -196620 -16941092
            2136276981 -268763910 1060634619</internalNodes>
          <leafValues>
            -2.7949187159538269e-01 3.7753611803054810e-01</leafValues></_>
        <_>
          <internalNodes>
            0 -1 114 938943408 -12715019 -1657473036 -4327048 -127116294
            -564810756 891575774 487718519</internalNodes>
          <leafValues>
            -3.7067508697509766e-01 2.6940402388572693e-01</leafValues></_>
        <_>
          <internalNodes>
            0 -1 126 2004185077 791278064 -237021449 -1744896008
            -542824108 -1145101379 -76742812 -386597900</internalNodes>
          <leafValues>
            -5.6939983367919922e-01 1.7662568390369415e-01</leafValues></_>
        <_>
          <internalNodes>
            0 -1 36 2092863167 -677445892 1796134356 1975252822
            -812103496 -102981106 -68354566 1308581343</internalNodes>
          <leafValues>
            -3.0229628086090088e-01 3.4142178297042847e-01</leafValues></_>
        <_>
          <internalNodes>
            0 -1 52 -1440599501 1463095793 -1210867976 1471006452
            -1781617922 780893713 1551602679 -1821155915</internalNodes>
          <leafValues>
            -4.0545365214347839e-01 2.5677394866943359e-01</leafValues></_>
        <_>
          <internalNodes>
            0 -1 87 1373499645 2133882364 -107504161 -1360118820
            -260551816 -77560385 -1147245700 -1277542540</internalNodes>
          <leafValues>
            -4.6304214000701904e-01 2.0666684210300446e-01</leafValues></_>
        <_>
          <internalNodes>
            0 -1 106 -545328895 1054785993 -438628364 -1075408555
            910127812 -67401441 1077209308 884452050</internalNodes>
          <leafValues>
            -3.9469909667968750e-01 2.4148268997669220e-01</leafValues></_>
        <_>
          <internalNodes>
            0 -1 24 2130512631 -941721601 -791227044 -67306258
            -889881991 1072761665 -42696844 -143561936</internalNodes>
          <leafValues>
            -4.1962054371833801e-01 2.2693727910518646e-01</leafValues></_>
        <_>
          <internalNodes>
            0 -1 109 2147479483 1009822456 -732735875 -1648569104
            1482522556 1299778728 -587537156 646971126</internalNodes>
          <leafValues>
            -3.8389775156974792e-01 2.6148617267608643e-01</leafValues></_>
        <_>
          <internalNodes>
            0 -1 146 -203760777 -1755405348 -1449465659 1556915404
            1404010488 -1836576315 -67191812 149730480</internalNodes>
          <leafValues>
            -5.6840497255325317e-01 1.6644658148288727e-01</leafValues></_>
        <_>
          <internalNodes>
            0 -1 47 2147221183 -1621295116 -270467088 -368 1559514488
            527826814 -1225892098 1256161115</internalNodes>
          <leafValues>
            -2.8159290552139282e-01 3.6123740673065186e-01</leafValues></_></weakClassifiers></_>
    <!-- stage 11 -->
    <_>
      <maxWeakCount>16</maxWeakCount>
      <stageThreshold>-2.3030121326446533e+00</stageThreshold>
      <weakClassifiers>
        <_>
          <internalNodes>
            0 -1 41 -357893125 -67800865 -11151905 -2144009 -1343230977
            -4195381 -282854401 -5248001</internalNodes>
          <leafValues>
            -8.5429620742797852e-01 -3.2885432243347168e-01</leafValues></_>
        <_>
          <internalNodes>
            0 -1 141 -134220917 -4726227 644987583 871748983 -191913472
            -707100135 -218125574 -212346021</internalNodes>
          <leafValues>
            -5.6634050607681274e-01 1.2572284042835236e-01</leafValues></_>
        <_>
          <internalNodes>
            0 -1 25 -34636385 -8693317 -1026071043 -103301121 -53336454
            -67944372 -1280148623 -9207999</internalNodes>
          <leafValues>
            -4.4706249237060547e-01 2.7222451567649841e-01</leafValues></_>
        <_>
          <internalNodes>
            0 -1 34 -357915934 -835964344 182409523 -137300256
            -588006429 -1899598337 939309055 1462760976</internalNodes>
          <leafValues>
            -4.4423532485961914e-01 2.4300977587699890e-01</leafValues></_>
        <_>
          <internalNodes>
            0 -1 44 323529470 1501883388 899993576 925453896 -11600995
            2011093227 2013021178 1066360826</internalNodes>
          <leafValues>
            -4.7112816572189331e-01 2.3933582007884979e-01</leafValues></_>
        <_>
          <internalNodes>
            0 -1 66 1002208103 -1296109324 1025267700 2146293684
            -755111188 -67268356 -38338561 2099609343</internalNodes>
          <leafValues>
            -3.2211321592330933e-01 3.2611665129661560e-01</leafValues></_>
        <_>
          <internalNodes>
            0 -1 60 1054660605 1591635925 -112010785 2146619773
            -1619502351 -78497219 -81773698 -80576650</internalNodes>
          <leafValues>
            -3.6794576048851013e-01 2.7515465021133423e-01</leafValues></_>
        <_>
          <internalNodes>
            0 -1 105 2119974911 -1078151172 -216540161 -1073808900
            2074434488 -72056152 -554783916 -1073856516</internalNodes>
          <leafValues>
            -4.0893244743347168e-01 2.2646789252758026e-01</leafValues></_>
        <_>
          <internalNodes>
            0 -1 17 -161748225 -2304580 -602088706 2143157874 -638813189
            1335163742 -134975878 1325391690</internalNodes>
          <leafValues>
            -3.1791773438453674e-01 3.0197787284851074e-01</leafValues></_>
        <_>
          <internalNodes>
            0 -1 93 2147394689 -1088585731 -84608460 -1107296262 -172148
            1063124988 -335725585 933723859</internalNodes>
          <leafValues>
            -2.8598439693450928e-01 3.1867066025733948e-01</leafValues></_>
        <_>
          <internalNodes>
            0 -1 143 -153098733 -1652240 -1100834078 -1159343243
            542112512 1552870250 -335750165 -1319578369</internalNodes>
          <leafValues>
            -3.4194827079772949e-01 2.7105221152305603e-01</leafValues></_>
        <_>
          <internalNodes>
            0 -1 111 1073150975 -1901150472 -65667 -1778515972
            -1879572491 -1661075979 2130599417 -1912605185</internalNodes>
          <leafValues>
            -2.5803139805793762e-01 3.5923492908477783e-01</leafValues></_>
        <_>
          <internalNodes>
            0 -1 127 -2632911 2129958685 -347868836 970824312 -642847780
            -1442992200 -1048578 1160895226</internalNodes>
          <leafValues>
            -2.9958125948905945e-01 2.9903474450111389e-01</leafValues></_>
        <_>
          <internalNodes>
            0 -1 19 -287376770 1593718857 -803552108 -67701860 -42176388
            1592289432 -67610420 1685880148</internalNodes>
          <leafValues>
            -5.9758633375167847e-01 1.5222357213497162e-01</leafValues></_>
        <_>
          <internalNodes>
            0 -1 56 2067230335 1840640508 1448265724 -1080689754
            1513236474 1271988148 -76395910 1453803123</internalNodes>
          <leafValues>
            -3.4535536170005798e-01 2.6177564263343811e-01</leafValues></_>
        <_>
          <internalNodes>
            0 -1 95 1844805495 1073413016 -350758433 -1359020682
            -1412602881 -88348485 -7554186 -587402252</internalNodes>
          <leafValues>
            -4.8565161228179932e-01 2.0144277811050415e-01</leafValues></_></weakClassifiers></_>
    <!-- stage 12 -->
    <_>
      <maxWeakCount>17</maxWeakCount>
      <stageThreshold>-2.5317318439483643e+00</stageThreshold>
      <weakClassifiers>
        <_>
          <internalNodes>
            0 -1 113 -262313 -1569 1440635903 -570436101 -68437317
            -20225 -1081166849 -25121</internalNodes>
          <leafValues>
            -8.4883636236190796e-01 -3.4348928928375244e-01</leafValues></_>
        <_>
          <internalNodes>
            0 -1 75 -798777213 -547750733 18109309 1976909823
            -1166411277 -86252801 1967209407 2147159983</internalNodes>
          <leafValues>
            -5.6939220428466797e-01 1.2253058701753616e-01</leafValues></_>
        <_>
          <internalNodes>
            0 -1 131 -180559881 -1128348865 2134638577 -1929578499
            -6751745 -1938030849 1574828031 -1929381889</internalNodes>
          <leafValues>
            -3.7679657340049744e-01 3.2664734125137329e-01</leafValues></_>
        <_>
          <internalNodes>
            0 -1 46 115286207 -1073809794 -1476079116 -1073886348
            2076851126 -2841860 -335741958 1163253754</internalNodes>
          <leafValues>
            -4.2720746994018555e-01 2.4198998510837555e-01</leafValues></_>
        <_>
          <internalNodes>
            0 -1 79 458830769 989774268 -795547820 -19588 -201757784
            -573970692 -1103335446 1498808190</internalNodes>
          <leafValues>
            -3.9984700083732605e-01 2.9932722449302673e-01</leafValues></_>
        <_>
          <internalNodes>
            0 -1 74 2147368959 1038778295 -855274593 1878931965
            -1220519696 1005480801 -1374533124 -80577174</internalNodes>
          <leafValues>
            -3.8312780857086182e-01 2.6734688878059387e-01</leafValues></_>
        <_>
          <internalNodes>
            0 -1 96 1608384503 -1644377872 -336597123 -1116132
            1768219004 2136238572 -610350536 2147220126</internalNodes>
          <leafValues>
            -3.2725811004638672e-01 3.0990052223205566e-01</leafValues></_>
        <_>
          <internalNodes>
            0 -1 38 250316543 -3746882 -1450782610 -33693704 -622065474
            -620978626 -80020582 1333747678</internalNodes>
          <leafValues>
            -2.8781035542488098e-01 3.4833246469497681e-01</leafValues></_>
        <_>
          <internalNodes>
            0 -1 86 935188479 983366140 -1068509753 -1426152962
            -105352232 -1143092551 -5441164 2063235188</internalNodes>
          <leafValues>
            -5.3706896305084229e-01 1.9010680913925171e-01</leafValues></_>
        <_>
          <internalNodes>
            0 -1 136 -622896629 -178368034 1012395806 1429689234
            -782716352 2060438281 844413678 1883671114</internalNodes>
          <leafValues>
            -4.5198556780815125e-01 2.0220741629600525e-01</leafValues></_>
        <_>
          <internalNodes>
            0 -1 100 2105335743 1005352956 2079256959 -268634754
            -68395268 -1075086867 -1247364 -556221580</internalNodes>
          <leafValues>
            -3.1292033195495605e-01 2.9288476705551147e-01</leafValues></_>
        <_>
          <internalNodes>
            0 -1 35 -285415774 -2100366424 1391875110 -34146368
            1931209659 38195502 1521367386 -183520267</internalNodes>
          <leafValues>
            -3.8263463973999023e-01 2.4264910817146301e-01</leafValues></_>
        <_>
          <internalNodes>
            0 -1 28 -319948613 -621926304 -168330507 -102007312
            2122249695 -32899 -176717825 587907060</internalNodes>
          <leafValues>
            -2.7834156155586243e-01 3.2536551356315613e-01</leafValues></_>
        <_>
          <internalNodes>
            0 -1 129 2134654965 -1400311312 -748948486 -74655748
            516647253 -1077156901 -1141409932 -2063669260</internalNodes>
          <leafValues>
            -5.0825238227844238e-01 1.6959339380264282e-01</leafValues></_>
        <_>
          <internalNodes>
            0 -1 64 -954902861 -1650686996 84938876 -273391768
            -667412260 1002045928 1794919676 218061686</internalNodes>
          <leafValues>
            -4.1321882605552673e-01 2.1020230650901794e-01</leafValues></_>
        <_>
          <internalNodes>
            0 -1 85 2130373823 -554631172 -562163972 -268505124
            -11207180 508887028 -1138820 721417143</internalNodes>
          <leafValues>
            -2.9779511690139771e-01 3.2706442475318909e-01</leafValues></_>
        <_>
          <internalNodes>
            0 -1 32 -1165431116 -1153976150 -1529209611 1945702329
            -289617411 -1109491265 -1484321 1967094762</internalNodes>
          <leafValues>
            -3.3174416422843933e-01 2.8314656019210815e-01</leafValues></_></weakClassifiers></_></stages>
  <features>
    <_>
      <rect>
        0 0 2 2</rect></_>
    <_>
      <rect>
        0 0 3 1</rect></_>
    <_>
      <rect>
        0 0 3 3</rect></_>
    <_>
      <rect>
        0 0 4 1</rect></_>
    <_>
      <rect>
        0 0 5 2</rect></_>
    <_>
      <rect>
        0 1 2 3</rect></_>
    <_>
      <rect>
        0 2 2 1</rect></_>
    <_>
      <rect>
        0 3 4 4</rect></_>
    <_>
      <rect>
        0 4 1 1</rect></_>
    <_>
      <rect>
        0 4 3 4</rect></_>
    <_>
      <rect>
        0 5 1 1</rect></_>
    <_>
      <rect>
        0 6 1 1</rect></_>
    <_>
      <rect>
        0 6 2 1</rect></_>
    <_>
      <rect>
        0 6 2 2</rect></_>
    <_>
      <rect>
        0 7 1 1</rect></_>
    <_>
      <rect>
        0 7 2 1</rect></_>
    <_>
      <rect>
        0 7 2 2</rect></_>
    <_>
      <rect>
        0 7 3 2</rect></_>
    <_>
      <rect>
        0 8 1 1</rect></_>
    <_>
      <rect>
        0 8 1 2</rect></_>
    <_>
      <rect>
        0 8 3 2</rect></_>
    <_>
      <rect>
        0 9 1 1</rect></_>
    <_>
      <rect>
        0 9 3 2</rect></_>
    <_>
      <rect>
        0 11 1 1</rect></_>
    <_>
      <rect>
        0 12 1 1</rect></_>
    <_>
      <rect>
        0 13 1 1</rect></_>
    <_>
      <rect>
        0 13 2 1</rect></_>
    <_>
      <rect>
        0 13 3 1</rect></_>
    <_>
      <rect>
        1 0 2 1</rect></_>
    <_>
      <rect>
        1 0 3 1</rect></_>
    <_>
      <rect>
        1 0 5 2</rect></_>
    <_>
      <rect>
        1 0 5 4</rect></_>
    <_>
      <rect>
        1 1 3 2</rect></_>
    <_>
      <rect>
        1 2 3 3</rect></_>
    <_>
      <rect>
        1 3 1 1</rect></_>
    <_>
      <rect>
        1 4 1 1</rect></_>
    <_>
      <rect>
        1 4 2 3</rect></_>
    <_>
      <rect>
        1 4 3 3</rect></_>
    <_>
      <rect>
        1 5 2 3</rect></_>
    <_>
      <rect>
        1 8 2 2</rect></_>
    <_>
      <rect>
        1 13 1 1</rect></_>
    <_>
      <rect>
        2 0 2 1</rect></_>
    <_>
      <rect>
        2 0 4 3</rect></_>
    <_>
      <rect>
        2 1 1 1</rect></_>
    <_>
      <rect>
        2 1 3 3</rect></_>
    <_>
      <rect>
        2 5 2 2</rect></_>
    <_>
      <rect>
        2 5 3 3</rect></_>
    <_>
      <rect>
        2 8 2 2</rect></_>
    <_>
      <rect>
        2 8 3 2</rect></_>
    <_>
      <rect>
        2 9 2 2</rect></_>
    <_>
      <rect>
        2 12 1 1</rect></_>
    <_>
      <rect>
        2 13 2 1</rect></_>
    <_>
      <rect>
        3 0 1 1</rect></_>
    <_>
      <rect>
        3 3 2 2</rect></_>
    <_>
      <rect>
        3 5 3 2</rect></_>
    <_>
      <rect>
        3 7 1 1</rect></_>
    <_>
      <rect>
        3 8 3 2</rect></_>
    <_>
      <rect>
        3 9 1 1</rect></_>
    <_>
      <rect>
        3 12 1 1</rect></_>
    <_>
      <rect>
        3 12 4 1</rect></_>
    <_>
      <rect>
        3 13 1 1</rect></_>
    <_>
      <rect>
        4 0 1 1</rect></_>
    <_>
      <rect>
        4 0 4 2</rect></_>
    <_>
      <rect>
        4 2 3 2</rect></_>
    <_>
      <rect>
        4 5 2 2</rect></_>
    <_>
      <rect>
        4 5 3 2</rect></_>
    <_>
      <rect>
        4 5 3 3</rect></_>
    <_>
      <rect>
        4 6 1 1</rect></_>
    <_>
      <rect>
        4 7 1 1</rect></_>
    <_>
      <rect>
        4 7 4 3</rect></_>
    <_>
      <rect>
        4 8 1 1</rect></_>
    <_>
      <rect>
        4 8 3 2</rect></_>
    <_>
      <rect>
        4 9 2 2</rect></_>
    <_>
      <rect>
        4 12 1 1</rect></_>
    <_>
      <rect>
        4 13 1 1</rect></_>
    <_>
      <rect>
        5 0 2 1</rect></_>
    <_>
      <rect>
        5 3 2 3</rect></_>
    <_>
      <rect>
        5 4 2 2</rect></_>
    <_>
      <rect>
        5 5 2 2</rect></_>
    <_>
      <rect>
        5 5 3 3</rect></_>
    <_>
      <rect>
        5 6 1 1</rect></_>
    <_>
      <rect>
        5 6 2 2</rect></_>
    <_>
      <rect>
        5 7 2 2</rect></_>
    <_>
      <rect>
        5 8 3 2</rect></_>
    <_>
      <rect>
        5 9 1 1</rect></_>
    <_>
      <rect>
        5 10 2 2</rect></_>
    <_>
      <rect>
        5 11 1 1</rect></_>
    <_>
      <rect>
        5 12 1 1</rect></_>
    <_>
      <rect>
        5 13 1 1</rect></_>
    <_>
      <rect>
        6 0 3 1</rect></_>
    <_>
      <rect>
        6 4 1 1</rect></_>
    <_>
      <rect>
        6 4 3 3</rect></_>
    <_>
      <rect>
        6 5 1 1</rect></_>
    <_>
      <rect>
        6 5 3 2</rect></_>
    <_>
      <rect>
        6 6 1 1</rect></_>
    <_>
      <rect>
        6 8 1 1</rect></_>
    <_>
      <rect>
        6 9 2 2</rect></_>
    <_>
      <rect>
        7 0 3 1</rect></_>
    <_>
      <rect>
        7 0 3 3</rect></_>
    <_>
      <rect>
        7 1 3 5</rect></_>
    <_>
      <rect>
        7 3 1 1</rect></_>
    <_>
      <rect>
        7 3 2 2</rect></_>
    <_>
      <rect>
        7 3 2 3</rect></_>
    <_>
      <rect>
        7 5 3 2</rect></_>
    <_>
      <rect>
        7 7 3 2</rect></_>
    <_>
      <rect>
        7 12 1 1</rect></_>
    <_>
      <rect>
        8 2 2 1</rect></_>
    <_>
      <rect>
        8 2 2 2</rect></_>
    <_>
      <rect>
        8 6 1 1</rect></_>
    <_>
      <rect>
        8 8 2 2</rect></_>
    <_>
      <rect>
        8 13 1 1</rect></_>
    <_>
      <rect>
        8 13 2 1</rect></_>
    <_>
      <rect>
        9 0 1 1</rect></_>
    <_>
      <rect>
        9 0 2 1</rect></_>
    <_>
      <rect>
        9 3 2 3</rect></_>
    <_>
      <rect>
        9 7 1 1</rect></_>
    <_>
      <rect>
        9 8 1 1</rect></_>
    <_>
      <rect>
        9 8 2 2</rect></_>
    <_>
      <rect>
        9 12 1 1</rect></_>
    <_>
      <rect>
        9 13 1 1</rect></_>
    <_>
      <rect>
        10 0 1 1</rect></_>
    <_>
      <rect>
        10 2 2 1</rect></_>
    <_>
      <rect>
        10 2 2 2</rect></_>
    <_>
      <rect>
        10 4 2 3</rect></_>
    <_>
      <rect>
        10 5 2 2</rect></_>
    <_>
      <rect>
        10 5 2 3</rect></_>
    <_>
      <rect>
        10 6 1 1</rect></_>
    <_>
      <rect>
        10 6 2 3</rect></_>
    <_>
      <rect>
        10 7 1 1</rect></_>
    <_>
      <rect>
        10 10 1 1</rect></_>
    <_>
      <rect>
        10 13 1 1</rect></_>
    <_>
      <rect>
        10 13 2 1</rect></_>
    <_>
      <rect>
        11 1 1 1</rect></_>
    <_>
      <rect>
        11 10 1 1</rect></_>
    <_>
      <rect>
        11 12 1 1</rect></_>
    <_>
      <rect>
        11 13 1 1</rect></_>
    <_>
      <rect>
        12 2 1 1</rect></_>
    <_>
      <rect>
        12 4 1 1</rect></_>
    <_>
      <rect>
        12 12 1 1</rect></_>
    <_>
      <rect>
        12 13 1 1</rect></_>
    <_>
      <rect>
        13 1 1 2</rect></_>
    <_>
      <rect>
        13 3 1 1</rect></_>
    <_>
      <rect>
        13 3 1 2</rect></_>
    <_>
      <rect>
        13 4 1 1</rect></_>
    <_>
      <rect>
        13 6 1 1</rect></_>
    <_>
      <rect>
        13 7 1 1</rect></_>
    <_>
      <rect>
        13 9 1 2</rect></_>
    <_>
      <rect>
        13 13 1 1</rect></_></features></cascade>
</opencv_storage>
