<?xml version="1.0"?>
<opencv_storage>
<cascade>
  <stageType>BOOST</stageType>
  <featureType>HAAR</featureType>
  <height>16</height>
  <width>16</width>
  <stageParams>
    <boostType>GAB</boostType>
    <minHitRate>9.9900001287460327e-01</minHitRate>
    <maxFalseAlarm>5.0000000000000000e-01</maxFalseAlarm>
    <weightTrimRate>9.4999999999999996e-01</weightTrimRate>
    <maxDepth>1</maxDepth>
    <maxWeakCount>100</maxWeakCount></stageParams>
  <featureParams>
    <maxCatCount>0</maxCatCount>
    <featSize>1</featSize>
    <mode>ALL</mode></featureParams>
  <stageNum>12</stageNum>
  <stages>
    <!-- stage 0 -->
    <_>
      <maxWeakCount>3</maxWeakCount>
      <stageThreshold>-1.5605059862136841e+00</stageThreshold>
      <weakClassifiers>
        <_>
          <internalNodes>
            0 -1 8 2.2782135009765625e-01</internalNodes>
          <leafValues>
            -9.6973520517349243e-01 2.9516053199768066e-01</leafValues></_>
        <_>
          <internalNodes>
            0 -1 36 2.3333734273910522e-01</internalNodes>
          <leafValues>
            -9.4390672445297241e-01 4.6697974205017090e-01</leafValues></_>
        <_>
          <internalNodes>
            0 -1 15 1.1079984903335571e-01</internalNodes>
          <leafValues>
            -8.1505954265594482e-01 3.5313597321510315e-01</leafValues></_></weakClassifiers></_>
    <!-- stage 1 -->
    <_>
      <maxWeakCount>5</maxWeakCount>
      <stageThreshold>-1.9799264669418335e+00</stageThreshold>
      <weakClassifiers>
        <_>
          <internalNodes>
            0 -1 53 7.0973902940750122e-02</internalNodes>
          <leafValues>
            -8.1035411357879639e-01 8.3749309182167053e-02</leafValues></_>
        <_>
          <internalNodes>
            0 -1 9 2.3243057727813721e-01</internalNodes>
          <leafValues>
            -9.1826891899108887e-01 2.4211764335632324e-01</leafValues></_>
        <_>
          <internalNodes>
            0 -1 22 -1.7596572637557983e-01</internalNodes>
          <leafValues>
            3.1954306364059448e-01 -9.1949820518493652e-01</leafValues></_>
        <_>
          <internalNodes>
            0 -1 7 1.2903949618339539e-01</internalNodes>
          <leafValues>
            -8.2305228710174561e-01 1.9824478030204773e-01</leafValues></_>
        <_>
          <internalNodes>
            0 -1 36 2.1167847514152527e-01</internalNodes>
          <leafValues>
            -8.9228391647338867e-01 2.5220578908920288e-01</leafValues></_></weakClassifiers></_>
    <!-- stage 2 -->
    <_>
      <maxWeakCount>9</maxWeakCount>
      <stageThreshold>-2.2515766620635986e+00</stageThreshold>
      <weakClassifiers>
        <_>
          <internalNodes>
            0 -1 6 1.3505166769027710e-01</internalNodes>
          <leafValues>
            -9.3989855051040649e-01 -3.8387716631405056e-04</leafValues></_>
        <_>
          <internalNodes>
            0 -1 16 2.1651016175746918e-01</internalNodes>
          <leafValues>
            -8.8921630382537842e-01 7.4379615485668182e-02</leafValues></_>
        <_>
          <internalNodes>
            0 -1 60 8.6437037680298090e-04</internalNodes>
          <leafValues>
            1.6432502865791321e-01 -8.3798354864120483e-01</leafValues></_>
        <_>
          <internalNodes>
            0 -1 34 1.1764757335186005e-02</internalNodes>
          <leafValues>
            -5.9893494844436646e-01 3.0895879864692688e-01</leafValues></_>
        <_>
          <internalNodes>
            0 -1 155 5.7021730754058808e-05</internalNodes>
          <leafValues>
            -5.0411421060562134e-01 3.4596967697143555e-01</leafValues></_>
        <_>
          <internalNodes>
            0 -1 170 2.1334392949938774e-03</internalNodes>
          <leafValues>
            2.2504644095897675e-01 -8.6819958686828613e-01</leafValues></_>
        <_>
          <internalNodes>
            0 -1 85 4.7198045998811722e-02</internalNodes>
          <leafValues>
            -4.5611155033111572e-01 3.8619923591613770e-01</leafValues></_>
        <_>
          <internalNodes>
            0 -1 73 2.0143624395132065e-02</internalNodes>
          <leafValues>
            -2.9142108559608459e-01 5.6252694129943848e-01</leafValues></_>
        <_>
          <internalNodes>
            0 -1 76 5.5495992302894592e-02</internalNodes>
          <leafValues>
            -3.4849339723587036e-01 4.3959981203079224e-01</leafValues></_></weakClassifiers></_>
    <!-- stage 3 -->
    <_>
      <maxWeakCount>15</maxWeakCount>
      <stageThreshold>-2.3303494453430176e+00</stageThreshold>
      <weakClassifiers>
        <_>
          <internalNodes>
            0 -1 145 3.1161848455667496e-02</internalNodes>
          <leafValues>
            -6.8873929977416992e-01 1.8129269778728485e-01</leafValues></_>
        <_>
          <internalNodes>
            0 -1 7 1.5149629116058350e-01</internalNodes>
          <leafValues>
            -8.2911366224288940e-01 1.4473950862884521e-01</leafValues></_>
        <_>
          <internalNodes>
            0 -1 152 5.5192511354107410e-05</internalNodes>
          <leafValues>
            -5.9253084659576416e-01 2.6227265596389771e-01</leafValues></_>
        <_>
          <internalNodes>
            0 -1 3 2.2905031219124794e-03</internalNodes>
          <leafValues>
            2.4438628554344177e-01 -7.4515628814697266e-01</leafValues></_>
        <_>
          <internalNodes>
            0 -1 3 -1.1032028123736382e-03</internalNodes>
          <leafValues>
            -7.8950369358062744e-01 2.2208465635776520e-01</leafValues></_>
        <_>
          <internalNodes>
            0 -1 144 -2.5370181538164616e-03</internalNodes>
          <leafValues>
            -7.6996934413909912e-01 1.5351229906082153e-01</leafValues></_>
        <_>
          <internalNodes>
            0 -1 45 -5.6997116189450026e-05</internalNodes>
          <leafValues>
            2.8630557656288147e-01 -4.6821311116218567e-01</leafValues></_>
        <_>
          <internalNodes>
            0 -1 17 2.3833695054054260e-01</internalNodes>
          <leafValues>
            -6.4564454555511475e-01 2.3673583567142487e-01</leafValues></_>
        <_>
          <internalNodes>
            0 -1 29 -1.0361567838117480e-03</internalNodes>
          <leafValues>
            -7.9622268676757812e-01 1.6786336898803711e-01</leafValues></_>
        <_>
          <internalNodes>
            0 -1 92 4.9408487975597382e-02</internalNodes>
          <leafValues>
            -4.0467622876167297e-01 3.4068280458450317e-01</leafValues></_>
        <_>
          <internalNodes>
            0 -1 41 -2.7327203750610352e-01</internalNodes>
          <leafValues>
            3.2527464628219604e-01 -4.5630878210067749e-01</leafValues></_>
        <_>
          <internalNodes>
            0 -1 65 6.9232568144798279e-02</internalNodes>
          <leafValues>
            -3.2665681838989258e-01 4.3512853980064392e-01</leafValues></_>
        <_>
          <internalNodes>
            0 -1 156 8.3973881555721164e-04</internalNodes>
          <leafValues>
            1.6376917064189911e-01 -8.1993693113327026e-01</leafValues></_>
        <_>
          <internalNodes>
            0 -1 116 3.8849990814924240e-02</internalNodes>
          <leafValues>
            -4.0716782212257385e-01 3.2227763533592224e-01</leafValues></_>
        <_>
          <internalNodes>
            0 -1 118 -1.0483381338417530e-02</internalNodes>
          <leafValues>
            6.7185747623443604e-01 -2.5565907359123230e-01</leafValues></_></weakClassifiers></_>
    <!-- stage 4 -->
    <_>
      <maxWeakCount>15</maxWeakCount>
      <stageThreshold>-2.2959759235382080e+00</stageThreshold>
      <weakClassifiers>
        <_>
          <internalNodes>
            0 -1 78 3.4914217889308929e-02</internalNodes>
          <leafValues>
            -6.7923343181610107e-01 2.0693641901016235e-01</leafValues></_>
        <_>
          <internalNodes>
            0 -1 111 3.8751289248466492e-02</internalNodes>
          <leafValues>
            -3.2972493767738342e-01 5.6400662660598755e-01</leafValues></_>
        <_>
          <internalNodes>
            0 -1 12 2.2671662271022797e-02</internalNodes>
          <leafValues>
            2.0140740275382996e-01 -8.0237543582916260e-01</leafValues></_>
        <_>
          <internalNodes>
            0 -1 11 3.0955936759710312e-02</internalNodes>
          <leafValues>
            -6.9659227132797241e-01 2.6579099893569946e-01</leafValues></_>
        <_>
          <internalNodes>
            0 -1 14 2.3508431017398834e-01</internalNodes>
          <leafValues>
            -7.8765678405761719e-01 1.1542518436908722e-01</leafValues></_>
        <_>
          <internalNodes>
            0 -1 168 -1.7332327552139759e-03</internalNodes>
          <leafValues>
            -7.8851097822189331e-01 1.8475957214832306e-01</leafValues></_>
        <_>
          <internalNodes>
            0 -1 2 3.2339956611394882e-02</internalNodes>
          <leafValues>
            1.2495597451925278e-01 -9.2035073041915894e-01</leafValues></_>
        <_>
          <internalNodes>
            0 -1 18 2.4716310203075409e-02</internalNodes>
          <leafValues>
            -3.4554395079612732e-01 4.1927632689476013e-01</leafValues></_>
        <_>
          <internalNodes>
            0 -1 157 -7.4787356425076723e-04</internalNodes>
          <leafValues>
            -8.7948626279830933e-01 1.5257263183593750e-01</leafValues></_>
        <_>
          <internalNodes>
            0 -1 148 1.4150967821478844e-02</internalNodes>
          <leafValues>
            -2.3883357644081116e-01 6.2423634529113770e-01</leafValues></_>
        <_>
          <internalNodes>
            0 -1 162 5.7598488638177514e-05</internalNodes>
          <leafValues>
            -4.4202250242233276e-01 3.2362866401672363e-01</leafValues></_>
        <_>
          <internalNodes>
            0 -1 131 1.2424087151885033e-02</internalNodes>
          <leafValues>
            -2.5238078832626343e-01 5.5263209342956543e-01</leafValues></_>
        <_>
          <internalNodes>
            0 -1 157 7.9571502283215523e-04</internalNodes>
          <leafValues>
            1.7744420468807220e-01 -8.2843506336212158e-01</leafValues></_>
        <_>
          <internalNodes>
            0 -1 62 -5.8590150729287416e-05</internalNodes>
          <leafValues>
            2.9136610031127930e-01 -3.9824795722961426e-01</leafValues></_>
        <_>
          <internalNodes>
            0 -1 17 1.6172891855239868e-01</internalNodes>
          <leafValues>
            -8.7293666601181030e-01 1.4092589914798737e-01</leafValues></_></weakClassifiers></_>
    <!-- stage 5 -->
    <_>
      <maxWeakCount>15</maxWeakCount>
      <stageThreshold>-2.0245440006256104e+00</stageThreshold>
      <weakClassifiers>
        <_>
          <internalNodes>
            0 -1 136 3.6493346095085144e-02</internalNodes>
          <leafValues>
            -6.8177223205566406e-01 9.4152629375457764e-02</leafValues></_>
        <_>
          <internalNodes>
            0 -1 50 1.1389369145035744e-02</internalNodes>
          <leafValues>
            -5.7486778497695923e-01 1.8169899284839630e-01</leafValues></_>
        <_>
          <internalNodes>
            0 -1 150 5.6428376410622150e-05</internalNodes>
          <leafValues>
            -4.8945140838623047e-01 2.7652531862258911e-01</leafValues></_>
        <_>
          <internalNodes>
            0 -1 150 9.4404257833957672e-04</internalNodes>
          <leafValues>
            1.4911249279975891e-01 -8.3241671323776245e-01</leafValues></_>
        <_>
          <internalNodes>
            0 -1 26 -5.8791963965632021e-05</internalNodes>
          <leafValues>
            2.5032541155815125e-01 -4.9196040630340576e-01</leafValues></_>
        <_>
          <internalNodes>
            0 -1 31 -8.4720598533749580e-04</internalNodes>
          <leafValues>
            -8.7098032236099243e-01 1.8066127598285675e-01</leafValues></_>
        <_>
          <internalNodes>
            0 -1 20 1.6955748200416565e-02</internalNodes>
          <leafValues>
            -2.4785661697387695e-01 6.2626433372497559e-01</leafValues></_>
        <_>
          <internalNodes>
            0 -1 57 5.1825523376464844e-02</internalNodes>
          <leafValues>
            -2.7734091877937317e-01 4.3606346845626831e-01</leafValues></_>
        <_>
          <internalNodes>
            0 -1 166 -1.9028615206480026e-02</internalNodes>
          <leafValues>
            -7.5857961177825928e-01 1.6820067167282104e-01</leafValues></_>
        <_>
          <internalNodes>
            0 -1 125 -7.6126798987388611e-02</internalNodes>
          <leafValues>
            1.9801843166351318e-01 -6.5609610080718994e-01</leafValues></_>
        <_>
          <internalNodes>
            0 -1 137 -2.7617750689387321e-02</internalNodes>
          <leafValues>
            6.5107274055480957e-01 -2.1270340681076050e-01</leafValues></_>
        <_>
          <internalNodes>
            0 -1 128 3.7598848342895508e-02</internalNodes>
          <leafValues>
            -1.8002784252166748e-01 5.8020538091659546e-01</leafValues></_>
        <_>
          <internalNodes>
            0 -1 84 5.4700717329978943e-02</internalNodes>
          <leafValues>
            -1.8731380999088287e-01 5.5240947008132935e-01</leafValues></_>
        <_>
          <internalNodes>
            0 -1 55 5.4385196417570114e-02</internalNodes>
          <leafValues>
            -3.4976765513420105e-01 3.9292934536933899e-01</leafValues></_>
        <_>
          <internalNodes>
            0 -1 59 3.6116167902946472e-02</internalNodes>
          <leafValues>
            -3.5165396332740784e-01 3.9598029851913452e-01</leafValues></_></weakClassifiers></_>
    <!-- stage 6 -->
    <_>
      <maxWeakCount>17</maxWeakCount>
      <stageThreshold>-2.1132450103759766e+00</stageThreshold>
      <weakClassifiers>
        <_>
          <internalNodes>
            0 -1 90 2.1621167659759521e-02</internalNodes>
          <leafValues>
            -6.9646096229553223e-01 3.0654516071081161e-02</leafValues></_>
        <_>
          <internalNodes>
            0 -1 141 5.8557794545777142e-05</internalNodes>
          <leafValues>
            -5.2751457691192627e-01 2.0571354031562805e-01</leafValues></_>
        <_>
          <internalNodes>
            0 -1 31 -5.6543874961789697e-05</internalNodes>
          <leafValues>
            2.9687875509262085e-01 -3.9722889661788940e-01</leafValues></_>
        <_>
          <internalNodes>
            0 -1 123 6.2960714101791382e-02</internalNodes>
          <leafValues>
            -2.8166499733924866e-01 3.8198173046112061e-01</leafValues></_>
        <_>
          <internalNodes>
            0 -1 142 9.0276531409472227e-04</internalNodes>
          <leafValues>
            1.9127745926380157e-01 -8.0690377950668335e-01</leafValues></_>
        <_>
          <internalNodes>
            0 -1 104 3.5583510994911194e-02</internalNodes>
          <leafValues>
            -3.5242754220962524e-01 3.4020316600799561e-01</leafValues></_>
        <_>
          <internalNodes>
            0 -1 132 6.0690557584166527e-03</internalNodes>
          <leafValues>
            -2.4445846676826477e-01 4.3929654359817505e-01</leafValues></_>
        <_>
          <internalNodes>
            0 -1 143 -7.8769971150904894e-04</internalNodes>
          <leafValues>
            -6.5915316343307495e-01 1.6297462582588196e-01</leafValues></_>
        <_>
          <internalNodes>
            0 -1 143 5.9284816961735487e-04</internalNodes>
          <leafValues>
            1.4333188533782959e-01 -6.8767434358596802e-01</leafValues></_>
        <_>
          <internalNodes>
            0 -1 98 1.3999736402183771e-03</internalNodes>
          <leafValues>
            -2.7335652709007263e-01 4.2831426858901978e-01</leafValues></_>
        <_>
          <internalNodes>
            0 -1 99 -6.0050720348954201e-03</internalNodes>
          <leafValues>
            5.8371847867965698e-01 -2.0860548317432404e-01</leafValues></_>
        <_>
          <internalNodes>
            0 -1 12 -3.0785355716943741e-02</internalNodes>
          <leafValues>
            -8.2172089815139771e-01 1.4189420640468597e-01</leafValues></_>
        <_>
          <internalNodes>
            0 -1 72 -4.2646303772926331e-02</internalNodes>
          <leafValues>
            1.4178320765495300e-01 -6.5895938873291016e-01</leafValues></_>
        <_>
          <internalNodes>
            0 -1 43 -2.2732797078788280e-03</internalNodes>
          <leafValues>
            -8.0550050735473633e-01 1.0129015147686005e-01</leafValues></_>
        <_>
          <internalNodes>
            0 -1 43 2.3405654355883598e-03</internalNodes>
          <leafValues>
            1.0016068816184998e-01 -8.4081435203552246e-01</leafValues></_>
        <_>
          <internalNodes>
            0 -1 40 1.5603456646203995e-02</internalNodes>
          <leafValues>
            -2.0829953253269196e-01 5.9791308641433716e-01</leafValues></_>
        <_>
          <internalNodes>
            0 -1 97 -7.4345729080960155e-04</internalNodes>
          <leafValues>
            4.3365576863288879e-01 -2.3791992664337158e-01</leafValues></_></weakClassifiers></_>
    <!-- stage 7 -->
    <_>
      <maxWeakCount>20</maxWeakCount>
      <stageThreshold>-2.3556768894195557e+00</stageThreshold>
      <weakClassifiers>
        <_>
          <internalNodes>
            0 -1 146 9.0570533648133278e-03</internalNodes>
          <leafValues>
            -6.7819219827651978e-01 1.3099041581153870e-01</leafValues></_>
        <_>
          <internalNodes>
            0 -1 71 -6.0124359151814133e-05</internalNodes>
          <leafValues>
            2.0125487446784973e-01 -5.3999286890029907e-01</leafValues></_>
        <_>
          <internalNodes>
            0 -1 112 7.9192779958248138e-02</internalNodes>
          <leafValues>
            -2.8633996844291687e-01 4.4153642654418945e-01</leafValues></_>
        <_>
          <internalNodes>
            0 -1 71 -1.0337167186662555e-03</internalNodes>
          <leafValues>
            -8.1636530160903931e-01 1.3353079557418823e-01</leafValues></_>
        <_>
          <internalNodes>
            0 -1 35 2.2137042135000229e-02</internalNodes>
          <leafValues>
            -7.1595579385757446e-01 1.4533624053001404e-01</leafValues></_>
        <_>
          <internalNodes>
            0 -1 114 5.4555248469114304e-02</internalNodes>
          <leafValues>
            -3.5012975335121155e-01 2.9736253619194031e-01</leafValues></_>
        <_>
          <internalNodes>
            0 -1 81 4.9562066793441772e-02</internalNodes>
          <leafValues>
            -2.0583496987819672e-01 5.2032136917114258e-01</leafValues></_>
        <_>
          <internalNodes>
            0 -1 82 -3.5241141915321350e-02</internalNodes>
          <leafValues>
            5.7727265357971191e-01 -1.8495687842369080e-01</leafValues></_>
        <_>
          <internalNodes>
            0 -1 64 -1.8838911782950163e-03</internalNodes>
          <leafValues>
            -7.1118319034576416e-01 1.5498535335063934e-01</leafValues></_>
        <_>
          <internalNodes>
            0 -1 85 4.1075047105550766e-02</internalNodes>
          <leafValues>
            -3.4568834304809570e-01 2.8433349728584290e-01</leafValues></_>
        <_>
          <internalNodes>
            0 -1 115 -2.7187045663595200e-02</internalNodes>
          <leafValues>
            6.6099262237548828e-01 -1.6469731926918030e-01</leafValues></_>
        <_>
          <internalNodes>
            0 -1 75 2.1354123950004578e-02</internalNodes>
          <leafValues>
            -1.7199401557445526e-01 5.4665195941925049e-01</leafValues></_>
        <_>
          <internalNodes>
            0 -1 151 -6.6778645850718021e-04</internalNodes>
          <leafValues>
            -7.6191991567611694e-01 1.4709204435348511e-01</leafValues></_>
        <_>
          <internalNodes>
            0 -1 139 1.8562698736786842e-02</internalNodes>
          <leafValues>
            -1.9829875230789185e-01 5.7040214538574219e-01</leafValues></_>
        <_>
          <internalNodes>
            0 -1 121 6.0637982096523046e-04</internalNodes>
          <leafValues>
            -2.1415632963180542e-01 4.7761526703834534e-01</leafValues></_>
        <_>
          <internalNodes>
            0 -1 9 2.3330855369567871e-01</internalNodes>
          <leafValues>
            -7.8469890356063843e-01 1.3042011857032776e-01</leafValues></_>
        <_>
          <internalNodes>
            0 -1 163 6.1282997194211930e-05</internalNodes>
          <leafValues>
            -4.2115074396133423e-01 2.1135200560092926e-01</leafValues></_>
        <_>
          <internalNodes>
            0 -1 158 2.3937169462442398e-03</internalNodes>
          <leafValues>
            1.1500087380409241e-01 -7.7018749713897705e-01</leafValues></_>
        <_>
          <internalNodes>
            0 -1 109 3.1851497478783131e-03</internalNodes>
          <leafValues>
            -2.1831868588924408e-01 4.4722363352775574e-01</leafValues></_>
        <_>
          <internalNodes>
            0 -1 63 -5.7511068007443100e-05</internalNodes>
          <leafValues>
            2.8020057082176208e-01 -3.6439326405525208e-01</leafValues></_></weakClassifiers></_>
    <!-- stage 8 -->
    <_>
      <maxWeakCount>22</maxWeakCount>
      <stageThreshold>-2.3065853118896484e+00</stageThreshold>
      <weakClassifiers>
        <_>
          <internalNodes>
            0 -1 66 1.7325304448604584e-02</internalNodes>
          <leafValues>
            -7.7120620012283325e-01 -2.4696356058120728e-01</leafValues></_>
        <_>
          <internalNodes>
            0 -1 129 -7.8440941870212555e-02</internalNodes>
          <leafValues>
            9.2913448810577393e-02 -6.0641485452651978e-01</leafValues></_>
        <_>
          <internalNodes>
            0 -1 33 -2.0596818998456001e-02</internalNodes>
          <leafValues>
            -7.9961919784545898e-01 9.4898805022239685e-02</leafValues></_>
        <_>
          <internalNodes>
            0 -1 120 5.9848818928003311e-03</internalNodes>
          <leafValues>
            -2.7205574512481689e-01 3.5130935907363892e-01</leafValues></_>
        <_>
          <internalNodes>
            0 -1 0 -9.2135556042194366e-04</internalNodes>
          <leafValues>
            -6.8007022142410278e-01 1.2950628995895386e-01</leafValues></_>
        <_>
          <internalNodes>
            0 -1 155 5.6770459195831791e-05</internalNodes>
          <leafValues>
            -3.9800959825515747e-01 2.3665712773799896e-01</leafValues></_>
        <_>
          <internalNodes>
            0 -1 170 2.0715647842735052e-03</internalNodes>
          <leafValues>
            1.1830388754606247e-01 -7.9750615358352661e-01</leafValues></_>
        <_>
          <internalNodes>
            0 -1 149 9.4632990658283234e-03</internalNodes>
          <leafValues>
            -2.1738319098949432e-01 5.3386956453323364e-01</leafValues></_>
        <_>
          <internalNodes>
            0 -1 61 -7.8608021140098572e-03</internalNodes>
          <leafValues>
            4.4847869873046875e-01 -2.1139636635780334e-01</leafValues></_>
        <_>
          <internalNodes>
            0 -1 23 3.2916604541242123e-03</internalNodes>
          <leafValues>
            -2.1060557663440704e-01 4.3764534592628479e-01</leafValues></_>
        <_>
          <internalNodes>
            0 -1 1 8.4698584396392107e-04</internalNodes>
          <leafValues>
            1.5585018694400787e-01 -6.7655795812606812e-01</leafValues></_>
        <_>
          <internalNodes>
            0 -1 51 4.1153058409690857e-02</internalNodes>
          <leafValues>
            1.1095601320266724e-01 -7.0465600490570068e-01</leafValues></_>
        <_>
          <internalNodes>
            0 -1 54 2.1205808967351913e-02</internalNodes>
          <leafValues>
            -2.0038037002086639e-01 4.7275638580322266e-01</leafValues></_>
        <_>
          <internalNodes>
            0 -1 85 4.6284236013889313e-02</internalNodes>
          <leafValues>
            -3.3492588996887207e-01 2.8356871008872986e-01</leafValues></_>
        <_>
          <internalNodes>
            0 -1 117 -2.1849755197763443e-02</internalNodes>
          <leafValues>
            5.9859240055084229e-01 -1.7126585543155670e-01</leafValues></_>
        <_>
          <internalNodes>
            0 -1 25 -5.7208380894735456e-05</internalNodes>
          <leafValues>
            2.6748612523078918e-01 -3.4869596362113953e-01</leafValues></_>
        <_>
          <internalNodes>
            0 -1 42 1.5684978570789099e-03</internalNodes>
          <leafValues>
            1.5141493082046509e-01 -7.3177450895309448e-01</leafValues></_>
        <_>
          <internalNodes>
            0 -1 68 4.9081720411777496e-02</internalNodes>
          <leafValues>
            -2.1919584274291992e-01 4.6842691302299500e-01</leafValues></_>
        <_>
          <internalNodes>
            0 -1 95 3.6715615540742874e-02</internalNodes>
          <leafValues>
            -3.3697855472564697e-01 3.6034256219863892e-01</leafValues></_>
        <_>
          <internalNodes>
            0 -1 113 6.6842369735240936e-02</internalNodes>
          <leafValues>
            -2.6024276018142700e-01 3.4886103868484497e-01</leafValues></_>
        <_>
          <internalNodes>
            0 -1 124 4.0899854153394699e-02</internalNodes>
          <leafValues>
            -2.0230294764041901e-01 4.5579305291175842e-01</leafValues></_>
        <_>
          <internalNodes>
            0 -1 19 8.8908178731799126e-03</internalNodes>
          <leafValues>
            -1.5023620426654816e-01 5.3917914628982544e-01</leafValues></_></weakClassifiers></_>
    <!-- stage 9 -->
    <_>
      <maxWeakCount>22</maxWeakCount>
      <stageThreshold>-2.0868639945983887e+00</stageThreshold>
      <weakClassifiers>
        <_>
          <internalNodes>
            0 -1 153 2.8039753437042236e-02</internalNodes>
          <leafValues>
            -6.5566539764404297e-01 1.2971246242523193e-01</leafValues></_>
        <_>
          <internalNodes>
            0 -1 52 7.1609102189540863e-02</internalNodes>
          <leafValues>
            -4.2993104457855225e-01 2.0150424540042877e-01</leafValues></_>
        <_>
          <internalNodes>
            0 -1 159 7.6275528408586979e-04</internalNodes>
          <leafValues>
            1.2355569005012512e-01 -7.5221347808837891e-01</leafValues></_>
        <_>
          <internalNodes>
            0 -1 28 -5.7302509958390146e-05</internalNodes>
          <leafValues>
            2.4778164923191071e-01 -4.0362179279327393e-01</leafValues></_>
        <_>
          <internalNodes>
            0 -1 160 -6.5213785273954272e-04</internalNodes>
          <leafValues>
            -7.0400172472000122e-01 1.4186695218086243e-01</leafValues></_>
        <_>
          <internalNodes>
            0 -1 74 2.4291098117828369e-02</internalNodes>
          <leafValues>
            -1.8914099037647247e-01 5.7849484682083130e-01</leafValues></_>
        <_>
          <internalNodes>
            0 -1 134 1.6211185720749199e-04</internalNodes>
          <leafValues>
            -4.3033504486083984e-01 2.4030604958534241e-01</leafValues></_>
        <_>
          <internalNodes>
            0 -1 30 -6.2621608376502991e-03</internalNodes>
          <leafValues>
            -8.2166522741317749e-01 9.9119946360588074e-02</leafValues></_>
        <_>
          <internalNodes>
            0 -1 13 1.9508349895477295e-01</internalNodes>
          <leafValues>
            1.0187127441167831e-01 -7.0781183242797852e-01</leafValues></_>
        <_>
          <internalNodes>
            0 -1 107 8.2983644679188728e-03</internalNodes>
          <leafValues>
            -2.4632857739925385e-01 3.5868743062019348e-01</leafValues></_>
        <_>
          <internalNodes>
            0 -1 133 -1.3348894426599145e-03</internalNodes>
          <leafValues>
            4.7961458563804626e-01 -2.2029682993888855e-01</leafValues></_>
        <_>
          <internalNodes>
            0 -1 169 1.0192187037318945e-03</internalNodes>
          <leafValues>
            1.3082666695117950e-01 -7.5192934274673462e-01</leafValues></_>
        <_>
          <internalNodes>
            0 -1 140 1.5353236813098192e-03</internalNodes>
          <leafValues>
            -2.3553113639354706e-01 4.2116454243659973e-01</leafValues></_>
        <_>
          <internalNodes>
            0 -1 38 7.0497170090675354e-02</internalNodes>
          <leafValues>
            -2.2883071005344391e-01 3.7602728605270386e-01</leafValues></_>
        <_>
          <internalNodes>
            0 -1 91 -3.9106179028749466e-02</internalNodes>
          <leafValues>
            7.5825476646423340e-01 -1.1459501087665558e-01</leafValues></_>
        <_>
          <internalNodes>
            0 -1 24 -8.9065805077552795e-02</internalNodes>
          <leafValues>
            1.3295818865299225e-01 -7.0803433656692505e-01</leafValues></_>
        <_>
          <internalNodes>
            0 -1 67 6.3168369233608246e-02</internalNodes>
          <leafValues>
            -2.9268902540206909e-01 2.7634239196777344e-01</leafValues></_>
        <_>
          <internalNodes>
            0 -1 164 -1.8262740923091769e-03</internalNodes>
          <leafValues>
            -7.5502824783325195e-01 1.0601899027824402e-01</leafValues></_>
        <_>
          <internalNodes>
            0 -1 101 -2.5634858757257462e-02</internalNodes>
          <leafValues>
            5.7688617706298828e-01 -1.4707198739051819e-01</leafValues></_>
        <_>
          <internalNodes>
            0 -1 122 3.3439967781305313e-02</internalNodes>
          <leafValues>
            -1.3900628685951233e-01 5.4310929775238037e-01</leafValues></_>
        <_>
          <internalNodes>
            0 -1 130 4.6723045408725739e-02</internalNodes>
          <leafValues>
            -2.2783716022968292e-01 3.1621459126472473e-01</leafValues></_>
        <_>
          <internalNodes>
            0 -1 102 5.9193223714828491e-02</internalNodes>
          <leafValues>
            -2.9098755121231079e-01 2.8566849231719971e-01</leafValues></_></weakClassifiers></_>
    <!-- stage 10 -->
    <_>
      <maxWeakCount>23</maxWeakCount>
      <stageThreshold>-2.0495312213897705e+00</stageThreshold>
      <weakClassifiers>
        <_>
          <internalNodes>
            0 -1 21 1.0517083108425140e-02</internalNodes>
          <leafValues>
            -6.5522187948226929e-01 4.7072332352399826e-02</leafValues></_>
        <_>
          <internalNodes>
            0 -1 46 -5.7498593378113583e-05</internalNodes>
          <leafValues>
            1.2422061711549759e-01 -5.4466563463211060e-01</leafValues></_>
        <_>
          <internalNodes>
            0 -1 5 1.0703112185001373e-01</internalNodes>
          <leafValues>
            -6.2530058622360229e-01 1.4680187404155731e-01</leafValues></_>
        <_>
          <internalNodes>
            0 -1 165 5.6186559959314764e-05</internalNodes>
          <leafValues>
            -3.6612808704376221e-01 2.1778416633605957e-01</leafValues></_>
        <_>
          <internalNodes>
            0 -1 165 9.5695583149790764e-04</internalNodes>
          <leafValues>
            1.3299670815467834e-01 -7.9676061868667603e-01</leafValues></_>
        <_>
          <internalNodes>
            0 -1 89 6.8978606723248959e-03</internalNodes>
          <leafValues>
            -2.6127943396568298e-01 2.9825374484062195e-01</leafValues></_>
        <_>
          <internalNodes>
            0 -1 10 5.2251362800598145e-01</internalNodes>
          <leafValues>
            1.1752834916114807e-01 -7.8431266546249390e-01</leafValues></_>
        <_>
          <internalNodes>
            0 -1 87 -3.5135537385940552e-02</internalNodes>
          <leafValues>
            4.9812901020050049e-01 -1.8133255839347839e-01</leafValues></_>
        <_>
          <internalNodes>
            0 -1 86 4.4524360448122025e-02</internalNodes>
          <leafValues>
            -3.2023322582244873e-01 3.2702180743217468e-01</leafValues></_>
        <_>
          <internalNodes>
            0 -1 96 2.2872509725857526e-04</internalNodes>
          <leafValues>
            -3.0327850580215454e-01 2.5581747293472290e-01</leafValues></_>
        <_>
          <internalNodes>
            0 -1 47 -8.7163993157446384e-04</internalNodes>
          <leafValues>
            -7.9675054550170898e-01 9.7526580095291138e-02</leafValues></_>
        <_>
          <internalNodes>
            0 -1 108 7.6961598824709654e-04</internalNodes>
          <leafValues>
            -2.1957556903362274e-01 4.2244493961334229e-01</leafValues></_>
        <_>
          <internalNodes>
            0 -1 110 4.1626120219007134e-04</internalNodes>
          <leafValues>
            -2.5916457176208496e-01 4.0916097164154053e-01</leafValues></_>
        <_>
          <internalNodes>
            0 -1 56 4.9114257097244263e-02</internalNodes>
          <leafValues>
            -2.8558278083801270e-01 2.8513193130493164e-01</leafValues></_>
        <_>
          <internalNodes>
            0 -1 39 1.1731190606951714e-02</internalNodes>
          <leafValues>
            -1.9491240382194519e-01 4.0333309769630432e-01</leafValues></_>
        <_>
          <internalNodes>
            0 -1 135 -7.4233190389350057e-05</internalNodes>
          <leafValues>
            2.1687577664852142e-01 -3.9706051349639893e-01</leafValues></_>
        <_>
          <internalNodes>
            0 -1 83 5.1291089504957199e-02</internalNodes>
          <leafValues>
            -3.0162718892097473e-01 2.6800310611724854e-01</leafValues></_>
        <_>
          <internalNodes>
            0 -1 127 3.9746902883052826e-02</internalNodes>
          <leafValues>
            -1.5334571897983551e-01 5.2270054817199707e-01</leafValues></_>
        <_>
          <internalNodes>
            0 -1 119 4.5828811824321747e-02</internalNodes>
          <leafValues>
            -2.4389448761940002e-01 3.2118159532546997e-01</leafValues></_>
        <_>
          <internalNodes>
            0 -1 103 -5.7851131714414805e-05</internalNodes>
          <leafValues>
            2.3885698616504669e-01 -3.2725346088409424e-01</leafValues></_>
        <_>
          <internalNodes>
            0 -1 69 4.3063066899776459e-02</internalNodes>
          <leafValues>
            -2.9396620392799377e-01 2.8093388676643372e-01</leafValues></_>
        <_>
          <internalNodes>
            0 -1 106 6.2941862270236015e-03</internalNodes>
          <leafValues>
            -2.8963783383369446e-01 2.9276734590530396e-01</leafValues></_>
        <_>
          <internalNodes>
            0 -1 93 4.6826504170894623e-02</internalNodes>
          <leafValues>
            -3.2164096832275391e-01 2.7176800370216370e-01</leafValues></_></weakClassifiers></_>
    <!-- stage 11 -->
    <_>
      <maxWeakCount>26</maxWeakCount>
      <stageThreshold>-2.1764643192291260e+00</stageThreshold>
      <weakClassifiers>
        <_>
          <internalNodes>
            0 -1 154 1.5524316579103470e-02</internalNodes>
          <leafValues>
            -6.4061832427978516e-01 2.3063972592353821e-01</leafValues></_>
        <_>
          <internalNodes>
            0 -1 48 -7.5738134910352528e-05</internalNodes>
          <leafValues>
            1.0400655120611191e-01 -5.5018734931945801e-01</leafValues></_>
        <_>
          <internalNodes>
            0 -1 4 8.4490694105625153e-02</internalNodes>
          <leafValues>
            -5.2368837594985962e-01 1.5619926154613495e-01</leafValues></_>
        <_>
          <internalNodes>
            0 -1 32 6.9908233126625419e-04</internalNodes>
          <leafValues>
            1.3680024445056915e-01 -6.5473705530166626e-01</leafValues></_>
        <_>
          <internalNodes>
            0 -1 14 2.0184397697448730e-01</internalNodes>
          <leafValues>
            -7.7702295780181885e-01 9.9084772169589996e-02</leafValues></_>
        <_>
          <internalNodes>
            0 -1 138 1.1960066854953766e-02</internalNodes>
          <leafValues>
            -1.9950678944587708e-01 4.6638602018356323e-01</leafValues></_>
        <_>
          <internalNodes>
            0 -1 44 1.6637425869703293e-03</internalNodes>
          <leafValues>
            1.0119407624006271e-01 -7.1556437015533447e-01</leafValues></_>
        <_>
          <internalNodes>
            0 -1 37 7.8031182289123535e-02</internalNodes>
          <leafValues>
            -2.1328236162662506e-01 3.5975670814514160e-01</leafValues></_>
        <_>
          <internalNodes>
            0 -1 79 -2.1725395694375038e-02</internalNodes>
          <leafValues>
            6.3353443145751953e-01 -1.3742759823799133e-01</leafValues></_>
        <_>
          <internalNodes>
            0 -1 161 5.7306453527417034e-05</internalNodes>
          <leafValues>
            -3.6139371991157532e-01 2.2767119109630585e-01</leafValues></_>
        <_>
          <internalNodes>
            0 -1 80 3.3871874213218689e-02</internalNodes>
          <leafValues>
            -1.7161448299884796e-01 4.3843448162078857e-01</leafValues></_>
        <_>
          <internalNodes>
            0 -1 100 -2.7755992487072945e-02</internalNodes>
          <leafValues>
            5.6657469272613525e-01 -1.2998867034912109e-01</leafValues></_>
        <_>
          <internalNodes>
            0 -1 161 1.2024478055536747e-03</internalNodes>
          <leafValues>
            1.0562878847122192e-01 -8.0790221691131592e-01</leafValues></_>
        <_>
          <internalNodes>
            0 -1 126 -2.8029784560203552e-02</internalNodes>
          <leafValues>
            5.5442577600479126e-01 -1.4570516347885132e-01</leafValues></_>
        <_>
          <internalNodes>
            0 -1 77 4.2353337630629539e-03</internalNodes>
          <leafValues>
            -3.0142903327941895e-01 2.6909106969833374e-01</leafValues></_>
        <_>
          <internalNodes>
            0 -1 105 -2.1331124007701874e-02</internalNodes>
          <leafValues>
            5.0797390937805176e-01 -1.5653292834758759e-01</leafValues></_>
        <_>
          <internalNodes>
            0 -1 27 -1.9688361790031195e-03</internalNodes>
          <leafValues>
            3.6513420939445496e-01 -1.9657334685325623e-01</leafValues></_>
        <_>
          <internalNodes>
            0 -1 88 3.9955391548573971e-03</internalNodes>
          <leafValues>
            -2.1051631867885590e-01 4.8895564675331116e-01</leafValues></_>
        <_>
          <internalNodes>
            0 -1 49 9.9034281447529793e-04</internalNodes>
          <leafValues>
            1.1033389717340469e-01 -6.6978418827056885e-01</leafValues></_>
        <_>
          <internalNodes>
            0 -1 136 4.8506408929824829e-02</internalNodes>
          <leafValues>
            -1.4589259028434753e-01 5.5012345314025879e-01</leafValues></_>
        <_>
          <internalNodes>
            0 -1 70 3.8013525307178497e-02</internalNodes>
          <leafValues>
            -2.2603072226047516e-01 3.2522708177566528e-01</leafValues></_>
        <_>
          <internalNodes>
            0 -1 116 5.6774981319904327e-02</internalNodes>
          <leafValues>
            -2.6455277204513550e-01 2.7306988835334778e-01</leafValues></_>
        <_>
          <internalNodes>
            0 -1 167 7.4165165424346924e-03</internalNodes>
          <leafValues>
            7.3179975152015686e-02 -8.4868758916854858e-01</leafValues></_>
        <_>
          <internalNodes>
            0 -1 147 -1.5168749727308750e-02</internalNodes>
          <leafValues>
            3.7638700008392334e-01 -1.8509683012962341e-01</leafValues></_>
        <_>
          <internalNodes>
            0 -1 94 5.5069357156753540e-02</internalNodes>
          <leafValues>
            -2.7273967862129211e-01 3.0002173781394958e-01</leafValues></_>
        <_>
          <internalNodes>
            0 -1 58 5.3618347644805908e-01</internalNodes>
          <leafValues>
            7.8073695302009583e-02 -9.0005397796630859e-01</leafValues></_></weakClassifiers></_></stages>
  <features>
    <_>
      <rects>
        <_>
          0 0 4 1 -1.</_>
        <_>
          1 0 2 1 2.</_></rects>
      <tilted>0</tilted></_>
    <_>
      <rects>
        <_>
          0 0 4 2 -1.</_>
        <_>
          1 0 2 2 2.</_></rects>
      <tilted>0</tilted></_>
    <_>
      <rects>
        <_>
          0 0 1 14 -1.</_>
        <_>
          0 7 1 7 2.</_></rects>
      <tilted>0</tilted></_>
    <_>
      <rects>
        <_>
          0 0 4 1 -1.</_>
        <_>
          2 0 2 1 2.</_></rects>
      <tilted>0</tilted></_>
    <_>
      <rects>
        <_>
          0 0 16 4 -1.</_>
        <_>
          4 0 8 4 2.</_></rects>
      <tilted>0</tilted></_>
    <_>
      <rects>
        <_>
          0 0 16 5 -1.</_>
        <_>
          4 0 8 5 2.</_></rects>
      <tilted>0</tilted></_>
    <_>
      <rects>
        <_>
          0 0 16 6 -1.</_>
        <_>
          4 0 8 6 2.</_></rects>
      <tilted>0</tilted></_>
    <_>
      <rects>
        <_>
          0 0 16 7 -1.</_>
        <_>
          4 0 8 7 2.</_></rects>
      <tilted>0</tilted></_>
    <_>
      <rects>
        <_>
          0 0 16 13 -1.</_>
        <_>
          4 0 8 13 2.</_></rects>
      <tilted>0</tilted></_>
    <_>
      <rects>
        <_>
          0 0 16 14 -1.</_>
        <_>
          4 0 8 14 2.</_></rects>
      <tilted>0</tilted></_>
    <_>
      <rects>
        <_>
          0 0 16 16 -1.</_>
        <_>
          4 0 8 16 2.</_></rects>
      <tilted>0</tilted></_>
    <_>
      <rects>
        <_>
          0 0 12 6 -1.</_>
        <_>
          6 0 6 6 2.</_></rects>
      <tilted>0</tilted></_>
    <_>
      <rects>
        <_>
          0 0 16 1 -1.</_>
        <_>
          8 0 8 1 2.</_></rects>
      <tilted>0</tilted></_>
    <_>
      <rects>
        <_>
          0 0 16 16 -1.</_>
        <_>
          0 0 8 8 2.</_>
        <_>
          8 8 8 8 2.</_></rects>
      <tilted>0</tilted></_>
    <_>
      <rects>
        <_>
          0 0 15 16 -1.</_>
        <_>
          0 4 15 8 2.</_></rects>
      <tilted>0</tilted></_>
    <_>
      <rects>
        <_>
          0 1 16 4 -1.</_>
        <_>
          4 1 8 4 2.</_></rects>
      <tilted>0</tilted></_>
    <_>
      <rects>
        <_>
          0 1 16 13 -1.</_>
        <_>
          4 1 8 13 2.</_></rects>
      <tilted>0</tilted></_>
    <_>
      <rects>
        <_>
          0 1 16 15 -1.</_>
        <_>
          4 1 8 15 2.</_></rects>
      <tilted>0</tilted></_>
    <_>
      <rects>
        <_>
          0 2 4 4 -1.</_>
        <_>
          2 2 2 4 2.</_></rects>
      <tilted>0</tilted></_>
    <_>
      <rects>
        <_>
          0 4 4 3 -1.</_>
        <_>
          1 4 2 3 2.</_></rects>
      <tilted>0</tilted></_>
    <_>
      <rects>
        <_>
          0 4 4 7 -1.</_>
        <_>
          1 4 2 7 2.</_></rects>
      <tilted>0</tilted></_>
    <_>
      <rects>
        <_>
          0 5 3 4 -1.</_>
        <_>
          1 5 1 4 3.</_></rects>
      <tilted>0</tilted></_>
    <_>
      <rects>
        <_>
          0 6 15 10 -1.</_>
        <_>
          0 11 15 5 2.</_></rects>
      <tilted>0</tilted></_>
    <_>
      <rects>
        <_>
          0 8 4 2 -1.</_>
        <_>
          1 8 2 2 2.</_></rects>
      <tilted>0</tilted></_>
    <_>
      <rects>
        <_>
          0 8 16 8 -1.</_>
        <_>
          0 12 16 4 2.</_></rects>
      <tilted>0</tilted></_>
    <_>
      <rects>
        <_>
          0 13 2 1 -1.</_>
        <_>
          1 13 1 1 2.</_></rects>
      <tilted>0</tilted></_>
    <_>
      <rects>
        <_>
          0 13 2 3 -1.</_>
        <_>
          1 13 1 3 2.</_></rects>
      <tilted>0</tilted></_>
    <_>
      <rects>
        <_>
          0 13 6 1 -1.</_>
        <_>
          3 13 3 1 2.</_></rects>
      <tilted>0</tilted></_>
    <_>
      <rects>
        <_>
          0 14 2 1 -1.</_>
        <_>
          1 14 1 1 2.</_></rects>
      <tilted>0</tilted></_>
    <_>
      <rects>
        <_>
          0 14 2 2 -1.</_>
        <_>
          0 15 2 1 2.</_></rects>
      <tilted>0</tilted></_>
    <_>
      <rects>
        <_>
          0 14 4 2 -1.</_>
        <_>
          2 14 2 2 2.</_></rects>
      <tilted>0</tilted></_>
    <_>
      <rects>
        <_>
          0 15 2 1 -1.</_>
        <_>
          1 15 1 1 2.</_></rects>
      <tilted>0</tilted></_>
    <_>
      <rects>
        <_>
          0 15 4 1 -1.</_>
        <_>
          1 15 2 1 2.</_></rects>
      <tilted>0</tilted></_>
    <_>
      <rects>
        <_>
          0 15 16 1 -1.</_>
        <_>
          8 15 8 1 2.</_></rects>
      <tilted>0</tilted></_>
    <_>
      <rects>
        <_>
          1 0 4 6 -1.</_>
        <_>
          1 3 4 3 2.</_></rects>
      <tilted>0</tilted></_>
    <_>
      <rects>
        <_>
          1 0 4 16 -1.</_>
        <_>
          1 4 4 8 2.</_></rects>
      <tilted>0</tilted></_>
    <_>
      <rects>
        <_>
          1 0 14 16 -1.</_>
        <_>
          1 4 14 8 2.</_></rects>
      <tilted>0</tilted></_>
    <_>
      <rects>
        <_>
          1 1 6 6 -1.</_>
        <_>
          3 3 2 2 9.</_></rects>
      <tilted>0</tilted></_>
    <_>
      <rects>
        <_>
          1 3 6 6 -1.</_>
        <_>
          3 5 2 2 9.</_></rects>
      <tilted>0</tilted></_>
    <_>
      <rects>
        <_>
          1 5 4 5 -1.</_>
        <_>
          2 5 2 5 2.</_></rects>
      <tilted>0</tilted></_>
    <_>
      <rects>
        <_>
          1 5 4 6 -1.</_>
        <_>
          2 5 2 6 2.</_></rects>
      <tilted>0</tilted></_>
    <_>
      <rects>
        <_>
          1 6 14 10 -1.</_>
        <_>
          1 11 14 5 2.</_></rects>
      <tilted>0</tilted></_>
    <_>
      <rects>
        <_>
          1 12 2 1 -1.</_>
        <_>
          1 12 1 1 2.</_></rects>
      <tilted>1</tilted></_>
    <_>
      <rects>
        <_>
          1 12 3 1 -1.</_>
        <_>
          2 13 1 1 3.</_></rects>
      <tilted>1</tilted></_>
    <_>
      <rects>
        <_>
          1 13 2 1 -1.</_>
        <_>
          1 13 1 1 2.</_></rects>
      <tilted>1</tilted></_>
    <_>
      <rects>
        <_>
          1 14 2 1 -1.</_>
        <_>
          2 14 1 1 2.</_></rects>
      <tilted>0</tilted></_>
    <_>
      <rects>
        <_>
          1 14 2 2 -1.</_>
        <_>
          2 14 1 2 2.</_></rects>
      <tilted>0</tilted></_>
    <_>
      <rects>
        <_>
          1 15 2 1 -1.</_>
        <_>
          2 15 1 1 2.</_></rects>
      <tilted>0</tilted></_>
    <_>
      <rects>
        <_>
          1 15 4 1 -1.</_>
        <_>
          3 15 2 1 2.</_></rects>
      <tilted>0</tilted></_>
    <_>
      <rects>
        <_>
          2 0 2 1 -1.</_>
        <_>
          3 0 1 1 2.</_></rects>
      <tilted>0</tilted></_>
    <_>
      <rects>
        <_>
          2 0 4 4 -1.</_>
        <_>
          2 2 4 2 2.</_></rects>
      <tilted>0</tilted></_>
    <_>
      <rects>
        <_>
          2 0 14 6 -1.</_>
        <_>
          9 0 7 6 2.</_></rects>
      <tilted>0</tilted></_>
    <_>
      <rects>
        <_>
          2 0 11 4 -1.</_>
        <_>
          2 2 11 2 2.</_></rects>
      <tilted>0</tilted></_>
    <_>
      <rects>
        <_>
          2 0 12 4 -1.</_>
        <_>
          2 2 12 2 2.</_></rects>
      <tilted>0</tilted></_>
    <_>
      <rects>
        <_>
          2 2 4 9 -1.</_>
        <_>
          3 2 2 9 2.</_></rects>
      <tilted>0</tilted></_>
    <_>
      <rects>
        <_>
          2 3 6 6 -1.</_>
        <_>
          4 5 2 2 9.</_></rects>
      <tilted>0</tilted></_>
    <_>
      <rects>
        <_>
          2 4 6 6 -1.</_>
        <_>
          4 6 2 2 9.</_></rects>
      <tilted>0</tilted></_>
    <_>
      <rects>
        <_>
          2 5 6 6 -1.</_>
        <_>
          4 7 2 2 9.</_></rects>
      <tilted>0</tilted></_>
    <_>
      <rects>
        <_>
          2 5 12 9 -1.</_>
        <_>
          6 8 4 3 9.</_></rects>
      <tilted>0</tilted></_>
    <_>
      <rects>
        <_>
          2 7 6 6 -1.</_>
        <_>
          4 9 2 2 9.</_></rects>
      <tilted>0</tilted></_>
    <_>
      <rects>
        <_>
          2 13 1 2 -1.</_>
        <_>
          2 13 1 1 2.</_></rects>
      <tilted>1</tilted></_>
    <_>
      <rects>
        <_>
          2 13 12 2 -1.</_>
        <_>
          5 13 6 2 2.</_></rects>
      <tilted>0</tilted></_>
    <_>
      <rects>
        <_>
          2 14 2 1 -1.</_>
        <_>
          3 14 1 1 2.</_></rects>
      <tilted>0</tilted></_>
    <_>
      <rects>
        <_>
          2 15 2 1 -1.</_>
        <_>
          3 15 1 1 2.</_></rects>
      <tilted>0</tilted></_>
    <_>
      <rects>
        <_>
          3 0 1 3 -1.</_>
        <_>
          2 1 1 1 3.</_></rects>
      <tilted>1</tilted></_>
    <_>
      <rects>
        <_>
          3 0 6 6 -1.</_>
        <_>
          5 2 2 2 9.</_></rects>
      <tilted>0</tilted></_>
    <_>
      <rects>
        <_>
          3 0 10 2 -1.</_>
        <_>
          3 1 10 1 2.</_></rects>
      <tilted>0</tilted></_>
    <_>
      <rects>
        <_>
          3 1 6 6 -1.</_>
        <_>
          5 3 2 2 9.</_></rects>
      <tilted>0</tilted></_>
    <_>
      <rects>
        <_>
          3 5 6 7 -1.</_>
        <_>
          5 5 2 7 3.</_></rects>
      <tilted>0</tilted></_>
    <_>
      <rects>
        <_>
          3 6 6 6 -1.</_>
        <_>
          5 8 2 2 9.</_></rects>
      <tilted>0</tilted></_>
    <_>
      <rects>
        <_>
          3 8 6 6 -1.</_>
        <_>
          5 10 2 2 9.</_></rects>
      <tilted>0</tilted></_>
    <_>
      <rects>
        <_>
          3 15 2 1 -1.</_>
        <_>
          4 15 1 1 2.</_></rects>
      <tilted>0</tilted></_>
    <_>
      <rects>
        <_>
          4 0 12 7 -1.</_>
        <_>
          10 0 6 7 2.</_></rects>
      <tilted>0</tilted></_>
    <_>
      <rects>
        <_>
          4 0 7 2 -1.</_>
        <_>
          4 1 7 1 2.</_></rects>
      <tilted>0</tilted></_>
    <_>
      <rects>
        <_>
          4 0 8 3 -1.</_>
        <_>
          4 1 8 1 3.</_></rects>
      <tilted>0</tilted></_>
    <_>
      <rects>
        <_>
          4 1 3 3 -1.</_>
        <_>
          5 2 1 3 3.</_></rects>
      <tilted>1</tilted></_>
    <_>
      <rects>
        <_>
          4 2 6 6 -1.</_>
        <_>
          6 4 2 2 9.</_></rects>
      <tilted>0</tilted></_>
    <_>
      <rects>
        <_>
          4 9 6 3 -1.</_>
        <_>
          6 10 2 1 9.</_></rects>
      <tilted>0</tilted></_>
    <_>
      <rects>
        <_>
          5 0 3 4 -1.</_>
        <_>
          6 1 1 4 3.</_></rects>
      <tilted>1</tilted></_>
    <_>
      <rects>
        <_>
          5 1 3 3 -1.</_>
        <_>
          6 2 1 3 3.</_></rects>
      <tilted>1</tilted></_>
    <_>
      <rects>
        <_>
          5 2 3 5 -1.</_>
        <_>
          6 3 1 5 3.</_></rects>
      <tilted>1</tilted></_>
    <_>
      <rects>
        <_>
          5 2 6 7 -1.</_>
        <_>
          7 2 2 7 3.</_></rects>
      <tilted>0</tilted></_>
    <_>
      <rects>
        <_>
          5 3 6 8 -1.</_>
        <_>
          7 3 2 8 3.</_></rects>
      <tilted>0</tilted></_>
    <_>
      <rects>
        <_>
          5 4 6 6 -1.</_>
        <_>
          7 6 2 2 9.</_></rects>
      <tilted>0</tilted></_>
    <_>
      <rects>
        <_>
          5 4 6 7 -1.</_>
        <_>
          7 4 2 7 3.</_></rects>
      <tilted>0</tilted></_>
    <_>
      <rects>
        <_>
          5 5 6 6 -1.</_>
        <_>
          7 7 2 2 9.</_></rects>
      <tilted>0</tilted></_>
    <_>
      <rects>
        <_>
          5 6 6 6 -1.</_>
        <_>
          7 8 2 2 9.</_></rects>
      <tilted>0</tilted></_>
    <_>
      <rects>
        <_>
          5 7 6 8 -1.</_>
        <_>
          7 7 2 8 3.</_></rects>
      <tilted>0</tilted></_>
    <_>
      <rects>
        <_>
          5 10 2 3 -1.</_>
        <_>
          4 11 2 1 3.</_></rects>
      <tilted>1</tilted></_>
    <_>
      <rects>
        <_>
          5 11 6 3 -1.</_>
        <_>
          7 12 2 1 9.</_></rects>
      <tilted>0</tilted></_>
    <_>
      <rects>
        <_>
          6 0 5 4 -1.</_>
        <_>
          6 1 5 2 2.</_></rects>
      <tilted>0</tilted></_>
    <_>
      <rects>
        <_>
          6 1 3 5 -1.</_>
        <_>
          7 2 1 5 3.</_></rects>
      <tilted>1</tilted></_>
    <_>
      <rects>
        <_>
          6 2 6 6 -1.</_>
        <_>
          8 4 2 2 9.</_></rects>
      <tilted>0</tilted></_>
    <_>
      <rects>
        <_>
          6 4 6 6 -1.</_>
        <_>
          8 6 2 2 9.</_></rects>
      <tilted>0</tilted></_>
    <_>
      <rects>
        <_>
          6 6 6 6 -1.</_>
        <_>
          8 8 2 2 9.</_></rects>
      <tilted>0</tilted></_>
    <_>
      <rects>
        <_>
          6 7 6 6 -1.</_>
        <_>
          8 9 2 2 9.</_></rects>
      <tilted>0</tilted></_>
    <_>
      <rects>
        <_>
          6 10 3 3 -1.</_>
        <_>
          7 11 1 1 9.</_></rects>
      <tilted>0</tilted></_>
    <_>
      <rects>
        <_>
          6 13 1 2 -1.</_>
        <_>
          6 13 1 1 2.</_></rects>
      <tilted>1</tilted></_>
    <_>
      <rects>
        <_>
          6 14 3 2 -1.</_>
        <_>
          6 15 3 1 2.</_></rects>
      <tilted>0</tilted></_>
    <_>
      <rects>
        <_>
          6 14 4 2 -1.</_>
        <_>
          6 15 4 1 2.</_></rects>
      <tilted>0</tilted></_>
    <_>
      <rects>
        <_>
          7 1 3 5 -1.</_>
        <_>
          8 2 1 5 3.</_></rects>
      <tilted>1</tilted></_>
    <_>
      <rects>
        <_>
          7 2 3 5 -1.</_>
        <_>
          8 3 1 5 3.</_></rects>
      <tilted>1</tilted></_>
    <_>
      <rects>
        <_>
          7 3 6 6 -1.</_>
        <_>
          9 5 2 2 9.</_></rects>
      <tilted>0</tilted></_>
    <_>
      <rects>
        <_>
          7 5 1 2 -1.</_>
        <_>
          7 6 1 1 2.</_></rects>
      <tilted>0</tilted></_>
    <_>
      <rects>
        <_>
          7 7 6 6 -1.</_>
        <_>
          9 9 2 2 9.</_></rects>
      <tilted>0</tilted></_>
    <_>
      <rects>
        <_>
          7 7 5 3 -1.</_>
        <_>
          6 8 5 1 3.</_></rects>
      <tilted>1</tilted></_>
    <_>
      <rects>
        <_>
          7 10 6 3 -1.</_>
        <_>
          9 11 2 1 9.</_></rects>
      <tilted>0</tilted></_>
    <_>
      <rects>
        <_>
          7 11 6 3 -1.</_>
        <_>
          9 12 2 1 9.</_></rects>
      <tilted>0</tilted></_>
    <_>
      <rects>
        <_>
          7 12 1 4 -1.</_>
        <_>
          7 13 1 2 2.</_></rects>
      <tilted>0</tilted></_>
    <_>
      <rects>
        <_>
          7 12 3 4 -1.</_>
        <_>
          7 13 3 2 2.</_></rects>
      <tilted>0</tilted></_>
    <_>
      <rects>
        <_>
          7 14 1 2 -1.</_>
        <_>
          7 15 1 1 2.</_></rects>
      <tilted>0</tilted></_>
    <_>
      <rects>
        <_>
          8 0 3 6 -1.</_>
        <_>
          9 1 1 6 3.</_></rects>
      <tilted>1</tilted></_>
    <_>
      <rects>
        <_>
          8 0 6 6 -1.</_>
        <_>
          10 2 2 2 9.</_></rects>
      <tilted>0</tilted></_>
    <_>
      <rects>
        <_>
          8 2 6 6 -1.</_>
        <_>
          10 4 2 2 9.</_></rects>
      <tilted>0</tilted></_>
    <_>
      <rects>
        <_>
          8 3 6 6 -1.</_>
        <_>
          10 5 2 2 9.</_></rects>
      <tilted>0</tilted></_>
    <_>
      <rects>
        <_>
          8 4 4 5 -1.</_>
        <_>
          9 5 2 5 2.</_></rects>
      <tilted>1</tilted></_>
    <_>
      <rects>
        <_>
          8 4 6 6 -1.</_>
        <_>
          10 6 2 2 9.</_></rects>
      <tilted>0</tilted></_>
    <_>
      <rects>
        <_>
          8 5 6 3 -1.</_>
        <_>
          7 6 6 1 3.</_></rects>
      <tilted>1</tilted></_>
    <_>
      <rects>
        <_>
          8 6 4 7 -1.</_>
        <_>
          9 6 2 7 2.</_></rects>
      <tilted>0</tilted></_>
    <_>
      <rects>
        <_>
          8 6 6 6 -1.</_>
        <_>
          10 8 2 2 9.</_></rects>
      <tilted>0</tilted></_>
    <_>
      <rects>
        <_>
          8 10 6 3 -1.</_>
        <_>
          10 11 2 1 9.</_></rects>
      <tilted>0</tilted></_>
    <_>
      <rects>
        <_>
          8 14 1 2 -1.</_>
        <_>
          8 15 1 1 2.</_></rects>
      <tilted>0</tilted></_>
    <_>
      <rects>
        <_>
          9 1 3 5 -1.</_>
        <_>
          10 2 1 5 3.</_></rects>
      <tilted>1</tilted></_>
    <_>
      <rects>
        <_>
          9 2 6 6 -1.</_>
        <_>
          11 4 2 2 9.</_></rects>
      <tilted>0</tilted></_>
    <_>
      <rects>
        <_>
          9 3 5 4 -1.</_>
        <_>
          8 4 5 2 2.</_></rects>
      <tilted>1</tilted></_>
    <_>
      <rects>
        <_>
          9 4 7 12 -1.</_>
        <_>
          9 10 7 6 2.</_></rects>
      <tilted>0</tilted></_>
    <_>
      <rects>
        <_>
          9 5 3 5 -1.</_>
        <_>
          10 6 1 5 3.</_></rects>
      <tilted>1</tilted></_>
    <_>
      <rects>
        <_>
          10 1 5 3 -1.</_>
        <_>
          9 2 5 1 3.</_></rects>
      <tilted>1</tilted></_>
    <_>
      <rects>
        <_>
          10 1 6 3 -1.</_>
        <_>
          9 2 6 1 3.</_></rects>
      <tilted>1</tilted></_>
    <_>
      <rects>
        <_>
          10 2 6 14 -1.</_>
        <_>
          10 9 6 7 2.</_></rects>
      <tilted>0</tilted></_>
    <_>
      <rects>
        <_>
          10 3 6 6 -1.</_>
        <_>
          12 5 2 2 9.</_></rects>
      <tilted>0</tilted></_>
    <_>
      <rects>
        <_>
          10 5 4 6 -1.</_>
        <_>
          11 5 2 6 2.</_></rects>
      <tilted>0</tilted></_>
    <_>
      <rects>
        <_>
          10 9 6 2 -1.</_>
        <_>
          12 9 2 2 3.</_></rects>
      <tilted>0</tilted></_>
    <_>
      <rects>
        <_>
          10 13 2 1 -1.</_>
        <_>
          10 13 1 1 2.</_></rects>
      <tilted>1</tilted></_>
    <_>
      <rects>
        <_>
          10 15 6 1 -1.</_>
        <_>
          13 15 3 1 2.</_></rects>
      <tilted>0</tilted></_>
    <_>
      <rects>
        <_>
          11 0 2 1 -1.</_>
        <_>
          11 0 1 1 2.</_></rects>
      <tilted>1</tilted></_>
    <_>
      <rects>
        <_>
          11 0 5 3 -1.</_>
        <_>
          10 1 5 1 3.</_></rects>
      <tilted>1</tilted></_>
    <_>
      <rects>
        <_>
          11 1 5 3 -1.</_>
        <_>
          10 2 5 1 3.</_></rects>
      <tilted>1</tilted></_>
    <_>
      <rects>
        <_>
          11 2 3 7 -1.</_>
        <_>
          12 2 1 7 3.</_></rects>
      <tilted>0</tilted></_>
    <_>
      <rects>
        <_>
          11 2 4 7 -1.</_>
        <_>
          12 2 2 7 2.</_></rects>
      <tilted>0</tilted></_>
    <_>
      <rects>
        <_>
          11 11 4 2 -1.</_>
        <_>
          12 11 2 2 2.</_></rects>
      <tilted>0</tilted></_>
    <_>
      <rects>
        <_>
          11 15 2 1 -1.</_>
        <_>
          12 15 1 1 2.</_></rects>
      <tilted>0</tilted></_>
    <_>
      <rects>
        <_>
          11 15 4 1 -1.</_>
        <_>
          12 15 2 1 2.</_></rects>
      <tilted>0</tilted></_>
    <_>
      <rects>
        <_>
          12 0 4 1 -1.</_>
        <_>
          13 0 2 1 2.</_></rects>
      <tilted>0</tilted></_>
    <_>
      <rects>
        <_>
          12 0 4 1 -1.</_>
        <_>
          14 0 2 1 2.</_></rects>
      <tilted>0</tilted></_>
    <_>
      <rects>
        <_>
          12 0 4 3 -1.</_>
        <_>
          11 1 4 1 3.</_></rects>
      <tilted>1</tilted></_>
    <_>
      <rects>
        <_>
          12 4 4 3 -1.</_>
        <_>
          13 4 2 3 2.</_></rects>
      <tilted>0</tilted></_>
    <_>
      <rects>
        <_>
          12 4 3 7 -1.</_>
        <_>
          13 5 1 7 3.</_></rects>
      <tilted>1</tilted></_>
    <_>
      <rects>
        <_>
          12 5 4 5 -1.</_>
        <_>
          13 5 2 5 2.</_></rects>
      <tilted>0</tilted></_>
    <_>
      <rects>
        <_>
          12 7 4 4 -1.</_>
        <_>
          13 7 2 4 2.</_></rects>
      <tilted>0</tilted></_>
    <_>
      <rects>
        <_>
          12 15 2 1 -1.</_>
        <_>
          13 15 1 1 2.</_></rects>
      <tilted>0</tilted></_>
    <_>
      <rects>
        <_>
          12 15 4 1 -1.</_>
        <_>
          13 15 2 1 2.</_></rects>
      <tilted>0</tilted></_>
    <_>
      <rects>
        <_>
          12 15 4 1 -1.</_>
        <_>
          14 15 2 1 2.</_></rects>
      <tilted>0</tilted></_>
    <_>
      <rects>
        <_>
          13 0 3 3 -1.</_>
        <_>
          12 1 3 1 3.</_></rects>
      <tilted>1</tilted></_>
    <_>
      <rects>
        <_>
          13 4 3 5 -1.</_>
        <_>
          14 4 1 5 3.</_></rects>
      <tilted>0</tilted></_>
    <_>
      <rects>
        <_>
          13 14 2 1 -1.</_>
        <_>
          14 14 1 1 2.</_></rects>
      <tilted>0</tilted></_>
    <_>
      <rects>
        <_>
          13 15 2 1 -1.</_>
        <_>
          14 15 1 1 2.</_></rects>
      <tilted>0</tilted></_>
    <_>
      <rects>
        <_>
          13 15 3 1 -1.</_>
        <_>
          14 15 1 1 3.</_></rects>
      <tilted>0</tilted></_>
    <_>
      <rects>
        <_>
          14 0 2 1 -1.</_>
        <_>
          14 0 1 1 2.</_></rects>
      <tilted>1</tilted></_>
    <_>
      <rects>
        <_>
          14 0 2 2 -1.</_>
        <_>
          15 0 1 2 2.</_></rects>
      <tilted>0</tilted></_>
    <_>
      <rects>
        <_>
          14 1 2 1 -1.</_>
        <_>
          15 1 1 1 2.</_></rects>
      <tilted>0</tilted></_>
    <_>
      <rects>
        <_>
          14 13 2 1 -1.</_>
        <_>
          15 13 1 1 2.</_></rects>
      <tilted>0</tilted></_>
    <_>
      <rects>
        <_>
          14 13 2 2 -1.</_>
        <_>
          15 13 1 2 2.</_></rects>
      <tilted>0</tilted></_>
    <_>
      <rects>
        <_>
          14 13 2 3 -1.</_>
        <_>
          15 13 1 3 2.</_></rects>
      <tilted>0</tilted></_>
    <_>
      <rects>
        <_>
          14 13 2 3 -1.</_>
        <_>
          14 14 2 1 3.</_></rects>
      <tilted>0</tilted></_>
    <_>
      <rects>
        <_>
          14 14 2 1 -1.</_>
        <_>
          15 14 1 1 2.</_></rects>
      <tilted>0</tilted></_>
    <_>
      <rects>
        <_>
          15 0 1 14 -1.</_>
        <_>
          15 7 1 7 2.</_></rects>
      <tilted>0</tilted></_>
    <_>
      <rects>
        <_>
          15 8 1 6 -1.</_>
        <_>
          15 10 1 2 3.</_></rects>
      <tilted>0</tilted></_>
    <_>
      <rects>
        <_>
          15 12 1 4 -1.</_>
        <_>
          15 14 1 2 2.</_></rects>
      <tilted>0</tilted></_>
    <_>
      <rects>
        <_>
          15 13 1 2 -1.</_>
        <_>
          15 14 1 1 2.</_></rects>
      <tilted>0</tilted></_>
    <_>
      <rects>
        <_>
          15 13 1 2 -1.</_>
        <_>
          15 13 1 1 2.</_></rects>
      <tilted>1</tilted></_></features></cascade>
</opencv_storage>
