<?xml version="1.0"?>
<opencv_storage>
<cascade>
  <stageType>BOOST</stageType>
  <featureType>LBP</featureType>
  <height>16</height>
  <width>16</width>
  <stageParams>
    <boostType>GAB</boostType>
    <minHitRate>9.9900001287460327e-01</minHitRate>
    <maxFalseAlarm>5.0000000000000000e-01</maxFalseAlarm>
    <weightTrimRate>9.4999999999999996e-01</weightTrimRate>
    <maxDepth>1</maxDepth>
    <maxWeakCount>100</maxWeakCount></stageParams>
  <featureParams>
    <maxCatCount>256</maxCatCount>
    <featSize>1</featSize></featureParams>
  <stageNum>13</stageNum>
  <stages>
    <!-- stage 0 -->
    <_>
      <maxWeakCount>7</maxWeakCount>
      <stageThreshold>-2.5179359912872314e+00</stageThreshold>
      <weakClassifiers>
        <_>
          <internalNodes>
            0 -1 49 -20562 -2049 2145384447 -513 -1 -262209 -1 -1</internalNodes>
          <leafValues>
            -8.7239855527877808e-01 3.9401084184646606e-01</leafValues></_>
        <_>
          <internalNodes>
            0 -1 64 -1 -65540 -2162690 -2293764 -196610 -983044 -196610
            -168756228</internalNodes>
          <leafValues>
            -7.8461557626724243e-01 3.6884054541587830e-01</leafValues></_>
        <_>
          <internalNodes>
            0 -1 149 -143191295 -33554561 -557057 -8388745 -34132172 -1
            -805310465 -4194369</internalNodes>
          <leafValues>
            -6.4380741119384766e-01 5.4134267568588257e-01</leafValues></_>
        <_>
          <internalNodes>
            0 -1 1 204386031 -1431389189 -1 -536873089 -940572673
            -268435457 -268440577 -8225</internalNodes>
          <leafValues>
            -5.5234330892562866e-01 5.7836586236953735e-01</leafValues></_>
        <_>
          <internalNodes>
            0 -1 164 -285217025 -1392508931 -16777219 -1929454211
            -301989889 -1929595909 -33581827 -1929576451</internalNodes>
          <leafValues>
            -5.9298169612884521e-01 4.8876082897186279e-01</leafValues></_>
        <_>
          <internalNodes>
            0 -1 43 -53251 1874820990 -2621441 -17472513 -5423500
            2013226820 -8618223 -9797808</internalNodes>
          <leafValues>
            -6.1267262697219849e-01 3.9548367261886597e-01</leafValues></_>
        <_>
          <internalNodes>
            0 -1 174 -583158512 -2099207 -313263522 -1077414947
            1606276000 -486671361 -206569631 -71827625</internalNodes>
          <leafValues>
            -4.9039426445960999e-01 4.5914077758789062e-01</leafValues></_></weakClassifiers></_>
    <!-- stage 1 -->
    <_>
      <maxWeakCount>9</maxWeakCount>
      <stageThreshold>-2.5617141723632812e+00</stageThreshold>
      <weakClassifiers>
        <_>
          <internalNodes>
            0 -1 148 -60075 -134218753 -46137345 -1025 -67109889 -1
            -1048577 -1</internalNodes>
          <leafValues>
            -8.1460416316986084e-01 3.8411316275596619e-01</leafValues></_>
        <_>
          <internalNodes>
            0 -1 3 -1901072385 -286331666 -1077937185 -3073 1421860863
            -14593 -805569537 -268439553</internalNodes>
          <leafValues>
            -6.7470443248748779e-01 4.6517780423164368e-01</leafValues></_>
        <_>
          <internalNodes>
            0 -1 51 -196612 -35651585 -37683236 -537067556 -131076
            -1249281 -11993092 -549060625</internalNodes>
          <leafValues>
            -7.4648052453994751e-01 4.0551182627677917e-01</leafValues></_>
        <_>
          <internalNodes>
            0 -1 192 -1342268417 -1359155462 -204801 -1392717826
            1879025919 -1493239553 -302002689 -1393623813</internalNodes>
          <leafValues>
            -6.1794304847717285e-01 3.9921939373016357e-01</leafValues></_>
        <_>
          <internalNodes>
            0 -1 150 -536873216 -134217859 2130706239 -1107312777
            -33583348 2147418111 -1011417793 -278529</internalNodes>
          <leafValues>
            -4.7551995515823364e-01 5.0300627946853638e-01</leafValues></_>
        <_>
          <internalNodes>
            0 -1 2 1760489454 -151883154 -2163201 -638225547 -881335073
            -1090519041 -1359222785 -570460673</internalNodes>
          <leafValues>
            -4.8472097516059875e-01 4.7598645091056824e-01</leafValues></_>
        <_>
          <internalNodes>
            0 -1 69 -134252545 -6463587 -648875041 -21497217 -15787020
            -13471179 -1343627 -9273488</internalNodes>
          <leafValues>
            -5.1625895500183105e-01 4.0892711281776428e-01</leafValues></_>
        <_>
          <internalNodes>
            0 -1 90 -129 -419532417 -111484929 -277172530 -555779204
            -83989507 1996389336 -84741154</internalNodes>
          <leafValues>
            -4.3941563367843628e-01 4.4430378079414368e-01</leafValues></_>
        <_>
          <internalNodes>
            0 -1 9 1257155118 972005095 337650990 130022854 -68158723
            -17198661 -235565313 1404042239</internalNodes>
          <leafValues>
            -6.3945513963699341e-01 3.0422121286392212e-01</leafValues></_></weakClassifiers></_>
    <!-- stage 2 -->
    <_>
      <maxWeakCount>10</maxWeakCount>
      <stageThreshold>-2.2961356639862061e+00</stageThreshold>
      <weakClassifiers>
        <_>
          <internalNodes>
            0 -1 98 -255 -2081 -33554433 -1 -1 -263173 -257 -65</internalNodes>
          <leafValues>
            -8.0704683065414429e-01 2.3364940285682678e-01</leafValues></_>
        <_>
          <internalNodes>
            0 -1 44 -1 -1025 -539099521 -7274753 -9076875 -8950923
            -9076875 -9339019</internalNodes>
          <leafValues>
            -7.2056663036346436e-01 2.8352537751197815e-01</leafValues></_>
        <_>
          <internalNodes>
            0 -1 7 -579929122 -36899714 -169031170 1172102620 -553652225
            -239081473 -101716225 1440611807</internalNodes>
          <leafValues>
            -6.7278194427490234e-01 3.6386495828628540e-01</leafValues></_>
        <_>
          <internalNodes>
            0 -1 180 -67109009 -142606341 -67108865 -67372033 -14592
            -554016769 -83890278 -67108929</internalNodes>
          <leafValues>
            -3.8108202815055847e-01 6.4722883701324463e-01</leafValues></_>
        <_>
          <internalNodes>
            0 -1 162 -2097153 -101385220 -44433420 -1146292296
            -570621955 1442379260 -168174340 1088289020</internalNodes>
          <leafValues>
            -5.1240611076354980e-01 4.1537761688232422e-01</leafValues></_>
        <_>
          <internalNodes>
            0 -1 5 -320147738 616097398 -578816003 23331398 1551293407
            -201860609 2111634367 2013255679</internalNodes>
          <leafValues>
            -6.6153860092163086e-01 2.9693534970283508e-01</leafValues></_>
        <_>
          <internalNodes>
            0 -1 67 -2424897 -17238277 -539295745 2080046074 -823066788
            1601502076 1599397886 2066938494</internalNodes>
          <leafValues>
            -5.0117546319961548e-01 3.7180507183074951e-01</leafValues></_>
        <_>
          <internalNodes>
            0 -1 95 -1467303759 -136340677 -1112310817 -33858183
            -1191182337 -537945621 -35690497 -301993481</internalNodes>
          <leafValues>
            -4.0547135472297668e-01 4.2287209630012512e-01</leafValues></_>
        <_>
          <internalNodes>
            0 -1 153 1577057648 -12584518 -548349036 -1153439815
            1937111812 -150608989 1837162256 388494967</internalNodes>
          <leafValues>
            -6.2176483869552612e-01 2.9493814706802368e-01</leafValues></_>
        <_>
          <internalNodes>
            0 -1 147 2145255295 218025960 -52429331 -2071988260
            1744381943 217382901 -553804324 217898236</internalNodes>
          <leafValues>
            -6.4774376153945923e-01 2.3954065144062042e-01</leafValues></_></weakClassifiers></_>
    <!-- stage 3 -->
    <_>
      <maxWeakCount>13</maxWeakCount>
      <stageThreshold>-2.6116909980773926e+00</stageThreshold>
      <weakClassifiers>
        <_>
          <internalNodes>
            0 -1 8 -823136257 -2105857 -8705 -33 -136314881 -1025
            -4194305 -1</internalNodes>
          <leafValues>
            -7.3852610588073730e-01 3.5376045107841492e-01</leafValues></_>
        <_>
          <internalNodes>
            0 -1 177 -8389793 -32769 -142868481 -12582913 -3584 -4227073
            -1029 -4241</internalNodes>
          <leafValues>
            -4.9343332648277283e-01 5.4619938135147095e-01</leafValues></_>
        <_>
          <internalNodes>
            0 -1 43 -2146439 -50315 -37879809 -37003 -1036784 -33995
            -42631376 -8947951</internalNodes>
          <leafValues>
            -6.0504996776580811e-01 3.3885526657104492e-01</leafValues></_>
        <_>
          <internalNodes>
            0 -1 16 -439357457 -422648918 -2436 -9504018 1324346111
            -403702113 -503325249 -942671885</internalNodes>
          <leafValues>
            -3.9833927154541016e-01 5.0048005580902100e-01</leafValues></_>
        <_>
          <internalNodes>
            0 -1 99 1954018624 -33851403 770176332 -1574017 2070419406
            -32777 6640910 2137522175</internalNodes>
          <leafValues>
            -5.9863620996475220e-01 3.2038956880569458e-01</leafValues></_>
        <_>
          <internalNodes>
            0 -1 41 -852001 -18022406 -547561492 -274661384 -485057066
            1869641588 -752845188 2133881458</internalNodes>
          <leafValues>
            -6.5186887979507446e-01 2.7713894844055176e-01</leafValues></_>
        <_>
          <internalNodes>
            0 -1 116 -1599078384 -67158081 626641717 -1108372041
            -403360769 -67389061 1616258795 -298656953</internalNodes>
          <leafValues>
            -5.5687177181243896e-01 3.0508342385292053e-01</leafValues></_>
        <_>
          <internalNodes>
            0 -1 164 -270534657 -1392587779 -15212547 15596669
            -287704129 -1929842439 1305466105 -1929381121</internalNodes>
          <leafValues>
            -4.7899872064590454e-01 3.4754779934883118e-01</leafValues></_>
        <_>
          <internalNodes>
            0 -1 156 -277479560 -442502 -140452900 -142213156 -9306124
            1806480225 2133916568 661913463</internalNodes>
          <leafValues>
            -5.3698748350143433e-01 3.1737548112869263e-01</leafValues></_>
        <_>
          <internalNodes>
            0 -1 11 1305473023 -391716152 -86278433 -36725837 1490547647
            -1342210071 -1622529 -303057537</internalNodes>
          <leafValues>
            -4.0907815098762512e-01 3.9884850382804871e-01</leafValues></_>
        <_>
          <internalNodes>
            0 -1 35 -25182243 -287377409 -569311490 2094987934
            -805352346 1451043455 -1041273092 -185076869</internalNodes>
          <leafValues>
            -4.9177071452140808e-01 3.1901752948760986e-01</leafValues></_>
        <_>
          <internalNodes>
            0 -1 123 2127495093 -555827332 757063679 1069463516
            1597569524 1534373556 31253980 1069423800</internalNodes>
          <leafValues>
            -4.7753638029098511e-01 3.2412096858024597e-01</leafValues></_>
        <_>
          <internalNodes>
            0 -1 48 1902439822 1449247231 1171148238 1025762086
            -167775235 -956565273 -409993217 1323695069</internalNodes>
          <leafValues>
            -5.0648081302642822e-01 2.9124280810356140e-01</leafValues></_></weakClassifiers></_>
    <!-- stage 4 -->
    <_>
      <maxWeakCount>14</maxWeakCount>
      <stageThreshold>-2.3063743114471436e+00</stageThreshold>
      <weakClassifiers>
        <_>
          <internalNodes>
            0 -1 125 -2097313 -1 -2621441 -8193 -67108897 -263937
            -4194305 -1</internalNodes>
          <leafValues>
            -7.0365190505981445e-01 3.6454850435256958e-01</leafValues></_>
        <_>
          <internalNodes>
            0 -1 84 -1565870149 -70797 533592031 -536871067 -9281
            -1073742936 -3687425 -18691</internalNodes>
          <leafValues>
            -5.2326685190200806e-01 3.8147482275962830e-01</leafValues></_>
        <_>
          <internalNodes>
            0 -1 174 -12585200 -67108961 -5242930 -1839105 2073015072
            -336598419 1998846958 -214436005</internalNodes>
          <leafValues>
            -4.6011656522750854e-01 3.8029080629348755e-01</leafValues></_>
        <_>
          <internalNodes>
            0 -1 192 -1375736833 785312498 -1084377089 -1929451778
            -67179265 -2030110519 -1359099393 -1929446150</internalNodes>
          <leafValues>
            -5.8772498369216919e-01 3.1335476040840149e-01</leafValues></_>
        <_>
          <internalNodes>
            0 -1 28 -4385 -455803202 -16978706 -18416914 1174405087
            -721944577 2147448822 -134219786</internalNodes>
          <leafValues>
            -3.6783963441848755e-01 4.7342026233673096e-01</leafValues></_>
        <_>
          <internalNodes>
            0 -1 70 2080342015 -2214977 -6619657 1529380863 -176784395
            -143363211 1931770740 2133882743</internalNodes>
          <leafValues>
            -5.8677816390991211e-01 2.5948444008827209e-01</leafValues></_>
        <_>
          <internalNodes>
            0 -1 61 -10555410 -138479620 -687409188 -8519716 -98582660
            1028979644 -73746 1499315980</internalNodes>
          <leafValues>
            -5.2087992429733276e-01 3.2097199559211731e-01</leafValues></_>
        <_>
          <internalNodes>
            0 -1 50 -134497370 -69206273 565600364 -571477121 -604111114
            -2622999 2013257454 -4194593</internalNodes>
          <leafValues>
            -4.7936904430389404e-01 2.9960548877716064e-01</leafValues></_>
        <_>
          <internalNodes>
            0 -1 65 -268435473 -278994977 -614531090 -2162722
            -1929593892 1148489584 -855712070 1995963230</internalNodes>
          <leafValues>
            -4.2952015995979309e-01 3.2857820391654968e-01</leafValues></_>
        <_>
          <internalNodes>
            0 -1 6 -5701826 -1174624898 -23131681 1231898127 -570950313
            -67134757 -249106 1577057150</internalNodes>
          <leafValues>
            -4.4733002781867981e-01 2.9730138182640076e-01</leafValues></_>
        <_>
          <internalNodes>
            0 -1 130 -33029 -167382414 -4228120 -9241032 -81985732
            2147023856 -4464740 1802502074</internalNodes>
          <leafValues>
            -3.5085785388946533e-01 3.6634469032287598e-01</leafValues></_>
        <_>
          <internalNodes>
            0 -1 155 -562562240 2065694175 1049869304 1639315934
            -1308888320 -67122846 -1443589784 45547326</internalNodes>
          <leafValues>
            -5.5543875694274902e-01 2.2827242314815521e-01</leafValues></_>
        <_>
          <internalNodes>
            0 -1 109 -2113889424 -556342398 -44466305 -1619777314
            -342032645 -67122305 -8929345 -1905614979</internalNodes>
          <leafValues>
            -4.4346594810485840e-01 3.0081516504287720e-01</leafValues></_>
        <_>
          <internalNodes>
            0 -1 139 -1109397635 344639484 -547403307 -1533649896
            -151671303 14256380 1962466812 217438456</internalNodes>
          <leafValues>
            -5.6664824485778809e-01 2.2155885398387909e-01</leafValues></_></weakClassifiers></_>
    <!-- stage 5 -->
    <_>
      <maxWeakCount>15</maxWeakCount>
      <stageThreshold>-2.3406291007995605e+00</stageThreshold>
      <weakClassifiers>
        <_>
          <internalNodes>
            0 -1 165 -8431265 -33793 -2099329 -2049 -10770245 -3247105
            -2359297 -1025</internalNodes>
          <leafValues>
            -7.5774604082107544e-01 6.0075685381889343e-02</leafValues></_>
        <_>
          <internalNodes>
            0 -1 56 -407899153 -353720438 2144206843 -2637 -67108865
            -608187969 -1051649 -2313</internalNodes>
          <leafValues>
            -4.6065291762351990e-01 4.2884269356727600e-01</leafValues></_>
        <_>
          <internalNodes>
            0 -1 108 2128543743 -67618339 -328195 1005592572 -1877688323
            1004598271 1962290168 1001535160</internalNodes>
          <leafValues>
            -5.1700115203857422e-01 3.1777369976043701e-01</leafValues></_>
        <_>
          <internalNodes>
            0 -1 69 -67405837 -6341761 -808723457 -4720001 -25682059
            -1083032971 -76579980 -13402255</internalNodes>
          <leafValues>
            -5.2891039848327637e-01 2.8700694441795349e-01</leafValues></_>
        <_>
          <internalNodes>
            0 -1 179 -33817604 2138960371 -1008020532 -211814003
            -163972100 -374883777 -7283716 1089991551</internalNodes>
          <leafValues>
            -4.2288663983345032e-01 3.7910717725753784e-01</leafValues></_>
        <_>
          <internalNodes>
            0 -1 97 -486923744 -4735041 -2054135499 532613245 -272895233
            -23237057 -1112572673 -303321353</internalNodes>
          <leafValues>
            -5.1427268981933594e-01 2.7901557087898254e-01</leafValues></_>
        <_>
          <internalNodes>
            0 -1 20 -924913974 -228266258 -539710242 -555964860
            716888543 -789605445 -1778422273 1693946871</internalNodes>
          <leafValues>
            -4.3561011552810669e-01 3.3149886131286621e-01</leafValues></_>
        <_>
          <internalNodes>
            0 -1 171 -1411448897 -1393756980 -537403393 -1393754884
            -1096819725 -1929592653 -1930502659 -1996685825</internalNodes>
          <leafValues>
            -5.4013091325759888e-01 2.3246163129806519e-01</leafValues></_>
        <_>
          <internalNodes>
            0 -1 18 1811937030 -561184788 -1429283090 98877454
            1943828926 227451807 1523339007 1082083471</internalNodes>
          <leafValues>
            -5.7263016700744629e-01 2.1677532792091370e-01</leafValues></_>
        <_>
          <internalNodes>
            0 -1 154 -269484269 2103279487 2006940606 998627659 -8913152
            -54661645 -889717044 -738722981</internalNodes>
          <leafValues>
            -4.2193651199340820e-01 2.9038754105567932e-01</leafValues></_>
        <_>
          <internalNodes>
            0 -1 95 -1600472904 -235237264 -1245200449 1610305617
            -1461896193 -1090810913 1760780670 -1661110907</internalNodes>
          <leafValues>
            -4.5642805099487305e-01 2.6993754506111145e-01</leafValues></_>
        <_>
          <internalNodes>
            0 -1 106 -71843908 -1077611651 -583345504 -14290406
            -1275789468 521451828 1275002872 568719347</internalNodes>
          <leafValues>
            -5.0249040126800537e-01 2.4862979352474213e-01</leafValues></_>
        <_>
          <internalNodes>
            0 -1 89 -268478465 534673791 -644163585 -606951682 -86212740
            1459364717 2147384180 -67444354</internalNodes>
          <leafValues>
            -3.8558450341224670e-01 2.9352700710296631e-01</leafValues></_>
        <_>
          <internalNodes>
            0 -1 79 -690554185 -1275309060 -1751200284 -1248935968
            -740435308 1362105008 -556474760 837268206</internalNodes>
          <leafValues>
            -4.1632786393165588e-01 2.7049672603607178e-01</leafValues></_>
        <_>
          <internalNodes>
            0 -1 32 -402849861 -1066345476 559317438 -1074465804
            1949627117 1984180253 -74416592 1697675060</internalNodes>
          <leafValues>
            -6.5819096565246582e-01 1.5883024036884308e-01</leafValues></_></weakClassifiers></_>
    <!-- stage 6 -->
    <_>
      <maxWeakCount>18</maxWeakCount>
      <stageThreshold>-2.4405510425567627e+00</stageThreshold>
      <weakClassifiers>
        <_>
          <internalNodes>
            0 -1 140 -161 -134217729 -2359297 -1025 -8769 -1285 -1025
            -1025</internalNodes>
          <leafValues>
            -6.9325327873229980e-01 1.9079436361789703e-01</leafValues></_>
        <_>
          <internalNodes>
            0 -1 1 -361824273 -1397794 -35651585 -2621597 -277872641
            -1025 -138413313 -2049</internalNodes>
          <leafValues>
            -4.1128841042518616e-01 4.0445643663406372e-01</leafValues></_>
        <_>
          <internalNodes>
            0 -1 44 -33554433 -35793417 -86179873 -1087116289 -9077965
            -8948971 -17531019 -8945805</internalNodes>
          <leafValues>
            -4.5647591352462769e-01 3.2341945171356201e-01</leafValues></_>
        <_>
          <internalNodes>
            0 -1 180 -67109089 -142737413 -1140916226 -604372993
            -134232576 -17048065 -125829382 -201588962</internalNodes>
          <leafValues>
            -3.3630520105361938e-01 3.9522191882133484e-01</leafValues></_>
        <_>
          <internalNodes>
            0 -1 191 -67119105 -1392840515 1975241149 -324250370
            -2063794437 -1944272193 -864161027 -855840532</internalNodes>
          <leafValues>
            -4.8479837179183960e-01 2.7863806486129761e-01</leafValues></_>
        <_>
          <internalNodes>
            0 -1 38 -589366405 -287375362 -588324898 -1342636066
            1103420876 1087691140 1623487098 2002154074</internalNodes>
          <leafValues>
            -5.2653193473815918e-01 2.6109528541564941e-01</leafValues></_>
        <_>
          <internalNodes>
            0 -1 12 -570622178 -590034354 1150250367 1305300188
            -1979794437 -167788546 -839713609 1375720959</internalNodes>
          <leafValues>
            -4.1385999321937561e-01 3.0314749479293823e-01</leafValues></_>
        <_>
          <internalNodes>
            0 -1 186 -13 1722941438 -8922832 939458522 -69214987
            2010380789 -68157968 -251658254</internalNodes>
          <leafValues>
            -3.5592713952064514e-01 3.3311912417411804e-01</leafValues></_>
        <_>
          <internalNodes>
            0 -1 96 -2136439918 -101206354 -47374539 -1385073311
            -1545732097 -19217670 -978380033 -1343770657</internalNodes>
          <leafValues>
            -3.9482346177101135e-01 3.0729785561561584e-01</leafValues></_>
        <_>
          <internalNodes>
            0 -1 133 -538973323 -27331724 1439924168 -975904068
            -57674371 1142202872 -121658132 82801854</internalNodes>
          <leafValues>
            -4.6417087316513062e-01 2.3174156248569489e-01</leafValues></_>
        <_>
          <internalNodes>
            0 -1 161 -549020 1598602116 -577380368 268369780 901101380
            288634809 804089340 25424316</internalNodes>
          <leafValues>
            -5.4895251989364624e-01 2.0041066408157349e-01</leafValues></_>
        <_>
          <internalNodes>
            0 -1 23 -318898177 1070377950 -355535188 1065283126
            1979575263 23051175 1560251135 687203791</internalNodes>
          <leafValues>
            -3.7312027812004089e-01 2.7651092410087585e-01</leafValues></_>
        <_>
          <internalNodes>
            0 -1 14 1859041199 -1135774 -74899 -740436680 -372916241
            -4327425 -318898434 -805878922</internalNodes>
          <leafValues>
            -2.7758815884590149e-01 3.7275299429893494e-01</leafValues></_>
        <_>
          <internalNodes>
            0 -1 192 -1394699521 -1629694502 -1858019874 -1898132484
            1777338871 1156245949 -1661090309 -1963017989</internalNodes>
          <leafValues>
            -4.3128338456153870e-01 2.2833463549613953e-01</leafValues></_>
        <_>
          <internalNodes>
            0 -1 80 1995957871 -1375321122 -97114902 -16877586
            2078240580 1182579030 1996112940 1937236602</internalNodes>
          <leafValues>
            -5.1573884487152100e-01 1.9401746988296509e-01</leafValues></_>
        <_>
          <internalNodes>
            0 -1 172 1949303105 -278923297 -1745527971 -1373938729
            2009724914 1006617327 -15107073 -1976356262</internalNodes>
          <leafValues>
            -4.9682945013046265e-01 2.0280911028385162e-01</leafValues></_>
        <_>
          <internalNodes>
            0 -1 123 2127460861 534573148 997318653 832454260 688750453
            1910815732 905228764 1040065788</internalNodes>
          <leafValues>
            -4.6581879258155823e-01 2.1672569215297699e-01</leafValues></_>
        <_>
          <internalNodes>
            0 -1 127 -61095942 -287591075 -217001184 -1153830529
            -606749908 1601602559 1063460104 1965238043</internalNodes>
          <leafValues>
            -4.3645352125167847e-01 2.3103156685829163e-01</leafValues></_></weakClassifiers></_>
    <!-- stage 7 -->
    <_>
      <maxWeakCount>20</maxWeakCount>
      <stageThreshold>-2.6316158771514893e+00</stageThreshold>
      <weakClassifiers>
        <_>
          <internalNodes>
            0 -1 47 -292552705 -537463302 -2097185 -6586945 -167775749
            -5713 -4456513 -4097</internalNodes>
          <leafValues>
            -7.0433849096298218e-01 5.2529722452163696e-03</leafValues></_>
        <_>
          <internalNodes>
            0 -1 19 -402657281 -291050258 -3147790 -168892174 -554697745
            -1578633049 1912468479 -134217737</internalNodes>
          <leafValues>
            -4.4952055811882019e-01 3.2535776495933533e-01</leafValues></_>
        <_>
          <internalNodes>
            0 -1 43 -75662345 -4753538 -78152195 -164993 -8947152
            -205686252 -77562095 -3441292</internalNodes>
          <leafValues>
            -5.2426171302795410e-01 2.7175599336624146e-01</leafValues></_>
        <_>
          <internalNodes>
            0 -1 151 -77857009 2139094911 2144730079 -2360097 -436220160
            -16782593 -41947906 -5243009</internalNodes>
          <leafValues>
            -4.3101450800895691e-01 3.2365348935127258e-01</leafValues></_>
        <_>
          <internalNodes>
            0 -1 164 -2049 -50528260 -285212679 -838992387 -318898241
            -1929594885 -570450177 -855638273</internalNodes>
          <leafValues>
            -2.4541899561882019e-01 4.6650737524032593e-01</leafValues></_>
        <_>
          <internalNodes>
            0 -1 176 1497859856 2143813237 -640158948 -74645851
            -157440072 -6686801 -1397641349 624164658</internalNodes>
          <leafValues>
            -4.7216823697090149e-01 2.6034003496170044e-01</leafValues></_>
        <_>
          <internalNodes>
            0 -1 55 -590552322 553712874 -313768762 631554052 1539308526
            -1158696325 -57771013 1106769279</internalNodes>
          <leafValues>
            -5.5428475141525269e-01 1.9075283408164978e-01</leafValues></_>
        <_>
          <internalNodes>
            0 -1 92 -889262369 -84994 2091311487 1937389542 -953255436
            871682553 -637923076 2138727418</internalNodes>
          <leafValues>
            -3.7934586405754089e-01 2.9069662094116211e-01</leafValues></_>
        <_>
          <internalNodes>
            0 -1 134 -39919627 -1099123460 -16170659 933007460 661173756
            1147462065 892025052 234818812</internalNodes>
          <leafValues>
            -4.1572174429893494e-01 2.5558397173881531e-01</leafValues></_>
        <_>
          <internalNodes>
            0 -1 188 -12599301 1072693234 -1342455824 -78647304
            -403195915 1174271933 -1612781584 -771756038</internalNodes>
          <leafValues>
            -2.7885064482688904e-01 3.7680172920227051e-01</leafValues></_>
        <_>
          <internalNodes>
            0 -1 33 -136384690 -992023330 -992190786 2133259182
            -687931812 15991063 98189822 1698514238</internalNodes>
          <leafValues>
            -4.7377839684486389e-01 2.2758233547210693e-01</leafValues></_>
        <_>
          <internalNodes>
            0 -1 46 145268634 -539871547 -128723530 -103838955
            1580727791 -263921 -589341089 -943736845</internalNodes>
          <leafValues>
            -4.4507804512977600e-01 2.1421423554420471e-01</leafValues></_>
        <_>
          <internalNodes>
            0 -1 101 2143286236 -228788257 -131860948 2133311423
            1396178828 1538905782 69535240 1896249151</internalNodes>
          <leafValues>
            -4.5364323258399963e-01 2.4261398613452911e-01</leafValues></_>
        <_>
          <internalNodes>
            0 -1 59 2126471034 2131293146 2134794226 1877808798
            2035104764 78905654 1608691390 33547071</internalNodes>
          <leafValues>
            -3.7541085481643677e-01 2.6623347401618958e-01</leafValues></_>
        <_>
          <internalNodes>
            0 -1 148 -687996848 -67724525 -150349861 -543430401
            -254615879 -19707717 -125894662 -1167847890</internalNodes>
          <leafValues>
            -3.8045215606689453e-01 2.6691833138465881e-01</leafValues></_>
        <_>
          <internalNodes>
            0 -1 37 -153112577 -16777393 -666186066 -23529540 2128277982
            544502488 -874645192 -688298</internalNodes>
          <leafValues>
            -3.2134288549423218e-01 3.1907209753990173e-01</leafValues></_>
        <_>
          <internalNodes>
            0 -1 105 -16777262 -329925928 -1018005624 -1089078572
            -2803376 2144463796 -82519270 1363253010</internalNodes>
          <leafValues>
            -4.6113705635070801e-01 2.1499654650688171e-01</leafValues></_>
        <_>
          <internalNodes>
            0 -1 170 -538985477 -1375541272 -10685539 -1912669452
            299661692 80790388 -596643332 -1933774628</internalNodes>
          <leafValues>
            -4.7027429938316345e-01 1.9817930459976196e-01</leafValues></_>
        <_>
          <internalNodes>
            0 -1 45 -1157927937 -757665186 -108872714 -112656462
            866484220 1198667830 -214548924 2133029751</internalNodes>
          <leafValues>
            -4.6485295891761780e-01 1.8475794792175293e-01</leafValues></_>
        <_>
          <internalNodes>
            0 -1 29 -1359428674 1719466941 276218594 486323188 394062700
            2119434436 1909730060 1298427696</internalNodes>
          <leafValues>
            -7.4312514066696167e-01 1.1282887309789658e-01</leafValues></_></weakClassifiers></_>
    <!-- stage 8 -->
    <_>
      <maxWeakCount>21</maxWeakCount>
      <stageThreshold>-2.3889262676239014e+00</stageThreshold>
      <weakClassifiers>
        <_>
          <internalNodes>
            0 -1 136 -8433067 -134220289 1574435327 -1 -83974980
            -69207365 -51183681 -71304257</internalNodes>
          <leafValues>
            -7.4672567844390869e-01 -1.6366875171661377e-01</leafValues></_>
        <_>
          <internalNodes>
            0 -1 16 -370151441 -863837522 1231001553 -137364691 -3146753
            -1480592709 -118504963 -673188353</internalNodes>
          <leafValues>
            -4.4417667388916016e-01 2.7338412404060364e-01</leafValues></_>
        <_>
          <internalNodes>
            0 -1 164 -18876421 754503134 -425725291 -1933774595
            -290555973 83628473 -302066437 -1929511169</internalNodes>
          <leafValues>
            -4.9590235948562622e-01 2.2826382517814636e-01</leafValues></_>
        <_>
          <internalNodes>
            0 -1 182 -545522784 -14844939 -156966220 -1114152077
            -821718096 2004084971 1033959200 43512366</internalNodes>
          <leafValues>
            -4.2504894733428955e-01 2.8486329317092896e-01</leafValues></_>
        <_>
          <internalNodes>
            0 -1 69 -311307 -7065091 -239675403 -4720097 -93438128
            -2924940 -11567247 -9208976</internalNodes>
          <leafValues>
            -5.1999753713607788e-01 1.8687717616558075e-01</leafValues></_>
        <_>
          <internalNodes>
            0 -1 53 1221517263 -362485118 1729556467 -570728032
            2147220927 -4588569 -542689889 -402693690</internalNodes>
          <leafValues>
            -3.9029178023338318e-01 2.8502631187438965e-01</leafValues></_>
        <_>
          <internalNodes>
            0 -1 94 1358329335 1542779900 -808550436 1005616048
            -693961004 1884338420 1352274680 2146464186</internalNodes>
          <leafValues>
            -4.2833366990089417e-01 2.4600230157375336e-01</leafValues></_>
        <_>
          <internalNodes>
            0 -1 126 -981474560 -638191243 -1621114985 -279059473
            -335609216 -12715525 175549838 -17553</internalNodes>
          <leafValues>
            -4.4423156976699829e-01 2.1587696671485901e-01</leafValues></_>
        <_>
          <internalNodes>
            0 -1 31 -16777537 -17531073 -152638834 -117506146 1476382191
            359137279 368965118 -237504518</internalNodes>
          <leafValues>
            -2.7703198790550232e-01 3.3986771106719971e-01</leafValues></_>
        <_>
          <internalNodes>
            0 -1 158 -6291464 -82660980 -787488836 1064337324 2136332108
            2047075104 -1110474824 50855734</internalNodes>
          <leafValues>
            -4.0518194437026978e-01 2.3574452102184296e-01</leafValues></_>
        <_>
          <internalNodes>
            0 -1 84 -2135762512 -556365262 501080063 -585548187
            -101241413 -806393096 -991324421 -839927043</internalNodes>
          <leafValues>
            -3.7692466378211975e-01 2.5637188553810120e-01</leafValues></_>
        <_>
          <internalNodes>
            0 -1 107 -673742953 -1838149634 -787031081 -1187596068
            -534123340 1616657652 1365035132 2012167038</internalNodes>
          <leafValues>
            -3.3818352222442627e-01 2.8736636042594910e-01</leafValues></_>
        <_>
          <internalNodes>
            0 -1 40 -1631911971 -426713128 -1138823364 1800467964
            627371476 2071419188 1928608604 1265663346</internalNodes>
          <leafValues>
            -5.8332020044326782e-01 1.5522812306880951e-01</leafValues></_>
        <_>
          <internalNodes>
            0 -1 103 -541605924 -73673409 766425604 -1157111929
            1574054792 2071841522 -532201716 348616492</internalNodes>
          <leafValues>
            -4.4795727729797363e-01 1.8769526481628418e-01</leafValues></_>
        <_>
          <internalNodes>
            0 -1 18 -207949138 1604122620 -1907961106 163958318
            1594400749 2133765119 2093772543 1224678159</internalNodes>
          <leafValues>
            -4.1111269593238831e-01 2.0277558267116547e-01</leafValues></_>
        <_>
          <internalNodes>
            0 -1 175 794362368 -442835977 1408150014 -1215571334
            -75784276 -71059029 763034750 55931454</internalNodes>
          <leafValues>
            -4.9527901411056519e-01 1.6554291546344757e-01</leafValues></_>
        <_>
          <internalNodes>
            0 -1 102 -680534017 1594997982 -13836874 963948030 434217910
            -1764354078 2019969512 -919294216</internalNodes>
          <leafValues>
            -2.9349562525749207e-01 2.8078803420066833e-01</leafValues></_>
        <_>
          <internalNodes>
            0 -1 88 -88081 1197235007 -1825352613 925279056 854227692
            1116996400 180108152 892810046</internalNodes>
          <leafValues>
            -3.5437273979187012e-01 2.2909960150718689e-01</leafValues></_>
        <_>
          <internalNodes>
            0 -1 82 1851287549 -285804112 436436158 1731255349
            1623487444 1952478071 -82829448 2067953440</internalNodes>
          <leafValues>
            -5.1168602705001831e-01 1.6525018215179443e-01</leafValues></_>
        <_>
          <internalNodes>
            0 -1 143 2144038903 623153532 -1109438668 947191224
            -271327388 117221936 2076005972 1165488628</internalNodes>
          <leafValues>
            -6.0326254367828369e-01 1.2561181187629700e-01</leafValues></_>
        <_>
          <internalNodes>
            0 -1 52 142781754 -213505664 -1099707298 -42107819
            -1893256209 -611610419 689915227 1710686589</internalNodes>
          <leafValues>
            -4.6187359094619751e-01 1.6527882218360901e-01</leafValues></_></weakClassifiers></_>
    <!-- stage 9 -->
    <_>
      <maxWeakCount>25</maxWeakCount>
      <stageThreshold>-2.4804816246032715e+00</stageThreshold>
      <weakClassifiers>
        <_>
          <internalNodes>
            0 -1 73 -67919126 -69739297 1102127611 -1589249 -2228225
            -789761 -817899009 -8438865</internalNodes>
          <leafValues>
            -8.0421483516693115e-01 -2.6564884185791016e-01</leafValues></_>
        <_>
          <internalNodes>
            0 -1 192 -1392588033 215922430 -446899745 -1392967938
            -1396918021 -1596140359 -302658053 -1997603585</internalNodes>
          <leafValues>
            -6.4687556028366089e-01 8.7786011397838593e-02</leafValues></_>
        <_>
          <internalNodes>
            0 -1 180 -211288225 -136317957 496189439 -1814660609
            -201332224 -336619265 -340078918 -218368001</internalNodes>
          <leafValues>
            -3.4235376119613647e-01 3.0847409367561340e-01</leafValues></_>
        <_>
          <internalNodes>
            0 -1 4 -362355986 -83975642 1038089983 737625106 1735782751
            -272002 -151526401 2138569167</internalNodes>
          <leafValues>
            -4.1582551598548889e-01 2.5923132896423340e-01</leafValues></_>
        <_>
          <internalNodes>
            0 -1 42 -67641347 -576149 -246943303 -78590091 -252232192
            -80465328 -953520 -13534432</internalNodes>
          <leafValues>
            -4.5267498493194580e-01 2.3036400973796844e-01</leafValues></_>
        <_>
          <internalNodes>
            0 -1 15 -993072434 1687987950 1641793931 -704687916
            -119538689 1509929867 1658715134 1912431991</internalNodes>
          <leafValues>
            -3.8256198167800903e-01 2.6776960492134094e-01</leafValues></_>
        <_>
          <internalNodes>
            0 -1 163 -1782582273 -1198984708 -955534913 -1143015180
            184547253 198275581 1389205821 -1073742344</internalNodes>
          <leafValues>
            -3.0275952816009521e-01 3.0701127648353577e-01</leafValues></_>
        <_>
          <internalNodes>
            0 -1 36 1542384895 -927428867 -263268900 670759854 8177900
            1154759519 460600990 2134343518</internalNodes>
          <leafValues>
            -3.1127411127090454e-01 2.7500271797180176e-01</leafValues></_>
        <_>
          <internalNodes>
            0 -1 124 -755105712 -1210172513 596160511 -1090700913
            -174881544 -1204129542 -1068185876 -274515137</internalNodes>
          <leafValues>
            -3.6281555891036987e-01 2.4666427075862885e-01</leafValues></_>
        <_>
          <internalNodes>
            0 -1 128 -304087120 2070090791 -46489824 996210288
            1527185252 1932796788 -33697972 2548022</internalNodes>
          <leafValues>
            -5.3603094816207886e-01 1.5053144097328186e-01</leafValues></_>
        <_>
          <internalNodes>
            0 -1 115 -990874755 2102678013 -585837089 1060273149
            2128100724 972432345 -1142415748 -1078315078</internalNodes>
          <leafValues>
            -3.4444832801818848e-01 2.3375971615314484e-01</leafValues></_>
        <_>
          <internalNodes>
            0 -1 58 -170983426 72097734 -571946802 1173411076 -740049413
            496177343 -18320419 1152873223</internalNodes>
          <leafValues>
            -4.4060125946998596e-01 1.8110983073711395e-01</leafValues></_>
        <_>
          <internalNodes>
            0 -1 184 -135807183 2110984543 -1021189708 1065046014
            -1351251276 -470203737 2077734844 1895300907</internalNodes>
          <leafValues>
            -3.1685277819633484e-01 2.4542380869388580e-01</leafValues></_>
        <_>
          <internalNodes>
            0 -1 21 -72198 -538127778 1281155038 -1915824082 -859902465
            1086105567 1486101876 1114987103</internalNodes>
          <leafValues>
            -4.0987581014633179e-01 1.9571231305599213e-01</leafValues></_>
        <_>
          <internalNodes>
            0 -1 114 -553668611 989757311 -65545 590271454 268220285
            1035319100 805199292 2147465210</internalNodes>
          <leafValues>
            -2.7686619758605957e-01 2.9248985648155212e-01</leafValues></_>
        <_>
          <internalNodes>
            0 -1 147 2105409401 -2079392546 2121129164 -1937968904
            -943970819 83210161 1615698620 218037500</internalNodes>
          <leafValues>
            -5.3600871562957764e-01 1.4619398117065430e-01</leafValues></_>
        <_>
          <internalNodes>
            0 -1 120 -820151497 1574834086 -1726759964 1507368276
            1729362772 873767856 2145254132 1000839162</internalNodes>
          <leafValues>
            -3.3080279827117920e-01 2.3627823591232300e-01</leafValues></_>
        <_>
          <internalNodes>
            0 -1 70 -253924355 -388033049 -36725162 1000553962
            -1018069003 299129685 2125888352 -9208969</internalNodes>
          <leafValues>
            -3.2408642768859863e-01 2.5029921531677246e-01</leafValues></_>
        <_>
          <internalNodes>
            0 -1 14 1145747211 -6119326 -171257507 -1678388212
            -2117821457 -74600033 224002045 1340037998</internalNodes>
          <leafValues>
            -3.1523770093917847e-01 2.6726248860359192e-01</leafValues></_>
        <_>
          <internalNodes>
            0 -1 169 -269510785 958555080 -548283944 -5259816 1373632341
            252963261 -168837636 -813702916</internalNodes>
          <leafValues>
            -2.8126606345176697e-01 2.8157901763916016e-01</leafValues></_>
        <_>
          <internalNodes>
            0 -1 167 1998325760 2084008553 -577504769 -338796204
            -1517446146 -822086961 -1142131985 611268955</internalNodes>
          <leafValues>
            -5.4566353559494019e-01 1.5294530987739563e-01</leafValues></_>
        <_>
          <internalNodes>
            0 -1 63 -1033971842 -181869732 -2124676834 -832775300
            -340886596 -546000330 -1916480036 1207931262</internalNodes>
          <leafValues>
            -3.9833030104637146e-01 2.1953876316547394e-01</leafValues></_>
        <_>
          <internalNodes>
            0 -1 86 -50991137 400162804 -1599604148 -1121345732
            1599991736 366362432 1601926511 1340995374</internalNodes>
          <leafValues>
            -2.5183105468750000e-01 3.3232134580612183e-01</leafValues></_>
        <_>
          <internalNodes>
            0 -1 119 -849349665 -1959639684 1601501108 988994460
            1743667020 1108442044 -924012180 1961949788</internalNodes>
          <leafValues>
            -4.9136659502983093e-01 1.8229454755783081e-01</leafValues></_>
        <_>
          <internalNodes>
            0 -1 27 -807475459 1726917598 1812875772 1873738312
            1105419191 9023611 -725723940 1635770396</internalNodes>
          <leafValues>
            -4.5769497752189636e-01 1.9285918772220612e-01</leafValues></_></weakClassifiers></_>
    <!-- stage 10 -->
    <_>
      <maxWeakCount>24</maxWeakCount>
      <stageThreshold>-2.1696860790252686e+00</stageThreshold>
      <weakClassifiers>
        <_>
          <internalNodes>
            0 -1 72 -393544197 -257243254 -203694113 -2918533 -204996609
            -40769 -3936773 -268435617</internalNodes>
          <leafValues>
            -7.0835810899734497e-01 -1.7360405623912811e-01</leafValues></_>
        <_>
          <internalNodes>
            0 -1 171 -16846341 -1394821380 -677781539 -1929580036
            -52232197 -1929600359 -842212865 -1929459457</internalNodes>
          <leafValues>
            -5.4102402925491333e-01 1.3883279263973236e-01</leafValues></_>
        <_>
          <internalNodes>
            0 -1 98 -35072 -147720193 -1342835265 -671237953 -123749409
            -1415798577 -1786665266 -269520369</internalNodes>
          <leafValues>
            -4.6665930747985840e-01 2.0524455606937408e-01</leafValues></_>
        <_>
          <internalNodes>
            0 -1 44 -14688257 -36185253 -1731929353 -205918465 -76447755
            -143164043 -17498250 -9179275</internalNodes>
          <leafValues>
            -3.2196000218391418e-01 3.1284424662590027e-01</leafValues></_>
        <_>
          <internalNodes>
            0 -1 187 -1 1005305714 -1078493280 -1410531528 1736366069
            933756916 -276824592 -234884950</internalNodes>
          <leafValues>
            -2.7965357899665833e-01 3.3328285813331604e-01</leafValues></_>
        <_>
          <internalNodes>
            0 -1 74 -2138920278 -116748536 1066848709 -576472591
            856669439 -105176909 1092706303 -941665097</internalNodes>
          <leafValues>
            -3.4876888990402222e-01 2.6371315121650696e-01</leafValues></_>
        <_>
          <internalNodes>
            0 -1 152 -572784680 2143238878 1281022974 1063105404
            -302113400 -537714310 673488506 561249151</internalNodes>
          <leafValues>
            -3.7180900573730469e-01 2.3499971628189087e-01</leafValues></_>
        <_>
          <internalNodes>
            0 -1 131 -75 -655500 -720920 -143163532 2138832744
            2003884020 -542310404 2010120059</internalNodes>
          <leafValues>
            -2.7512088418006897e-01 3.1888768076896667e-01</leafValues></_>
        <_>
          <internalNodes>
            0 -1 83 1431830516 1525698838 -157630498 1945765874
            -1080692748 -1069492240 1941451512 872141022</internalNodes>
          <leafValues>
            -3.6078938841819763e-01 2.1083238720893860e-01</leafValues></_>
        <_>
          <internalNodes>
            0 -1 190 2113339263 750555612 -1219377539 215239668
            -2005075083 754508596 498891261 71085564</internalNodes>
          <leafValues>
            -5.9499353170394897e-01 1.2760831415653229e-01</leafValues></_>
        <_>
          <internalNodes>
            0 -1 87 -67112075 368419612 -340969476 1057094284 374170476
            323349476 1274831518 1432858975</internalNodes>
          <leafValues>
            -3.0691456794738770e-01 2.4291497468948364e-01</leafValues></_>
        <_>
          <internalNodes>
            0 -1 17 1438054254 467450810 1290684518 1776971852 261059583
            116601851 1318787068 1643603839</internalNodes>
          <leafValues>
            -3.8586646318435669e-01 2.0437414944171906e-01</leafValues></_>
        <_>
          <internalNodes>
            0 -1 76 -270599569 2122240988 -545604737 259947484 167540792
            762319229 1530796542 1937143806</internalNodes>
          <leafValues>
            -4.1528457403182983e-01 1.8206983804702759e-01</leafValues></_>
        <_>
          <internalNodes>
            0 -1 165 437387344 -1610651913 1595105054 961420214
            -1255440232 -1131432484 -332383334 767041391</internalNodes>
          <leafValues>
            -4.6903839707374573e-01 1.6194222867488861e-01</leafValues></_>
        <_>
          <internalNodes>
            0 -1 30 -33607714 -369295378 -17104900 -949096450 -554369570
            2086014966 1507875292 1700787678</internalNodes>
          <leafValues>
            -2.4617789685726166e-01 3.2962250709533691e-01</leafValues></_>
        <_>
          <internalNodes>
            0 -1 39 -69226849 -674817 -657008420 -57085356 -338822568
            2136221723 2086943288 -210632878</internalNodes>
          <leafValues>
            -2.8291875123977661e-01 2.6648241281509399e-01</leafValues></_>
        <_>
          <internalNodes>
            0 -1 118 -2097153 1461452732 -2025226835 -278659298
            -716862280 2144708466 1959614044 1146486532</internalNodes>
          <leafValues>
            -2.5765183568000793e-01 2.8329929709434509e-01</leafValues></_>
        <_>
          <internalNodes>
            0 -1 77 -2687593 1742634938 1557192664 888733564 1733624
            80483346 -1060485124 1624748286</internalNodes>
          <leafValues>
            -4.2443007230758667e-01 1.7982400953769684e-01</leafValues></_>
        <_>
          <internalNodes>
            0 -1 178 1987548997 2132779988 -108080353 1392129103
            -1284135256 -221520901 -287917078 321642367</internalNodes>
          <leafValues>
            -2.9730626940727234e-01 2.5636851787567139e-01</leafValues></_>
        <_>
          <internalNodes>
            0 -1 78 251609083 -354519553 -778125313 402450302 1085157788
            -323354070 2105431006 -201929736</internalNodes>
          <leafValues>
            -3.0831745266914368e-01 2.4110867083072662e-01</leafValues></_>
        <_>
          <internalNodes>
            0 -1 142 -286795264 872231223 -245885863 1834914115
            1742897664 -72808966 579068458 1148181167</internalNodes>
          <leafValues>
            -4.8013839125633240e-01 1.4463917911052704e-01</leafValues></_>
        <_>
          <internalNodes>
            0 -1 135 327379308 983060890 -348433072 -2070428392
            -449989771 78967038 -1038348033 218085631</internalNodes>
          <leafValues>
            -3.7410381436347961e-01 1.9456785917282104e-01</leafValues></_>
        <_>
          <internalNodes>
            0 -1 121 -813709343 -40484016 -1691107715 -1142317412
            2050095476 2024835568 1604856948 1203763966</internalNodes>
          <leafValues>
            -3.0575489997863770e-01 2.5802722573280334e-01</leafValues></_>
        <_>
          <internalNodes>
            0 -1 160 -4355167 2068198164 -942171724 255915960 1595506028
            117597108 -34792596 1172569980</internalNodes>
          <leafValues>
            -4.5196714997291565e-01 1.6639839112758636e-01</leafValues></_></weakClassifiers></_>
    <!-- stage 11 -->
    <_>
      <maxWeakCount>27</maxWeakCount>
      <stageThreshold>-2.3359613418579102e+00</stageThreshold>
      <weakClassifiers>
        <_>
          <internalNodes>
            0 -1 47 -386990594 -556874014 -545316867 -67413092
            -190974209 -275504 -103285761 -37957</internalNodes>
          <leafValues>
            -7.2269940376281738e-01 -2.5102609395980835e-01</leafValues></_>
        <_>
          <internalNodes>
            0 -1 43 -71475331 -2663044 -570556481 -526339 -68124944
            -4630000 -42631372 -8945903</internalNodes>
          <leafValues>
            -5.4115486145019531e-01 1.2720911204814911e-01</leafValues></_>
        <_>
          <internalNodes>
            0 -1 56 1152377578 -892729430 1493671767 -572804732
            513774543 -1090806374 316495359 -268438793</internalNodes>
          <leafValues>
            -3.7789374589920044e-01 2.5565731525421143e-01</leafValues></_>
        <_>
          <internalNodes>
            0 -1 185 -68159508 -553539161 -221119612 894733200
            -1156187732 2068964242 -139159656 565111610</internalNodes>
          <leafValues>
            -3.6817869544029236e-01 2.5807616114616394e-01</leafValues></_>
        <_>
          <internalNodes>
            0 -1 10 -536937474 -186844754 -213614583 1920782844
            1474282191 1372363910 -992685362 1685442036</internalNodes>
          <leafValues>
            -4.2286473512649536e-01 1.8494512140750885e-01</leafValues></_>
        <_>
          <internalNodes>
            0 -1 192 -1361662993 786753274 -1915694153 -1897902340
            1823279231 -1965097840 -1648392774 -1996718598</internalNodes>
          <leafValues>
            -5.8374464511871338e-01 1.6002251207828522e-01</leafValues></_>
        <_>
          <internalNodes>
            0 -1 177 1391710799 -799968778 287045625 1402859891
            -203448316 -1111938838 -387007558 -536876501</internalNodes>
          <leafValues>
            -2.9620364308357239e-01 2.6277574896812439e-01</leafValues></_>
        <_>
          <internalNodes>
            0 -1 111 1342227028 -17482337 -1250844835 -576797484
            2141175743 -72411337 -1343251457 -1999144649</internalNodes>
          <leafValues>
            -3.1852564215660095e-01 2.3932665586471558e-01</leafValues></_>
        <_>
          <internalNodes>
            0 -1 66 -287350785 -957981186 -222388526 -655444098
            114261870 1147014046 1925170910 1465381599</internalNodes>
          <leafValues>
            -4.0138918161392212e-01 1.8769076466560364e-01</leafValues></_>
        <_>
          <internalNodes>
            0 -1 54 1216380654 825674318 234705149 703939876 -1899188738
            2075648511 268360682 565662079</internalNodes>
          <leafValues>
            -4.3304511904716492e-01 1.7333309352397919e-01</leafValues></_>
        <_>
          <internalNodes>
            0 -1 93 1719433663 1937404885 1469205983 1932721363
            -1851458608 1940943861 -703570256 1999796002</internalNodes>
          <leafValues>
            -4.1445651650428772e-01 1.7255547642707825e-01</leafValues></_>
        <_>
          <internalNodes>
            0 -1 113 -69294153 -1489108098 -1816921225 -1410532546
            56244084 158486838 330248412 1467479614</internalNodes>
          <leafValues>
            -3.0939337611198425e-01 2.3079848289489746e-01</leafValues></_>
        <_>
          <internalNodes>
            0 -1 181 1878502656 -1074162827 391877107 259141958
            1001177632 1537812983 1659956136 544337727</internalNodes>
          <leafValues>
            -4.6934413909912109e-01 1.5511967241764069e-01</leafValues></_>
        <_>
          <internalNodes>
            0 -1 117 1893193664 -35667074 452243240 232682295 1751613100
            -221126217 547374884 175502191</internalNodes>
          <leafValues>
            -4.0841513872146606e-01 1.6860690712928772e-01</leafValues></_>
        <_>
          <internalNodes>
            0 -1 71 2117800 -138926466 -1140105739 -572542332 1511216126
            -1678045023 208159471 218966151</internalNodes>
          <leafValues>
            -4.1688153147697449e-01 1.6867396235466003e-01</leafValues></_>
        <_>
          <internalNodes>
            0 -1 60 2060429988 -1167411290 -1815958652 220966311
            1904845798 274665766 -16953906 495449643</internalNodes>
          <leafValues>
            -3.9872151613235474e-01 1.7850577831268311e-01</leafValues></_>
        <_>
          <internalNodes>
            0 -1 144 -1145587937 -1352379436 -1481385024 -1489569872
            2071984949 226060597 -402752520 1140325726</internalNodes>
          <leafValues>
            -3.2357907295227051e-01 2.1077163517475128e-01</leafValues></_>
        <_>
          <internalNodes>
            0 -1 134 -1305020939 1585352764 1469177695 -1296124428
            1800562044 1151780240 1031705980 503272700</internalNodes>
          <leafValues>
            -3.9515718817710876e-01 1.8430390954017639e-01</leafValues></_>
        <_>
          <internalNodes>
            0 -1 68 -436212738 -227097731 -876865284 2064692633
            -1974177180 1197889877 -143197316 -548389034</internalNodes>
          <leafValues>
            -3.8447362184524536e-01 1.7935714125633240e-01</leafValues></_>
        <_>
          <internalNodes>
            0 -1 137 1965019643 -42993347 499407871 152253017
            -1832875346 -1096284102 1313201112 202385988</internalNodes>
          <leafValues>
            -2.5571769475936890e-01 2.6356676220893860e-01</leafValues></_>
        <_>
          <internalNodes>
            0 -1 25 2139095023 45003238 -38158 -1120262 -50397185
            385838847 -167876609 -706742553</internalNodes>
          <leafValues>
            -2.6113578677177429e-01 2.7999868988990784e-01</leafValues></_>
        <_>
          <internalNodes>
            0 -1 81 -1436644229 83293151 -1023354546 -1108296498
            1744081756 -1544535499 2076469748 2138405806</internalNodes>
          <leafValues>
            -3.1242993474006653e-01 2.2732754051685333e-01</leafValues></_>
        <_>
          <internalNodes>
            0 -1 24 -402653441 -11731106 2061958990 1163915246
            1600019965 -54006305 1323191967 1837089679</internalNodes>
          <leafValues>
            -2.5240811705589294e-01 2.8152409195899963e-01</leafValues></_>
        <_>
          <internalNodes>
            0 -1 157 518782909 -92803236 -13414008 824441660 1534638876
            642910771 -843482180 1438477118</internalNodes>
          <leafValues>
            -3.1528460979461670e-01 2.2770363092422485e-01</leafValues></_>
        <_>
          <internalNodes>
            0 -1 85 1358979060 420527060 1170539924 -716941244 66120605
            196788971 1537235005 1221478267</internalNodes>
          <leafValues>
            -3.3287289738655090e-01 2.1701984107494354e-01</leafValues></_>
        <_>
          <internalNodes>
            0 -1 166 -161808300 402219608 1578335198 956274391
            -352712572 -5001525 1389013418 269643839</internalNodes>
          <leafValues>
            -4.2890650033950806e-01 1.6290128231048584e-01</leafValues></_>
        <_>
          <internalNodes>
            0 -1 75 721419007 -1360465633 -621873202 -616245250
            2079871260 697831614 -660061436 -264837252</internalNodes>
          <leafValues>
            -3.9695209264755249e-01 1.6897243261337280e-01</leafValues></_></weakClassifiers></_>
    <!-- stage 12 -->
    <_>
      <maxWeakCount>29</maxWeakCount>
      <stageThreshold>-2.1907155513763428e+00</stageThreshold>
      <weakClassifiers>
        <_>
          <internalNodes>
            0 -1 110 -803168080 -2643105 91514877 -538596507 -4195329
            -2776910 -610125413 -318067777</internalNodes>
          <leafValues>
            -7.2921472787857056e-01 -2.8518241643905640e-01</leafValues></_>
        <_>
          <internalNodes>
            0 -1 57 -420827414 -239041888 1440430077 -571140492
            -775032833 -1075842385 610005455 -707308457</internalNodes>
          <leafValues>
            -4.1536140441894531e-01 1.5037953853607178e-01</leafValues></_>
        <_>
          <internalNodes>
            0 -1 69 -2394244 -141213699 -943262731 2142763583 -96714896
            -15718287 -85492876 -13533327</internalNodes>
          <leafValues>
            -5.3789639472961426e-01 1.4780285954475403e-01</leafValues></_>
        <_>
          <internalNodes>
            0 -1 34 -16789761 -119881793 -17137922 -16843074 1574924030
            888373214 1694387870 -134219778</internalNodes>
          <leafValues>
            -2.1475417912006378e-01 3.7051442265510559e-01</leafValues></_>
        <_>
          <internalNodes>
            0 -1 141 1400094936 -237002293 368794471 -1145456897
            27840442 -72352769 540039023 2067527679</internalNodes>
          <leafValues>
            -3.1414830684661865e-01 2.4891848862171173e-01</leafValues></_>
        <_>
          <internalNodes>
            0 -1 183 -3204 -750980699 1074041768 -240061544 -80479236
            2030090635 2012608496 1102510910</internalNodes>
          <leafValues>
            -3.6595350503921509e-01 1.9639776647090912e-01</leafValues></_>
        <_>
          <internalNodes>
            0 -1 164 -6625605 -1124206083 -32792584 -1936792452
            -39977157 -2063715879 -578904833 -1929400709</internalNodes>
          <leafValues>
            -3.2074674963951111e-01 2.2230687737464905e-01</leafValues></_>
        <_>
          <internalNodes>
            0 -1 146 -1628242435 2147284980 -65555 -279044 -1347046915
            -1376487425 1073706233 -16132</internalNodes>
          <leafValues>
            -2.4470828473567963e-01 3.2872232794761658e-01</leafValues></_>
        <_>
          <internalNodes>
            0 -1 95 -1467307856 -679898800 -1078493761 1610567764
            -1459647745 -17858125 1803936767 -1107349023</internalNodes>
          <leafValues>
            -3.5707455873489380e-01 1.9397255778312683e-01</leafValues></_>
        <_>
          <internalNodes>
            0 -1 129 -136331331 728855060 -1408294932 2133176092
            -83232908 2133146424 2147410824 1671659186</internalNodes>
          <leafValues>
            -3.4602981805801392e-01 1.9631701707839966e-01</leafValues></_>
        <_>
          <internalNodes>
            0 -1 122 1142847957 1476294613 -784940577 1068120573
            -871597292 149427093 2067281848 1069167548</internalNodes>
          <leafValues>
            -4.4998162984848022e-01 1.3928140699863434e-01</leafValues></_>
        <_>
          <internalNodes>
            0 -1 100 -652148738 -1834832560 620777624 84067844 360001966
            -923346089 1360003404 1141232229</internalNodes>
          <leafValues>
            -3.1184628605842590e-01 2.1271170675754547e-01</leafValues></_>
        <_>
          <internalNodes>
            0 -1 104 -35921169 -28269640 1064856510 -81743372 2020943868
            -1214740356 1507737400 1172813342</internalNodes>
          <leafValues>
            -3.1236925721168518e-01 2.2482225298881531e-01</leafValues></_>
        <_>
          <internalNodes>
            0 -1 22 -134959169 -743506982 1317983982 -579946978
            327957499 -1895974109 1308506332 1509148127</internalNodes>
          <leafValues>
            -2.8627768158912659e-01 2.3832309246063232e-01</leafValues></_>
        <_>
          <internalNodes>
            0 -1 62 -75809 1837011966 -239150690 526187356 100584062
            1347701170 1387937214 939489182</internalNodes>
          <leafValues>
            -3.4211009740829468e-01 2.1622063219547272e-01</leafValues></_>
        <_>
          <internalNodes>
            0 -1 91 -2088852265 -1504441187 -107475497 1538289022
            -36943244 1673267731 -1276884100 2071101298</internalNodes>
          <leafValues>
            -3.8701114058494568e-01 1.7007893323898315e-01</leafValues></_>
        <_>
          <internalNodes>
            0 -1 168 -75501043 2004614783 1065283307 792715133 -3968
            -671256715 -783033606 -482214021</internalNodes>
          <leafValues>
            -2.0580436289310455e-01 3.1721162796020508e-01</leafValues></_>
        <_>
          <internalNodes>
            0 -1 145 1939078061 -462230956 461609941 840095612
            -188095107 276859852 1302174100 1304420094</internalNodes>
          <leafValues>
            -2.8312861919403076e-01 2.4287289381027222e-01</leafValues></_>
        <_>
          <internalNodes>
            0 -1 159 2048916393 1068754809 -620015120 932446096
            1258797880 1786211120 -605750532 1404037112</internalNodes>
          <leafValues>
            -3.4108540415763855e-01 1.9631773233413696e-01</leafValues></_>
        <_>
          <internalNodes>
            0 -1 136 2134435924 884594591 499825631 -40633569 -223813452
            -88399685 -1669268050 -1113872282</internalNodes>
          <leafValues>
            -2.3686514794826508e-01 2.8198802471160889e-01</leafValues></_>
        <_>
          <internalNodes>
            0 -1 191 -8505385 -1598145840 1901578676 -393422595
            1976138617 137373912 -60001284 -855838230</internalNodes>
          <leafValues>
            -3.8407692313194275e-01 1.7965662479400635e-01</leafValues></_>
        <_>
          <internalNodes>
            0 -1 189 -137414667 299301848 387823600 -1117849198
            2012977013 2394792 434626288 -840188948</internalNodes>
          <leafValues>
            -3.0070784687995911e-01 2.1968880295753479e-01</leafValues></_>
        <_>
          <internalNodes>
            0 -1 0 1485049912 1371480790 7413561 428835677 -327223621
            -1868590865 1513187775 177053866</internalNodes>
          <leafValues>
            -2.7510169148445129e-01 2.5688007473945618e-01</leafValues></_>
        <_>
          <internalNodes>
            0 -1 13 2112696747 -328558048 -34736155 -571065497
            -107020545 -1074791426 1608480237 -1042333201</internalNodes>
          <leafValues>
            -2.3962531983852386e-01 3.0004200339317322e-01</leafValues></_>
        <_>
          <internalNodes>
            0 -1 26 -268517409 -1946227460 -285278610 1308618462
            1425334239 1280364285 1291648494 1467442382</internalNodes>
          <leafValues>
            -2.1761210262775421e-01 3.0203542113304138e-01</leafValues></_>
        <_>
          <internalNodes>
            0 -1 173 1128072208 -11797633 -1010570517 -1074994739
            599523721 -74739489 -1127494657 -1791313982</internalNodes>
          <leafValues>
            -4.7573184967041016e-01 1.4173176884651184e-01</leafValues></_>
        <_>
          <internalNodes>
            0 -1 138 -1219641895 630576000 -593433448 724605216
            1955899112 1356670633 205576968 812336</internalNodes>
          <leafValues>
            -3.9736708998680115e-01 1.6121515631675720e-01</leafValues></_>
        <_>
          <internalNodes>
            0 -1 112 -337662081 -97065378 1565541886 664179684 450596822
            1969265013 134118392 -187178010</internalNodes>
          <leafValues>
            -3.0615645647048950e-01 2.1415065228939056e-01</leafValues></_>
        <_>
          <internalNodes>
            0 -1 132 -107548033 2086184510 -985710241 1734520956
            1770036152 337412768 1346202941 666858686</internalNodes>
          <leafValues>
            -2.6140061020851135e-01 2.5155586004257202e-01</leafValues></_></weakClassifiers></_></stages>
  <features>
    <_>
      <rect>
        0 0 1 1</rect></_>
    <_>
      <rect>
        0 0 2 2</rect></_>
    <_>
      <rect>
        0 0 2 3</rect></_>
    <_>
      <rect>
        0 0 3 1</rect></_>
    <_>
      <rect>
        0 0 3 2</rect></_>
    <_>
      <rect>
        0 0 3 3</rect></_>
    <_>
      <rect>
        0 0 3 4</rect></_>
    <_>
      <rect>
        0 0 3 5</rect></_>
    <_>
      <rect>
        0 0 4 1</rect></_>
    <_>
      <rect>
        0 0 5 2</rect></_>
    <_>
      <rect>
        0 1 1 5</rect></_>
    <_>
      <rect>
        0 1 2 1</rect></_>
    <_>
      <rect>
        0 1 2 4</rect></_>
    <_>
      <rect>
        0 2 1 1</rect></_>
    <_>
      <rect>
        0 2 1 2</rect></_>
    <_>
      <rect>
        0 2 1 3</rect></_>
    <_>
      <rect>
        0 3 1 1</rect></_>
    <_>
      <rect>
        0 3 3 2</rect></_>
    <_>
      <rect>
        0 3 4 3</rect></_>
    <_>
      <rect>
        0 4 1 1</rect></_>
    <_>
      <rect>
        0 4 1 2</rect></_>
    <_>
      <rect>
        0 4 2 3</rect></_>
    <_>
      <rect>
        0 4 3 2</rect></_>
    <_>
      <rect>
        0 4 4 2</rect></_>
    <_>
      <rect>
        0 4 4 3</rect></_>
    <_>
      <rect>
        0 5 1 1</rect></_>
    <_>
      <rect>
        0 5 2 3</rect></_>
    <_>
      <rect>
        0 5 3 2</rect></_>
    <_>
      <rect>
        0 6 1 1</rect></_>
    <_>
      <rect>
        0 6 1 3</rect></_>
    <_>
      <rect>
        0 6 2 3</rect></_>
    <_>
      <rect>
        0 7 1 1</rect></_>
    <_>
      <rect>
        0 7 1 3</rect></_>
    <_>
      <rect>
        0 7 3 2</rect></_>
    <_>
      <rect>
        0 8 1 1</rect></_>
    <_>
      <rect>
        0 8 2 1</rect></_>
    <_>
      <rect>
        0 8 2 2</rect></_>
    <_>
      <rect>
        0 9 1 1</rect></_>
    <_>
      <rect>
        0 9 3 2</rect></_>
    <_>
      <rect>
        0 10 1 1</rect></_>
    <_>
      <rect>
        0 10 2 2</rect></_>
    <_>
      <rect>
        0 10 3 2</rect></_>
    <_>
      <rect>
        0 12 1 1</rect></_>
    <_>
      <rect>
        0 13 1 1</rect></_>
    <_>
      <rect>
        0 13 2 1</rect></_>
    <_>
      <rect>
        0 13 3 1</rect></_>
    <_>
      <rect>
        1 0 1 2</rect></_>
    <_>
      <rect>
        1 0 3 1</rect></_>
    <_>
      <rect>
        1 0 4 3</rect></_>
    <_>
      <rect>
        1 0 5 1</rect></_>
    <_>
      <rect>
        1 0 5 2</rect></_>
    <_>
      <rect>
        1 0 5 5</rect></_>
    <_>
      <rect>
        1 1 1 2</rect></_>
    <_>
      <rect>
        1 1 2 1</rect></_>
    <_>
      <rect>
        1 1 2 3</rect></_>
    <_>
      <rect>
        1 1 3 3</rect></_>
    <_>
      <rect>
        1 2 1 1</rect></_>
    <_>
      <rect>
        1 2 1 2</rect></_>
    <_>
      <rect>
        1 2 4 2</rect></_>
    <_>
      <rect>
        1 4 4 3</rect></_>
    <_>
      <rect>
        1 4 5 2</rect></_>
    <_>
      <rect>
        1 6 5 3</rect></_>
    <_>
      <rect>
        1 7 3 2</rect></_>
    <_>
      <rect>
        1 7 3 3</rect></_>
    <_>
      <rect>
        1 7 4 3</rect></_>
    <_>
      <rect>
        1 8 3 2</rect></_>
    <_>
      <rect>
        1 10 3 1</rect></_>
    <_>
      <rect>
        1 10 3 2</rect></_>
    <_>
      <rect>
        1 11 1 1</rect></_>
    <_>
      <rect>
        1 13 1 1</rect></_>
    <_>
      <rect>
        1 13 2 1</rect></_>
    <_>
      <rect>
        2 0 1 1</rect></_>
    <_>
      <rect>
        2 0 2 1</rect></_>
    <_>
      <rect>
        2 0 4 1</rect></_>
    <_>
      <rect>
        2 1 1 1</rect></_>
    <_>
      <rect>
        2 8 1 1</rect></_>
    <_>
      <rect>
        2 8 2 2</rect></_>
    <_>
      <rect>
        2 8 3 1</rect></_>
    <_>
      <rect>
        2 9 1 1</rect></_>
    <_>
      <rect>
        2 10 4 2</rect></_>
    <_>
      <rect>
        2 11 3 1</rect></_>
    <_>
      <rect>
        2 12 2 1</rect></_>
    <_>
      <rect>
        2 13 2 1</rect></_>
    <_>
      <rect>
        2 13 4 1</rect></_>
    <_>
      <rect>
        3 0 1 1</rect></_>
    <_>
      <rect>
        3 1 2 2</rect></_>
    <_>
      <rect>
        3 2 4 3</rect></_>
    <_>
      <rect>
        3 6 4 2</rect></_>
    <_>
      <rect>
        3 8 3 2</rect></_>
    <_>
      <rect>
        3 10 1 1</rect></_>
    <_>
      <rect>
        3 11 1 1</rect></_>
    <_>
      <rect>
        3 12 1 1</rect></_>
    <_>
      <rect>
        3 12 2 1</rect></_>
    <_>
      <rect>
        3 13 2 1</rect></_>
    <_>
      <rect>
        3 13 3 1</rect></_>
    <_>
      <rect>
        4 0 1 1</rect></_>
    <_>
      <rect>
        4 0 2 1</rect></_>
    <_>
      <rect>
        4 0 3 1</rect></_>
    <_>
      <rect>
        4 0 4 1</rect></_>
    <_>
      <rect>
        4 0 4 3</rect></_>
    <_>
      <rect>
        4 2 2 1</rect></_>
    <_>
      <rect>
        4 2 4 2</rect></_>
    <_>
      <rect>
        4 3 2 2</rect></_>
    <_>
      <rect>
        4 3 4 2</rect></_>
    <_>
      <rect>
        4 4 3 3</rect></_>
    <_>
      <rect>
        4 5 4 3</rect></_>
    <_>
      <rect>
        4 7 4 2</rect></_>
    <_>
      <rect>
        4 10 3 2</rect></_>
    <_>
      <rect>
        4 13 2 1</rect></_>
    <_>
      <rect>
        5 0 1 1</rect></_>
    <_>
      <rect>
        5 0 2 1</rect></_>
    <_>
      <rect>
        5 0 2 2</rect></_>
    <_>
      <rect>
        5 9 2 1</rect></_>
    <_>
      <rect>
        5 11 2 1</rect></_>
    <_>
      <rect>
        5 12 2 1</rect></_>
    <_>
      <rect>
        5 13 1 1</rect></_>
    <_>
      <rect>
        6 0 2 1</rect></_>
    <_>
      <rect>
        6 1 3 2</rect></_>
    <_>
      <rect>
        6 3 2 1</rect></_>
    <_>
      <rect>
        6 8 2 1</rect></_>
    <_>
      <rect>
        6 9 3 2</rect></_>
    <_>
      <rect>
        6 10 3 2</rect></_>
    <_>
      <rect>
        6 13 1 1</rect></_>
    <_>
      <rect>
        6 13 2 1</rect></_>
    <_>
      <rect>
        7 0 2 1</rect></_>
    <_>
      <rect>
        7 0 3 1</rect></_>
    <_>
      <rect>
        7 0 3 2</rect></_>
    <_>
      <rect>
        7 2 3 3</rect></_>
    <_>
      <rect>
        7 5 3 2</rect></_>
    <_>
      <rect>
        7 7 3 2</rect></_>
    <_>
      <rect>
        7 8 3 2</rect></_>
    <_>
      <rect>
        7 9 3 2</rect></_>
    <_>
      <rect>
        7 10 2 2</rect></_>
    <_>
      <rect>
        7 10 3 2</rect></_>
    <_>
      <rect>
        7 13 2 1</rect></_>
    <_>
      <rect>
        7 13 3 1</rect></_>
    <_>
      <rect>
        8 0 2 1</rect></_>
    <_>
      <rect>
        8 2 1 1</rect></_>
    <_>
      <rect>
        8 3 2 2</rect></_>
    <_>
      <rect>
        8 13 2 1</rect></_>
    <_>
      <rect>
        9 0 2 1</rect></_>
    <_>
      <rect>
        9 0 2 3</rect></_>
    <_>
      <rect>
        9 1 2 1</rect></_>
    <_>
      <rect>
        9 9 2 1</rect></_>
    <_>
      <rect>
        9 10 2 1</rect></_>
    <_>
      <rect>
        9 10 2 2</rect></_>
    <_>
      <rect>
        9 13 1 1</rect></_>
    <_>
      <rect>
        9 13 2 1</rect></_>
    <_>
      <rect>
        10 0 1 1</rect></_>
    <_>
      <rect>
        10 0 2 2</rect></_>
    <_>
      <rect>
        10 0 2 3</rect></_>
    <_>
      <rect>
        10 1 2 1</rect></_>
    <_>
      <rect>
        10 1 2 3</rect></_>
    <_>
      <rect>
        10 1 2 4</rect></_>
    <_>
      <rect>
        10 2 2 1</rect></_>
    <_>
      <rect>
        10 2 2 2</rect></_>
    <_>
      <rect>
        10 2 2 4</rect></_>
    <_>
      <rect>
        10 5 2 2</rect></_>
    <_>
      <rect>
        10 5 2 3</rect></_>
    <_>
      <rect>
        10 6 2 2</rect></_>
    <_>
      <rect>
        10 7 2 2</rect></_>
    <_>
      <rect>
        10 8 2 2</rect></_>
    <_>
      <rect>
        10 9 2 2</rect></_>
    <_>
      <rect>
        10 12 1 1</rect></_>
    <_>
      <rect>
        10 13 2 1</rect></_>
    <_>
      <rect>
        11 0 1 1</rect></_>
    <_>
      <rect>
        11 1 1 1</rect></_>
    <_>
      <rect>
        12 0 1 2</rect></_>
    <_>
      <rect>
        12 2 1 1</rect></_>
    <_>
      <rect>
        12 10 1 1</rect></_>
    <_>
      <rect>
        12 11 1 1</rect></_>
    <_>
      <rect>
        12 13 1 1</rect></_>
    <_>
      <rect>
        13 0 1 2</rect></_>
    <_>
      <rect>
        13 0 1 3</rect></_>
    <_>
      <rect>
        13 0 1 4</rect></_>
    <_>
      <rect>
        13 1 1 2</rect></_>
    <_>
      <rect>
        13 1 1 3</rect></_>
    <_>
      <rect>
        13 2 1 1</rect></_>
    <_>
      <rect>
        13 2 1 2</rect></_>
    <_>
      <rect>
        13 2 1 4</rect></_>
    <_>
      <rect>
        13 3 1 1</rect></_>
    <_>
      <rect>
        13 3 1 2</rect></_>
    <_>
      <rect>
        13 3 1 3</rect></_>
    <_>
      <rect>
        13 3 1 4</rect></_>
    <_>
      <rect>
        13 4 1 2</rect></_>
    <_>
      <rect>
        13 4 1 3</rect></_>
    <_>
      <rect>
        13 7 1 1</rect></_>
    <_>
      <rect>
        13 8 1 1</rect></_>
    <_>
      <rect>
        13 9 1 1</rect></_>
    <_>
      <rect>
        13 10 1 1</rect></_>
    <_>
      <rect>
        13 10 1 2</rect></_>
    <_>
      <rect>
        13 12 1 1</rect></_>
    <_>
      <rect>
        13 13 1 1</rect></_></features></cascade>
</opencv_storage>
